{"learner":{"attributes":{"scikit_learn":"{\"_estimator_type\": \"classifier\"}"},"feature_names":["start_x","start_y","distance","visible_angle","body_part_code","technique_code","angle_sin","angle_cos","dist_to_goal_center","is_header","start_x_norm","start_y_norm","player_last5_conv"],"feature_types":["float","float","float","float","int","int","float","float","float","int","float","float","float"],"gradient_booster":{"model":{"cats":{"enc":[],"feature_segments":[],"sorted_idx":[]},"gbtree_model_param":{"num_parallel_tree":"1","num_trees":"250"},"iteration_indptr":[0,1,2,3,4,5,6,7,8,9,10,11,12,13,14,15,16,17,18,19,20,21,22,23,24,25,26,27,28,29,30,31,32,33,34,35,36,37,38,39,40,41,42,43,44,45,46,47,48,49,50,51,52,53,54,55,56,57,58,59,60,61,62,63,64,65,66,67,68,69,70,71,72,73,74,75,76,77,78,79,80,81,82,83,84,85,86,87,88,89,90,91,92,93,94,95,96,97,98,99,100,101,102,103,104,105,106,107,108,109,110,111,112,113,114,115,116,117,118,119,120,121,122,123,124,125,126,127,128,129,130,131,132,133,134,135,136,137,138,139,140,141,142,143,144,145,146,147,148,149,150,151,152,153,154,155,156,157,158,159,160,161,162,163,164,165,166,167,168,169,170,171,172,173,174,175,176,177,178,179,180,181,182,183,184,185,186,187,188,189,190,191,192,193,194,195,196,197,198,199,200,201,202,203,204,205,206,207,208,209,210,211,212,213,214,215,216,217,218,219,220,221,222,223,224,225,226,227,228,229,230,231,232,233,234,235,236,237,238,239,240,241,242,243,244,245,246,247,248,249,250],"tree_info":[0,0,0,0,0,0,0,0,0,0,0,0,0,0,0,0,0,0,0,0,0,0,0,0,0,0,0,0,0,0,0,0,0,0,0,0,0,0,0,0,0,0,0,0,0,0,0,0,0,0,0,0,0,0,0,0,0,0,0,0,0,0,0,0,0,0,0,0,0,0,0,0,0,0,0,0,0,0,0,0,0,0,0,0,0,0,0,0,0,0,0,0,0,0,0,0,0,0,0,0,0,0,0,0,0,0,0,0,0,0,0,0,0,0,0,0,0,0,0,0,0,0,0,0,0,0,0,0,0,0,0,0,0,0,0,0,0,0,0,0,0,0,0,0,0,0,0,0,0,0,0,0,0,0,0,0,0,0,0,0,0,0,0,0,0,0,0,0,0,0,0,0,0,0,0,0,0,0,0,0,0,0,0,0,0,0,0,0,0,0,0,0,0,0,0,0,0,0,0,0,0,0,0,0,0,0,0,0,0,0,0,0,0,0,0,0,0,0,0,0,0,0,0,0,0,0,0,0,0,0,0,0,0,0,0,0,0,0,0,0,0,0,0,0,0,0,0,0,0,0],"trees":[{"base_weights":[9.373991E-8,-3.2712808E-1,1.6207868E0,3.0255139E-2,-6.1429423E-1,1.927745E-1,1.152514E0,7.7152856E-2,-2.1808567E-2,8.71842E-2,-6.8253976E-1,2.2453527E-1,6.8815607E-1,1.36658745E-2,-9.907097E-3,-2.6917925E-2,1.7659148E-2,-1.3001663E-2,-3.984819E-2,7.541641E-2,1.9046545E-2],"categories":[],"categories_nodes":[],"categories_segments":[],"categories_sizes":[],"default_left":[0,0,0,0,0,0,0,0,0,0,0,0,0,0,0,0,0,0,0,0,0],"id":0,"left_children":[1,3,5,7,9,-1,11,-1,13,15,17,-1,19,-1,-1,-1,-1,-1,-1,-1,-1],"loss_changes":[1.2901945E2,2.0798067E1,3.832048E1,7.2136736E0,5.436203E0,0E0,5.1493008E1,0E0,4.6917005E0,1.9946104E0,4.7465515E0,0E0,7.51223E0,0E0,0E0,0E0,0E0,0E0,0E0,0E0,0E0],"parents":[2147483647,0,0,1,1,2,2,3,3,4,4,6,6,8,8,9,9,10,10,12,12],"right_children":[2,4,6,8,10,-1,12,-1,14,16,18,-1,20,-1,-1,-1,-1,-1,-1,-1,-1],"split_conditions":[6.3853836E-1,2.0511703E1,5.467175E0,1.008E2,2.3E1,1.927745E-1,1.083E2,7.7152856E-2,1.3867949E1,2.5742184E1,9.999854E-1,2.2453527E-1,7.0405965E0,1.36658745E-2,-9.907097E-3,-2.6917925E-2,1.7659148E-2,-1.3001663E-2,-3.984819E-2,7.541641E-2,1.9046545E-2],"split_indices":[3,2,2,0,1,0,0,0,2,2,7,0,2,0,0,0,0,0,0,0,0],"split_type":[0,0,0,0,0,0,0,0,0,0,0,0,0,0,0,0,0,0,0,0,0],"sum_hessian":[2.4133884E2,2.014731E2,3.9865746E1,9.016091E1,1.1131218E2,5.653333E0,3.4212414E1,2.0468965E0,8.811402E1,9.844597E0,1.0146758E2,3.1190803E0,3.1093332E1,3.2750343E1,5.5363674E1,2.631724E0,7.212873E0,2.2320919E1,7.914666E1,7.407816E0,2.3685516E1],"tree_param":{"num_deleted":"0","num_feature":"13","num_nodes":"21","size_leaf_vector":"1"}},{"base_weights":[1.2426192E-3,-3.1497705E-1,1.4666215E0,2.951141E-2,-5.98547E-1,9.380986E-1,2.8112667E0,1.4305501E0,-2.0744516E-2,8.148329E-2,-6.6674757E-1,1.8874566E-1,4.4226563E-1,1.5354332E-1,1.4510094E-2,2.0347374E-2,8.677739E-2,1.2277533E-2,-1.014216E-2,-2.635144E-2,1.6675377E-2,-3.4618687E-2,4.5070034E-2,-1.7296419E-3,3.3411633E-2],"categories":[],"categories_nodes":[],"categories_segments":[],"categories_sizes":[],"default_left":[0,0,0,0,0,0,0,0,0,0,0,0,0,0,0,0,0,0,0,0,0,0,0,0,0],"id":1,"left_children":[1,3,5,7,9,11,13,15,17,19,21,-1,23,-1,-1,-1,-1,-1,-1,-1,-1,-1,-1,-1,-1],"loss_changes":[1.126196E2,1.9545637E1,2.8019371E1,6.451841E0,5.141773E0,4.399771E1,6.7468414E0,2.8424788E-1,4.367419E0,1.8457978E0,4.6348E0,0E0,3.1230998E0,0E0,0E0,0E0,0E0,0E0,0E0,0E0,0E0,0E0,0E0,0E0,0E0],"parents":[2147483647,0,0,1,1,2,2,3,3,4,4,5,5,6,6,7,7,8,8,9,9,10,10,12,12],"right_children":[2,4,6,8,10,12,14,16,18,20,22,-1,24,-1,-1,-1,-1,-1,-1,-1,-1,-1,-1,-1,-1],"split_conditions":[6.3853836E-1,2.0511703E1,1.0567989E0,1.008E2,2.3E1,1.083E2,4.29E1,1.9999996E-1,9.9997073E-1,2.5742184E1,6.55E1,1.8874566E-1,1.113E2,1.5354332E-1,1.4510094E-2,2.0347374E-2,8.677739E-2,1.2277533E-2,-1.014216E-2,-2.635144E-2,1.6675377E-2,-3.4618687E-2,4.5070034E-2,-1.7296419E-3,3.3411633E-2],"split_indices":[3,2,3,0,1,0,1,12,7,2,1,0,0,0,0,0,0,0,0,0,0,0,0,0,0],"split_type":[0,0,0,0,0,0,0,0,0,0,0,0,0,0,0,0,0,0,0,0,0,0,0,0,0],"sum_hessian":[2.4104166E2,1.9890437E2,4.2137276E1,9.021034E1,1.0869404E2,3.1466707E1,1.0670568E1,2.172757E0,8.803758E1,9.889619E0,9.880442E1,3.6977057E0,2.7769001E1,9.476653E0,1.1939152E0,1.0346462E0,1.1381108E0,3.5611717E1,5.2425865E1,2.5767872E0,7.312831E0,9.776525E1,1.0391667E0,9.200368E0,1.8568632E1],"tree_param":{"num_deleted":"0","num_feature":"13","num_nodes":"25","size_leaf_vector":"1"}},{"base_weights":[2.420498E-3,1.3225036E0,-3.0538952E-1,1.7355551E-1,1.0479064E0,2.571595E-2,-5.8265316E-1,4.2506507E-1,2.4390337E0,1.3518844E0,-2.359136E-2,7.6088294E-2,-6.507448E-1,3.205433E-2,-2.6848742E-3,1.3196652E-1,1.4029584E-2,1.9669387E-2,8.144871E-2,1.2311629E-2,-9.299392E-3,2.4266988E-2,-1.5347599E-2,-1.11569185E-2,-3.846253E-2],"categories":[],"categories_nodes":[],"categories_segments":[],"categories_sizes":[],"default_left":[0,0,0,0,0,0,0,0,0,0,0,0,0,0,0,0,0,0,0,0,0,0,0,0,0],"id":2,"left_children":[1,3,5,-1,7,9,11,13,15,17,19,21,23,-1,-1,-1,-1,-1,-1,-1,-1,-1,-1,-1,-1],"loss_changes":[9.859359E1,2.3431534E1,1.807896E1,0E0,3.5451996E1,5.958464E0,4.8549614E0,3.1681485E0,4.7987595E0,2.2664165E-1,3.9179595E0,1.8626509E0,4.7539253E0,0E0,0E0,0E0,0E0,0E0,0E0,0E0,0E0,0E0,0E0,0E0,0E0],"parents":[2147483647,0,0,1,1,2,2,4,4,5,5,6,6,7,7,8,8,9,9,10,10,11,11,12,12],"right_children":[2,4,6,-1,8,10,12,14,16,18,20,22,24,-1,-1,-1,-1,-1,-1,-1,-1,-1,-1,-1,-1],"split_conditions":[9.999389E-1,1.082E2,2.0511703E1,1.7355551E-1,1.0567989E0,1.008E2,2.3E1,4.22E1,4.29E1,1.9999996E-1,1.3867949E1,9.9999446E-1,9.999854E-1,3.205433E-2,-2.6848742E-3,1.3196652E-1,1.4029584E-2,1.9669387E-2,8.144871E-2,1.2311629E-2,-9.299392E-3,2.4266988E-2,-1.5347599E-2,-1.11569185E-2,-3.846253E-2],"split_indices":[7,0,2,0,3,0,1,1,1,12,2,7,7,0,0,0,0,0,0,0,0,0,0,0,0],"split_type":[0,0,0,0,0,0,0,0,0,0,0,0,0,0,0,0,0,0,0,0,0,0,0,0,0],"sum_hessian":[2.4064731E2,4.4879456E1,1.9576785E2,3.7666087E0,4.111285E1,8.963449E1,1.0613336E2,2.930006E1,1.1812789E1,2.2661676E0,8.7368324E1,9.931852E0,9.620151E1,1.9956484E1,9.343576E0,1.060581E1,1.2069789E0,1.0508447E0,1.2153229E0,3.2632587E1,5.4735733E1,4.672521E0,5.259331E0,2.1501223E1,7.470029E1],"tree_param":{"num_deleted":"0","num_feature":"13","num_nodes":"25","size_leaf_vector":"1"}},{"base_weights":[3.3158527E-3,-2.912486E-1,1.2193185E0,2.8487422E-2,-5.671513E-1,1.2779185E-1,8.878738E-1,1.2786102E0,-1.9037686E-2,7.277927E-2,-6.351761E-1,1.4360872E-1,5.375838E-1,1.9015074E-2,7.654479E-2,1.1275562E-2,-9.522206E-3,-2.6093576E-2,1.5768914E-2,-1.0716212E-2,-3.7719358E-2,3.866175E-2,-1.7838281E-3],"categories":[],"categories_nodes":[],"categories_segments":[],"categories_sizes":[],"default_left":[0,0,0,0,0,0,0,0,0,0,0,0,0,0,0,0,0,0,0,0,0,0,0],"id":3,"left_children":[1,3,5,7,9,-1,11,13,15,17,19,-1,21,-1,-1,-1,-1,-1,-1,-1,-1,-1,-1],"loss_changes":[8.675384E1,1.7216455E1,1.8652351E1,5.446748E0,4.604454E0,0E0,2.5825718E1,1.786542E-1,3.769822E0,1.7454884E0,4.592102E0,0E0,4.714986E0,0E0,0E0,0E0,0E0,0E0,0E0,0E0,0E0,0E0,0E0],"parents":[2147483647,0,0,1,1,2,2,3,3,4,4,6,6,7,7,8,8,9,9,10,10,12,12],"right_children":[2,4,6,8,10,-1,12,14,16,18,20,-1,22,-1,-1,-1,-1,-1,-1,-1,-1,-1,-1],"split_conditions":[6.3853836E-1,2.0511703E1,5.467175E0,1.008E2,2.3E1,1.2779185E-1,1.083E2,1.9999996E-1,9.9997073E-1,2.5742184E1,9.999854E-1,1.4360872E-1,4.22E1,1.9015074E-2,7.654479E-2,1.1275562E-2,-9.522206E-3,-2.6093576E-2,1.5768914E-2,-1.0716212E-2,-3.7719358E-2,3.866175E-2,-1.7838281E-3],"split_indices":[3,2,2,0,1,0,0,12,7,2,7,0,1,0,0,0,0,0,0,0,0,0,0],"split_type":[0,0,0,0,0,0,0,0,0,0,0,0,0,0,0,0,0,0,0,0,0,0,0],"sum_hessian":[2.4020837E2,1.9397931E2,4.6229053E1,9.0267525E1,1.0371179E2,7.852682E0,3.8376373E1,2.3572562E0,8.791026E1,9.958569E0,9.375323E1,4.677898E0,3.3698475E1,1.0666564E0,1.2905997E0,3.6095894E1,5.1814373E1,2.5520062E0,7.406563E0,2.1312244E1,7.244098E1,2.3634262E1,1.0064214E1],"tree_param":{"num_deleted":"0","num_feature":"13","num_nodes":"23","size_leaf_vector":"1"}},{"base_weights":[4.022047E-3,1.111555E0,-2.8242064E-1,1.3610283E-1,8.867115E-1,2.5141641E-2,-5.519403E-1,3.6218613E-1,1.9524672E0,1.2103711E0,-2.14424E-2,-2.4815286E-2,-6.331791E-1,1.352865E-2,6.5384395E-2,1.05111025E-1,1.11696E-2,1.8383592E-2,7.203037E-2,1.134879E-2,-8.723448E-3,-9.414626E-3,3.8420763E-2,-1.0289779E-2,-3.8191058E-2],"categories":[],"categories_nodes":[],"categories_segments":[],"categories_sizes":[],"default_left":[0,0,0,0,0,0,0,0,0,0,0,0,0,0,0,0,0,0,0,0,0,0,0,0,0],"id":4,"left_children":[1,3,5,-1,7,9,11,13,15,17,19,21,23,-1,-1,-1,-1,-1,-1,-1,-1,-1,-1,-1,-1],"loss_changes":[7.668296E1,1.5571804E1,1.5934309E1,0E0,2.4485909E1,5.031254E0,4.369478E0,2.3686628E0,3.3203392E0,1.388712E-1,3.3928282E0,2.0528958E0,4.794609E0,0E0,0E0,0E0,0E0,0E0,0E0,0E0,0E0,0E0,0E0,0E0,0E0],"parents":[2147483647,0,0,1,1,2,2,4,4,5,5,6,6,7,7,8,8,9,9,10,10,11,11,12,12],"right_children":[2,4,6,-1,8,10,12,14,16,18,20,22,24,-1,-1,-1,-1,-1,-1,-1,-1,-1,-1,-1,-1],"split_conditions":[9.999389E-1,1.082E2,2.0511703E1,1.3610283E-1,1.0567989E0,1.008E2,2.48E1,4.59E1,4.29E1,1.9999996E-1,1.3867949E1,3.3333322E-1,9.999854E-1,1.352865E-2,6.5384395E-2,1.05111025E-1,1.11696E-2,1.8383592E-2,7.203037E-2,1.134879E-2,-8.723448E-3,-9.414626E-3,3.8420763E-2,-1.0289779E-2,-3.8191058E-2],"split_indices":[7,0,2,0,3,0,1,1,1,12,2,12,7,0,0,0,0,0,0,0,0,0,0,0,0],"split_type":[0,0,0,0,0,0,0,0,0,0,0,0,0,0,0,0,0,0,0,0,0,0,0,0,0],"sum_hessian":[2.3972595E2,4.866845E1,1.9105751E2,4.601627E0,4.4066822E1,8.965475E1,1.01402756E2,3.0430098E1,1.36367235E1,2.4457383E0,8.720901E1,1.37153015E1,8.7687454E1,2.8914621E1,1.5154757E0,1.2351193E1,1.2855301E0,1.0820833E0,1.3636549E0,3.305896E1,5.415005E1,1.2004015E1,1.711287E0,2.1131836E1,6.655562E1],"tree_param":{"num_deleted":"0","num_feature":"13","num_nodes":"25","size_leaf_vector":"1"}},{"base_weights":[5.007019E-3,-2.6914588E-1,1.0365593E0,2.720892E-2,-5.366781E-1,2.0612283E0,7.6357925E-1,1.1468068E0,-1.7622877E-2,7.089311E-2,-6.0464305E-1,1.3413168E-1,1.392274E0,1.15646E-1,4.6443048E-1,6.923937E-2,1.6546376E-2,1.0346972E-2,-8.934905E-3,2.3358818E-2,-1.5214689E-2,-4.871145E-2,-2.3078414E-2,1.0268734E-1,2.3754798E-2,-4.5650667E-3,3.357878E-2],"categories":[],"categories_nodes":[],"categories_segments":[],"categories_sizes":[],"default_left":[0,0,0,0,0,0,0,0,0,0,0,0,0,0,0,0,0,0,0,0,0,0,0,0,0,0,0],"id":5,"left_children":[1,3,5,7,9,11,13,15,17,19,21,-1,23,-1,25,-1,-1,-1,-1,-1,-1,-1,-1,-1,-1,-1,-1],"loss_changes":[6.818365E1,1.5117607E1,1.2585648E1,4.6043415E0,4.1789227E0,4.4713974E-1,1.8188618E1,2.274046E-1,3.2489166E0,1.7735202E0,4.319435E0,0E0,3.224926E0,0E0,4.215456E0,0E0,0E0,0E0,0E0,0E0,0E0,0E0,0E0,0E0,0E0,0E0,0E0],"parents":[2147483647,0,0,1,1,2,2,3,3,4,4,5,5,6,6,7,7,8,8,9,9,10,10,12,12,14,14],"right_children":[2,4,6,8,10,12,14,16,18,20,22,-1,24,-1,26,-1,-1,-1,-1,-1,-1,-1,-1,-1,-1,-1,-1],"split_conditions":[6.3853836E-1,2.0511703E1,5.467175E0,1.008E2,2.3E1,4.031129E0,1.083E2,2.0006248E1,9.9997073E-1,9.9999446E-1,9.08E1,1.3413168E-1,1.3305291E0,1.15646E-1,1.113E2,6.923937E-2,1.6546376E-2,1.0346972E-2,-8.934905E-3,2.3358818E-2,-1.5214689E-2,-4.871145E-2,-2.3078414E-2,1.0268734E-1,2.3754798E-2,-4.5650667E-3,3.357878E-2],"split_indices":[3,2,2,0,1,2,0,2,7,7,0,0,3,0,0,0,0,0,0,0,0,0,0,0,0,0,0],"split_type":[0,0,0,0,0,0,0,0,0,0,0,0,0,0,0,0,0,0,0,0,0,0,0,0,0,0,0],"sum_hessian":[2.3911288E2,1.8949136E2,4.962152E1,9.032903E1,9.916233E1,9.060571E0,4.056095E1,2.5314002E0,8.779763E1,9.972279E0,8.919005E1,3.136666E0,5.9239044E0,5.4747343E0,3.5086216E1,1.4199317E0,1.1114686E0,3.6552868E1,5.1244762E1,4.730551E0,5.2417274E0,2.3270151E1,6.59199E1,2.7217586E0,3.202146E0,9.678864E0,2.5407354E1],"tree_param":{"num_deleted":"0","num_feature":"13","num_nodes":"27","size_leaf_vector":"1"}},{"base_weights":[6.137022E-3,-2.5862956E-1,9.643686E-1,-6.263581E-1,-5.3394776E-2,1.8916742E0,7.118295E-1,-1.8207374E-1,-7.0944095E-1,6.635573E-2,-8.650815E-2,1.2923042E0,1.2169917E-1,1.1064551E-1,4.5168123E-1,4.446395E-2,-3.246857E-2,-3.024726E-3,-3.9752867E-2,-1.4042759E-2,7.4618557E-3,9.808238E-2,3.0162206E-2,3.296517E-2,-3.927393E-3],"categories":[],"categories_nodes":[],"categories_segments":[],"categories_sizes":[],"default_left":[0,0,0,0,0,0,0,0,0,0,0,0,0,0,0,0,0,0,0,0,0,0,0,0,0],"id":6,"left_children":[1,3,5,7,9,11,13,15,17,-1,19,21,-1,-1,23,-1,-1,-1,-1,-1,-1,-1,-1,-1,-1],"loss_changes":[6.100057E1,1.4185436E1,1.0842724E1,2.3584423E0,5.692299E0,2.7980804E-1,1.5601885E1,6.5663514E0,3.087181E0,0E0,5.544051E0,2.108594E0,0E0,0E0,4.1789374E0,0E0,0E0,0E0,0E0,0E0,0E0,0E0,0E0,0E0,0E0],"parents":[2147483647,0,0,1,1,2,2,3,3,4,4,5,5,6,6,7,7,8,8,10,10,11,11,14,14],"right_children":[2,4,6,8,10,12,14,16,18,-1,20,22,-1,-1,24,-1,-1,-1,-1,-1,-1,-1,-1,-1,-1],"split_conditions":[6.3853836E-1,9.85E1,5.467175E0,9.999854E-1,9.89E1,1.17E2,1.082E2,9.62E1,2.48E1,6.635573E-2,3.8591352E-1,1.3305291E0,1.2169917E-1,1.1064551E-1,4.22E1,4.446395E-2,-3.246857E-2,-3.024726E-3,-3.9752867E-2,-1.4042759E-2,7.4618557E-3,9.808238E-2,3.0162206E-2,3.296517E-2,-3.927393E-3],"split_indices":[3,0,2,7,0,0,0,0,1,0,3,3,0,0,1,0,0,0,0,0,0,0,0,0,0],"split_type":[0,0,0,0,0,0,0,0,0,0,0,0,0,0,0,0,0,0,0,0,0,0,0,0,0],"sum_hessian":[2.3845334E2,1.8740266E2,5.1050667E1,6.639242E1,1.2101025E2,9.5378275E0,4.1512836E1,1.0962432E1,5.542999E1,1.9192224E0,1.1909103E2,6.1375074E0,3.4003203E0,5.023044E0,3.6489796E1,3.055104E0,7.9073277E0,6.6595078E0,4.877048E1,6.517214E1,5.3918884E1,2.1764696E0,3.9610379E0,2.6047087E1,1.0442707E1],"tree_param":{"num_deleted":"0","num_feature":"13","num_nodes":"25","size_leaf_vector":"1"}},{"base_weights":[7.204348E-3,8.9288765E-1,-2.5050983E-1,1.1268659E0,7.8489125E-2,-6.112953E-1,-5.2547604E-2,3.740505E-1,1.4160779E0,-3.2544884E-1,9.80128E-1,-1.73806E-1,-6.9483006E-1,6.1897308E-2,-8.489779E-2,-9.633382E-3,4.84519E-2,5.0143477E-2,9.116993E-2,3.1142438E-2,-4.1113675E-2,7.5131804E-2,3.1718132E-3,4.162857E-2,-3.1772103E-2,-2.8993636E-3,-3.9070465E-2,-1.38165E-2,6.61637E-3],"categories":[],"categories_nodes":[],"categories_segments":[],"categories_sizes":[],"default_left":[0,0,0,0,0,0,0,0,0,0,0,0,0,0,0,0,0,0,0,0,0,0,0,0,0,0,0,0,0],"id":7,"left_children":[1,3,5,7,9,11,13,15,17,19,21,23,25,-1,27,-1,-1,-1,-1,-1,-1,-1,-1,-1,-1,-1,-1,-1,-1],"loss_changes":[5.472431E1,1.0208366E1,1.3233486E1,8.593349E0,5.102792E0,2.2807007E0,5.15759E0,4.5663824E0,3.2060165E0,5.139553E0,1.9705806E0,6.0431433E0,2.9785576E0,0E0,4.985073E0,0E0,0E0,0E0,0E0,0E0,0E0,0E0,0E0,0E0,0E0,0E0,0E0,0E0,0E0],"parents":[2147483647,0,0,1,1,2,2,3,3,4,4,5,5,6,6,7,7,8,8,9,9,10,10,11,11,12,12,14,14],"right_children":[2,4,6,8,10,12,14,16,18,20,22,24,26,-1,28,-1,-1,-1,-1,-1,-1,-1,-1,-1,-1,-1,-1,-1,-1],"split_conditions":[9.999389E-1,4.22E1,9.85E1,3.74E1,4.53E1,9.999854E-1,9.89E1,1.141E2,1.9999996E-1,9.9984413E-1,1.139E2,9.62E1,2.48E1,6.1897308E-2,3.8012075E-1,-9.633382E-3,4.84519E-2,5.0143477E-2,9.116993E-2,3.1142438E-2,-4.1113675E-2,7.5131804E-2,3.1718132E-3,4.162857E-2,-3.1772103E-2,-2.8993636E-3,-3.9070465E-2,-1.38165E-2,6.61637E-3],"split_indices":[7,1,0,1,1,7,0,0,12,7,0,0,1,0,3,0,0,0,0,0,0,0,0,0,0,0,0,0,0],"split_type":[0,0,0,0,0,0,0,0,0,0,0,0,0,0,0,0,0,0,0,0,0,0,0,0,0,0,0,0,0],"sum_hessian":[2.3777277E2,5.3036884E1,1.8473587E2,4.0901985E1,1.2134898E1,6.471149E1,1.2002439E2,1.1988752E1,2.8913235E1,8.82176E0,3.313138E0,1.0868982E1,5.3842503E1,2.0238328E0,1.1800056E2,6.4865637E0,5.502188E0,1.6071518E1,1.2841716E1,2.9456637E0,5.8760962E0,1.7031559E0,1.6099821E0,3.1652153E0,7.7037673E0,6.643711E0,4.719879E1,6.257953E1,5.542103E1],"tree_param":{"num_deleted":"0","num_feature":"13","num_nodes":"29","size_leaf_vector":"1"}},{"base_weights":[7.5635402E-3,5.966155E-1,-3.4131485E-1,3.9311594E-1,1.4269111E0,-5.963749E-1,-1.4979547E-1,9.407834E-1,1.7525408E-1,1.0469924E0,1.118144E-1,-9.520438E-1,-4.7834712E-1,1.1567895E0,-1.9605634E-1,-5.767304E-3,6.923842E-2,1.5407363E-2,-1.8935328E-2,8.525455E-2,3.2358117E-2,-5.0598074E-2,-9.169101E-3,-2.792655E-2,5.5174824E-2,1.8354742E-2,7.006032E-2,-1.1883109E-2,3.759594E-2],"categories":[],"categories_nodes":[],"categories_segments":[],"categories_sizes":[],"default_left":[0,0,0,0,0,0,0,0,0,0,0,0,0,0,0,0,0,0,0,0,0,0,0,0,0,0,0,0,0],"id":8,"left_children":[1,3,5,7,9,11,13,15,17,19,-1,21,23,25,27,-1,-1,-1,-1,-1,-1,-1,-1,-1,-1,-1,-1,-1,-1],"loss_changes":[4.916045E1,1.4472721E1,7.250162E0,8.526201E0,2.9273643E0,2.2354355E0,5.4943943E0,9.772694E0,4.043465E0,2.4595623E0,0E0,5.035019E-1,6.9758205E0,8.8793755E-2,3.5321517E0,0E0,0E0,0E0,0E0,0E0,0E0,0E0,0E0,0E0,0E0,0E0,0E0,0E0,0E0],"parents":[2147483647,0,0,1,1,2,2,3,3,4,4,5,5,6,6,7,7,8,8,9,9,11,11,12,12,13,13,14,14],"right_children":[2,4,6,8,10,12,14,16,18,20,-1,22,24,26,28,-1,-1,-1,-1,-1,-1,-1,-1,-1,-1,-1,-1,-1,-1],"split_conditions":[1.3867949E1,1.0567989E0,9.85E1,1.093E2,1.17E2,8.85E1,9.89E1,1.079E2,1.15E2,1.142E2,1.118144E-1,5.58E1,3.502585E1,2.2825424E1,1.134E2,-5.767304E-3,6.923842E-2,1.5407363E-2,-1.8935328E-2,8.525455E-2,3.2358117E-2,-5.0598074E-2,-9.169101E-3,-2.792655E-2,5.5174824E-2,1.8354742E-2,7.006032E-2,-1.1883109E-2,3.759594E-2],"split_indices":[2,3,0,0,0,0,0,0,0,0,0,1,2,2,0,0,0,0,0,0,0,0,0,0,0,0,0,0,0],"split_type":[0,0,0,0,0,0,0,0,0,0,0,0,0,0,0,0,0,0,0,0,0,0,0,0,0,0,0,0,0],"sum_hessian":[2.37224E2,8.797518E1,1.4924881E2,7.184094E1,1.613424E1,6.310005E1,8.6148766E1,1.950086E1,5.2340084E1,1.2541079E1,3.59316E0,1.3961561E1,4.9138493E1,2.124993E0,8.402377E1,5.990693E0,1.3510166E1,4.2571156E1,9.76893E0,3.5059443E0,9.035134E0,1.2658314E1,1.3032471E0,4.7383526E1,1.7549661E0,1.0935918E0,1.0314014E0,8.120888E1,2.8148963E0],"tree_param":{"num_deleted":"0","num_feature":"13","num_nodes":"29","size_leaf_vector":"1"}},{"base_weights":[8.403646E-3,5.602626E-1,-3.2864362E-1,1.552475E0,4.0925744E-1,-5.8145744E-1,-1.4207754E-1,1.0073226E-1,1.0621448E0,5.3961307E-1,-4.214121E-1,-1.4364344E-1,-6.6738635E-1,1.1005876E0,-1.8751992E-1,7.959005E-2,1.6369438E-2,3.827575E-2,8.969962E-3,-3.130577E-2,2.7640562E-3,4.076754E-2,-3.046788E-2,-2.1237612E-3,-3.781908E-2,1.773931E-2,6.633584E-2,-1.140492E-2,3.5396177E-2],"categories":[],"categories_nodes":[],"categories_segments":[],"categories_sizes":[],"default_left":[0,0,0,0,0,0,0,0,0,0,0,0,0,0,0,0,0,0,0,0,0,0,0,0,0,0,0,0,0],"id":9,"left_children":[1,3,5,7,9,11,13,-1,15,17,19,21,23,25,27,-1,-1,-1,-1,-1,-1,-1,-1,-1,-1,-1,-1,-1,-1],"loss_changes":[4.436951E1,1.2915594E1,6.9032106E0,4.862709E-1,8.87422E0,2.2579174E0,5.093491E0,0E0,2.4902487E0,5.5149326E0,1.1463597E0,5.650472E0,2.86129E0,6.875396E-2,3.2262232E0,0E0,0E0,0E0,0E0,0E0,0E0,0E0,0E0,0E0,0E0,0E0,0E0,0E0,0E0],"parents":[2147483647,0,0,1,1,2,2,3,3,4,4,5,5,6,6,8,8,9,9,10,10,11,11,12,12,13,13,14,14],"right_children":[2,4,6,8,10,12,14,-1,16,18,20,22,24,26,28,-1,-1,-1,-1,-1,-1,-1,-1,-1,-1,-1,-1,-1,-1],"split_conditions":[1.3867949E1,5.467175E0,9.85E1,4.031129E0,1.15E2,9.999854E-1,9.89E1,1.0073226E-1,1.3305291E0,4.13E1,1.167E2,9.62E1,2.48E1,2.2825424E1,1.134E2,7.959005E-2,1.6369438E-2,3.827575E-2,8.969962E-3,-3.130577E-2,2.7640562E-3,4.076754E-2,-3.046788E-2,-2.1237612E-3,-3.781908E-2,1.773931E-2,6.633584E-2,-1.140492E-2,3.5396177E-2],"split_indices":[2,2,0,2,0,7,0,0,3,1,0,0,1,2,0,0,0,0,0,0,0,0,0,0,0,0,0,0,0],"split_type":[0,0,0,0,0,0,0,0,0,0,0,0,0,0,0,0,0,0,0,0,0,0,0,0,0,0,0,0,0],"sum_hessian":[2.3655257E2,8.944271E1,1.4710985E2,1.0588396E1,7.885432E1,6.1565903E1,8.554395E1,3.8503873E0,6.7380085E0,6.84612E1,1.0393114E1,1.0539261E1,5.102664E1,2.198711E0,8.334524E1,3.2376683E0,3.5003405E0,4.138324E1,2.7077957E1,7.051555E0,3.3415592E0,3.199705E0,7.3395557E0,6.5451145E0,4.4481525E1,1.1092441E0,1.0894669E0,8.044501E1,2.90023E0],"tree_param":{"num_deleted":"0","num_feature":"13","num_nodes":"29","size_leaf_vector":"1"}},{"base_weights":[8.9153685E-3,5.257537E-1,-3.1633165E-1,3.4399784E-1,1.2470685E0,-5.667646E-1,-1.347065E-1,7.6811045E-1,1.1873335E-1,1.3623537E0,1.1581681E-3,-9.363557E-1,-4.4695103E-1,1.0475591E0,-1.7929979E-1,-9.567277E-3,5.1880497E-2,1.1925909E-2,-1.7751629E-2,5.1790055E-2,1.05006635E-1,-4.9988493E-2,-8.04074E-3,-2.6429284E-2,5.2613944E-2,1.7145544E-2,6.284826E-2,-1.0942072E-2,3.3360366E-2],"categories":[],"categories_nodes":[],"categories_segments":[],"categories_sizes":[],"default_left":[0,0,0,0,0,0,0,0,0,0,0,0,0,0,0,0,0,0,0,0,0,0,0,0,0,0,0,0,0],"id":10,"left_children":[1,3,5,7,9,11,13,15,17,19,-1,21,23,25,27,-1,-1,-1,-1,-1,-1,-1,-1,-1,-1,-1,-1,-1,-1],"loss_changes":[3.999794E1,1.161886E1,6.5669928E0,7.053236E0,2.5243568E0,2.2865105E0,4.720253E0,6.8589525E0,2.923493E0,1.8090153E0,0E0,5.2978706E-1,6.436345E0,5.1624298E-2,2.947607E0,0E0,0E0,0E0,0E0,0E0,0E0,0E0,0E0,0E0,0E0,0E0,0E0,0E0,0E0],"parents":[2147483647,0,0,1,1,2,2,3,3,4,4,5,5,6,6,7,7,8,8,9,9,11,11,12,12,13,13,14,14],"right_children":[2,4,6,8,10,12,14,16,18,20,-1,22,24,26,28,-1,-1,-1,-1,-1,-1,-1,-1,-1,-1,-1,-1,-1,-1],"split_conditions":[1.3867949E1,1.0567989E0,9.85E1,1.101E2,4.29E1,8.85E1,9.89E1,1.078E2,1.15E2,1.17E2,1.1581681E-3,5.58E1,3.502585E1,2.2825424E1,1.134E2,-9.567277E-3,5.1880497E-2,1.1925909E-2,-1.7751629E-2,5.1790055E-2,1.05006635E-1,-4.9988493E-2,-8.04074E-3,-2.6429284E-2,5.2613944E-2,1.7145544E-2,6.284826E-2,-1.0942072E-2,3.3360366E-2],"split_indices":[2,3,0,0,1,0,0,0,0,0,0,1,2,2,0,0,0,0,0,0,0,0,0,0,0,0,0,0,0],"split_type":[0,0,0,0,0,0,0,0,0,0,0,0,0,0,0,0,0,0,0,0,0,0,0,0,0,0,0,0,0],"sum_hessian":[2.3595181E2,9.089591E1,1.450559E2,7.378147E1,1.711444E1,6.008604E1,8.496986E1,2.4758343E1,4.9023132E1,1.5537751E1,1.5766904E0,1.3041514E1,4.7044525E1,2.2709367E0,8.269892E1,5.4928894E0,1.9265453E1,3.9526085E1,9.497046E0,1.243692E1,3.1008308E0,1.1788473E1,1.2530411E0,4.522918E1,1.815348E0,1.1245121E0,1.1464248E0,7.971671E1,2.982213E0],"tree_param":{"num_deleted":"0","num_feature":"13","num_nodes":"29","size_leaf_vector":"1"}},{"base_weights":[9.3181515E-3,5.126723E-1,-2.9345664E-1,1.3559959E0,3.7357777E-1,-5.5209905E-1,-1.1770909E-1,8.760748E-2,9.3487215E-1,-4.3455023E-1,4.5274264E-1,-9.274091E-1,-4.3254635E-1,9.975426E-1,-1.5911558E-1,-3.8124023E-3,6.0428597E-2,6.266583E-2,-4.7162887E-2,1.0473971E-2,4.5698714E-2,-4.9630687E-2,-7.847283E-3,-2.5697384E-2,4.954886E-2,1.6572654E-2,5.9583463E-2,-3.573014E-3,-2.5664432E-2],"categories":[],"categories_nodes":[],"categories_segments":[],"categories_sizes":[],"default_left":[0,0,0,0,0,0,0,0,0,0,0,0,0,0,0,0,0,0,0,0,0,0,0,0,0,0,0,0,0],"id":11,"left_children":[1,3,5,7,9,11,13,-1,15,17,19,21,23,25,27,-1,-1,-1,-1,-1,-1,-1,-1,-1,-1,-1,-1,-1,-1],"loss_changes":[3.6162388E1,9.946655E0,6.670656E0,4.0343285E-1,5.178959E0,2.276678E0,4.291703E0,0E0,2.3269572E0,7.5863028E0,7.821767E0,5.246334E-1,5.971328E0,3.7094116E-2,2.6691604E0,0E0,0E0,0E0,0E0,0E0,0E0,0E0,0E0,0E0,0E0,0E0,0E0,0E0,0E0],"parents":[2147483647,0,0,1,1,2,2,3,3,4,4,5,5,6,6,8,8,9,9,10,10,11,11,12,12,13,13,14,14],"right_children":[2,4,6,8,10,12,14,-1,16,18,20,22,24,26,28,-1,-1,-1,-1,-1,-1,-1,-1,-1,-1,-1,-1,-1,-1],"split_conditions":[9.999674E-1,5.467175E0,9.85E1,4.031129E0,1.064E2,8.85E1,9.89E1,8.760748E-2,4.346263E0,1.043E2,1.1650322E1,5.58E1,3.502585E1,2.2825424E1,5.21E1,-3.8124023E-3,6.0428597E-2,6.266583E-2,-4.7162887E-2,1.0473971E-2,4.5698714E-2,-4.9630687E-2,-7.847283E-3,-2.5697384E-2,4.954886E-2,1.6572654E-2,5.9583463E-2,-3.573014E-3,-2.5664432E-2],"split_indices":[7,2,0,2,0,0,0,0,2,0,2,1,2,2,1,0,0,0,0,0,0,0,0,0,0,0,0,0,0],"split_type":[0,0,0,0,0,0,0,0,0,0,0,0,0,0,0,0,0,0,0,0,0,0,0,0,0,0,0,0,0],"sum_hessian":[2.3529425E2,8.811404E1,1.4718022E2,1.1236842E1,7.687719E1,5.8680485E1,8.849974E1,4.1614695E0,7.0753727E0,6.458507E0,7.0418686E1,1.2543987E1,4.6136494E1,2.3415112E0,8.6158226E1,1.6609175E0,5.414455E0,1.1567476E0,5.3017592E0,4.7055042E1,2.3363644E1,1.1299383E1,1.2446047E0,4.4245377E1,1.8911202E0,1.139399E0,1.2021122E0,7.002845E1,1.6129778E1],"tree_param":{"num_deleted":"0","num_feature":"13","num_nodes":"29","size_leaf_vector":"1"}},{"base_weights":[9.561887E-3,-2.0471191E-1,6.600283E-1,2.792105E-2,-4.436456E-1,8.091272E-2,5.215735E-1,1.1251876E0,-1.6506527E-2,-4.7026658E-1,4.5499712E-2,1.0275137E0,1.1925981E-1,1.69227E-2,6.733709E-2,1.7717382E-3,-2.5449274E-2,-3.2904714E-3,-2.8156383E-2,5.7333596E-2,8.683599E-4,6.530668E-4,6.495504E-2],"categories":[],"categories_nodes":[],"categories_segments":[],"categories_sizes":[],"default_left":[0,0,0,0,0,0,0,0,0,0,0,0,0,0,0,0,0,0,0,0,0,0,0],"id":12,"left_children":[1,3,5,7,9,-1,11,13,15,17,-1,19,21,-1,-1,-1,-1,-1,-1,-1,-1,-1,-1],"loss_changes":[3.298585E1,9.909412E0,6.9357452E0,4.4624343E0,3.5953503E0,0E0,1.0606823E1,1.6501999E-1,2.284332E0,3.225315E0,0E0,2.7747288E0,3.803899E0,0E0,0E0,0E0,0E0,0E0,0E0,0E0,0E0,0E0,0E0],"parents":[2147483647,0,0,1,1,2,2,3,3,4,4,6,6,7,7,8,8,9,9,11,11,12,12],"right_children":[2,4,6,8,10,-1,12,14,16,18,-1,20,22,-1,-1,-1,-1,-1,-1,-1,-1,-1,-1],"split_conditions":[6.3853836E-1,2.0511703E1,1.082E2,1.008E2,1.101E2,8.091272E-2,7.0405965E0,1.9999996E-1,1.93458E1,2.63E1,4.5499712E-2,4.33E1,4.59E1,1.69227E-2,6.733709E-2,1.7717382E-3,-2.5449274E-2,-3.2904714E-3,-2.8156383E-2,5.7333596E-2,8.683599E-4,6.530668E-4,6.495504E-2],"split_indices":[3,2,0,0,0,0,2,12,2,1,0,1,1,0,0,0,0,0,0,0,0,0,0],"split_type":[0,0,0,0,0,0,0,0,0,0,0,0,0,0,0,0,0,0,0,0,0,0,0],"sum_hessian":[2.3469543E2,1.7705577E2,5.7639656E1,9.01582E1,8.6897575E1,5.9276023E0,5.1712055E1,2.5617635E0,8.759644E1,8.586159E1,1.0359821E0,2.2217648E1,2.9494408E1,1.118309E0,1.4434544E0,8.007867E1,7.517773E0,1.6351439E1,6.9510155E1,1.9752468E1,2.4651787E0,2.7986399E1,1.5080088E0],"tree_param":{"num_deleted":"0","num_feature":"13","num_nodes":"23","size_leaf_vector":"1"}},{"base_weights":[1.0072332E-2,-3.3662796E-1,3.753047E-1,-4.1502315E-1,1.9308175E-1,9.539084E-1,2.2166705E-1,-8.942532E-1,-3.208554E-1,-5.9801534E-2,7.222082E-2,1.0614712E0,1.6742181E-2,4.2415622E-1,-7.0796795E-2,-3.9093783E-3,-4.7170054E-2,-1.7604364E-2,4.4985883E-2,-1.1577271E-2,3.8682677E-2,1.0124644E-2,5.5342376E-2,-3.1940646E-2,3.4589797E-2,7.245434E-3,5.0369598E-2,-1.6644293E-2,8.384355E-3],"categories":[],"categories_nodes":[],"categories_segments":[],"categories_sizes":[],"default_left":[0,0,0,0,0,0,0,0,0,0,0,0,0,0,0,0,0,0,0,0,0,0,0,0,0,0,0,0,0],"id":13,"left_children":[1,3,5,7,9,11,13,15,17,19,-1,21,23,25,27,-1,-1,-1,-1,-1,-1,-1,-1,-1,-1,-1,-1,-1,-1],"loss_changes":[2.9875782E1,5.10713E0,1.0001249E1,4.486082E0,5.240737E0,2.38159E0,5.4832196E0,6.0045815E-1,3.7459698E0,2.256164E0,0E0,6.074734E-1,1.9760386E0,8.739044E0,2.4640133E0,0E0,0E0,0E0,0E0,0E0,0E0,0E0,0E0,0E0,0E0,0E0,0E0,0E0,0E0],"parents":[2147483647,0,0,1,1,2,2,3,3,4,4,5,5,6,6,7,7,8,8,9,9,11,11,12,12,13,13,14,14],"right_children":[2,4,6,8,10,12,14,16,18,20,-1,22,24,26,28,-1,-1,-1,-1,-1,-1,-1,-1,-1,-1,-1,-1,-1,-1],"split_conditions":[3.8591352E-1,2.4999994E-1,7.0405965E0,9.01E1,1.114E2,4.33E1,4.13E1,2.37E1,3.4570072E1,3.6361316E-1,7.222082E-2,3.55E1,1.163E2,3.88E1,4.53E1,-3.9093783E-3,-4.7170054E-2,-1.7604364E-2,4.4985883E-2,-1.1577271E-2,3.8682677E-2,1.0124644E-2,5.5342376E-2,-3.1940646E-2,3.4589797E-2,7.245434E-3,5.0369598E-2,-1.6644293E-2,8.384355E-3],"split_indices":[3,12,2,0,0,1,1,1,2,3,0,1,0,1,1,0,0,0,0,0,0,0,0,0,0,0,0,0,0],"split_type":[0,0,0,0,0,0,0,0,0,0,0,0,0,0,0,0,0,0,0,0,0,0,0,0,0,0,0,0,0],"sum_hessian":[2.3393913E2,1.2005454E2,1.1388459E2,1.0476604E2,1.5288501E1,2.280217E1,9.108242E1,1.5810132E1,8.895591E1,1.35103855E1,1.7781157E0,2.0335527E1,2.4666421E0,5.3553818E1,3.7528603E1,1.0452563E0,1.4764876E1,8.743029E1,1.5256164E0,1.1800857E1,1.7095287E0,1.2944251E0,1.9041101E1,1.2786304E0,1.1880118E0,3.7058853E1,1.649496E1,1.7690859E1,1.9837746E1],"tree_param":{"num_deleted":"0","num_feature":"13","num_nodes":"29","size_leaf_vector":"1"}},{"base_weights":[1.0156338E-2,4.1993842E-1,-2.730263E-1,1.1223303E0,3.0595878E-1,-7.6862776E-1,-1.89582E-1,1.499696E0,7.5142264E-1,4.1051522E-1,-4.098576E-1,3.9506316E-2,-9.574115E-1,-2.1266147E-1,5.3688645E-2,2.4021106E-2,8.508414E-2,6.1862197E-2,6.7781494E-3,1.8290853E-2,8.758406E-2,-3.0827263E-2,3.2183526E-3,-5.037861E-2,-8.867327E-3,-2.3891288E-3,-1.7510427E-2],"categories":[],"categories_nodes":[],"categories_segments":[],"categories_sizes":[],"default_left":[0,0,0,0,0,0,0,0,0,0,0,0,0,0,0,0,0,0,0,0,0,0,0,0,0,0,0],"id":14,"left_children":[1,3,5,7,9,11,13,15,17,19,21,-1,23,25,-1,-1,-1,-1,-1,-1,-1,-1,-1,-1,-1,-1,-1],"loss_changes":[2.7301628E1,7.3530045E0,5.6087866E0,6.9929695E-1,6.461628E0,6.5608463E0,3.7396145E0,3.0722427E-1,2.4006376E0,3.787548E0,1.1391683E0,0E0,5.274277E-1,2.6842422E0,0E0,0E0,0E0,0E0,0E0,0E0,0E0,0E0,0E0,0E0,0E0,0E0,0E0],"parents":[2147483647,0,0,1,1,2,2,3,3,4,4,5,5,6,6,7,7,8,8,9,9,10,10,12,12,13,13],"right_children":[2,4,6,8,10,12,14,16,18,20,22,-1,24,26,-1,-1,-1,-1,-1,-1,-1,-1,-1,-1,-1,-1,-1],"split_conditions":[1.3867949E1,5.467175E0,9.08E1,4.031129E0,1.15E2,2.4E1,3.5357037E1,1.17E2,1.3305291E0,1.148E2,1.167E2,3.9506316E-2,5.58E1,2.0511703E1,5.3688645E-2,2.4021106E-2,8.508414E-2,6.1862197E-2,6.7781494E-3,1.8290853E-2,8.758406E-2,-3.0827263E-2,3.2183526E-3,-5.037861E-2,-8.867327E-3,-2.3891288E-3,-1.7510427E-2],"split_indices":[2,2,0,2,0,1,2,0,3,0,0,0,1,2,0,0,0,0,0,0,0,0,0,0,0,0,0],"split_type":[0,0,0,0,0,0,0,0,0,0,0,0,0,0,0,0,0,0,0,0,0,0,0,0,0,0,0],"sum_hessian":[2.3328328E2,9.5134735E1,1.3814854E2,1.2047301E1,8.308743E1,1.872481E1,1.1942373E2,4.463139E0,7.584162E0,7.2870094E1,1.0217339E1,1.6787033E0,1.7046106E1,1.1809794E2,1.3257917E0,1.296942E0,3.1661973E0,3.6756518E0,3.9085104E0,7.1751526E1,1.1185646E0,6.9069E0,3.3104389E0,1.5742183E1,1.303924E0,5.4325207E1,6.377273E1],"tree_param":{"num_deleted":"0","num_feature":"13","num_nodes":"27","size_leaf_vector":"1"}},{"base_weights":[1.0623876E-2,3.97263E-1,-2.6249626E-1,1.0638107E0,2.8864902E-1,-7.5635284E-1,-1.8136357E-1,1.4216753E0,7.128216E-1,3.8624507E-1,-3.9741576E-1,3.751364E-2,-9.4980145E-1,-2.0402057E-1,5.091858E-2,3.0612616E-2,8.581485E-2,5.8250215E-2,6.491562E-3,2.7901355E-2,5.1755523E-3,-3.0105013E-2,3.0886575E-3,-5.0079383E-2,-8.654214E-3,-6.788648E-3,-2.673834E-2],"categories":[],"categories_nodes":[],"categories_segments":[],"categories_sizes":[],"default_left":[0,0,0,0,0,0,0,0,0,0,0,0,0,0,0,0,0,0,0,0,0,0,0,0,0,0,0],"id":15,"left_children":[1,3,5,7,9,11,13,15,17,19,21,-1,23,25,-1,-1,-1,-1,-1,-1,-1,-1,-1,-1,-1,-1,-1],"loss_changes":[2.4780785E1,6.7251434E0,5.37403E0,6.493721E-1,5.8379574E0,6.277295E0,3.4548094E0,2.7252483E-1,2.1392636E0,3.5766773E0,1.0772566E0,0E0,5.249815E-1,2.592608E0,0E0,0E0,0E0,0E0,0E0,0E0,0E0,0E0,0E0,0E0,0E0,0E0,0E0],"parents":[2147483647,0,0,1,1,2,2,3,3,4,4,5,5,6,6,7,7,8,8,9,9,10,10,12,12,13,13],"right_children":[2,4,6,8,10,12,14,16,18,20,22,-1,24,26,-1,-1,-1,-1,-1,-1,-1,-1,-1,-1,-1,-1,-1],"split_conditions":[1.3867949E1,5.467175E0,9.08E1,4.031129E0,1.15E2,2.4E1,3.5357037E1,3.94E1,1.3305291E0,4.13E1,1.167E2,3.751364E-2,5.58E1,5.21E1,5.091858E-2,3.0612616E-2,8.581485E-2,5.8250215E-2,6.491562E-3,2.7901355E-2,5.1755523E-3,-3.0105013E-2,3.0886575E-3,-5.0079383E-2,-8.654214E-3,-6.788648E-3,-2.673834E-2],"split_indices":[2,2,0,2,0,1,2,1,3,1,0,0,1,1,0,0,0,0,0,0,0,0,0,0,0,0,0],"split_type":[0,0,0,0,0,0,0,0,0,0,0,0,0,0,0,0,0,0,0,0,0,0,0,0,0,0,0],"sum_hessian":[2.3268137E2,9.61348E1,1.3654657E2,1.2237945E1,8.389686E1,1.809281E1,1.1845376E2,4.5491743E0,7.688771E0,7.383105E1,1.0065812E1,1.7312212E0,1.636159E1,1.17072784E2,1.3809749E0,2.0353875E0,2.5137866E0,3.7679353E0,3.9208353E0,4.53213E1,2.850975E1,6.7470665E0,3.3187454E0,1.5067479E1,1.2941098E0,9.8216805E1,1.8855978E1],"tree_param":{"num_deleted":"0","num_feature":"13","num_nodes":"27","size_leaf_vector":"1"}},{"base_weights":[1.07112955E-2,-3.0300415E-1,3.20838E-1,-3.818367E-1,2.14294E-1,8.2083094E-1,1.8561749E-1,-8.672448E-1,-2.9295588E-1,-3.2145776E-2,6.7742065E-2,9.2351454E-1,6.749574E-2,3.6479816E-1,-7.883324E-2,-3.814018E-3,-4.5975607E-2,-1.6170982E-2,3.917097E-2,-1.0086331E-2,3.7297234E-2,-7.7176057E-3,4.9330574E-2,-1.5409059E-2,2.1574771E-2,5.5555506E-3,4.4258602E-2,3.629995E-2,-7.4768136E-3],"categories":[],"categories_nodes":[],"categories_segments":[],"categories_sizes":[],"default_left":[0,0,0,0,0,0,0,0,0,0,0,0,0,0,0,0,0,0,0,0,0,0,0,0,0,0,0,0,0],"id":16,"left_children":[1,3,5,7,9,11,13,15,17,19,-1,21,23,25,27,-1,-1,-1,-1,-1,-1,-1,-1,-1,-1,-1,-1,-1,-1],"loss_changes":[2.2776606E1,4.828514E0,7.805928E0,4.119156E0,4.5500455E0,1.8533802E0,4.480281E0,5.573311E-1,3.1122656E0,2.0190198E0,0E0,1.6291695E0,6.8674016E-1,7.317909E0,2.3145158E0,0E0,0E0,0E0,0E0,0E0,0E0,0E0,0E0,0E0,0E0,0E0,0E0,0E0,0E0],"parents":[2147483647,0,0,1,1,2,2,3,3,4,4,5,5,6,6,7,7,8,8,9,9,11,11,12,12,13,13,14,14],"right_children":[2,4,6,8,10,12,14,16,18,20,-1,22,24,26,28,-1,-1,-1,-1,-1,-1,-1,-1,-1,-1,-1,-1,-1,-1],"split_conditions":[3.8591352E-1,2.4999994E-1,7.0405965E0,9.01E1,1.114E2,4.29E1,4.13E1,2.32E1,1.17E2,3.6361316E-1,6.7742065E-2,1.133E2,1.163E2,3.88E1,4.0128362E-1,-3.814018E-3,-4.5975607E-2,-1.6170982E-2,3.917097E-2,-1.0086331E-2,3.7297234E-2,-7.7176057E-3,4.9330574E-2,-1.5409059E-2,2.1574771E-2,5.5555506E-3,4.4258602E-2,3.629995E-2,-7.4768136E-3],"split_indices":[3,12,2,0,0,1,1,1,0,3,0,0,0,1,3,0,0,0,0,0,0,0,0,0,0,0,0,0,0],"split_type":[0,0,0,0,0,0,0,0,0,0,0,0,0,0,0,0,0,0,0,0,0,0,0,0,0,0,0,0,0],"sum_hessian":[2.3210756E2,1.1539758E2,1.1670998E2,1.00364586E2,1.5032993E1,2.3765194E1,9.294478E1,1.4177752E1,8.618684E1,1.3161076E1,1.8719182E0,2.0715641E1,3.0495543E0,5.517862E1,3.7766163E1,1.0312476E0,1.3146503E1,8.449498E1,1.6918607E0,1.1414159E1,1.7469162E0,1.0656232E0,1.9650017E1,1.5761691E0,1.4733853E0,3.7910442E1,1.7268177E1,2.301319E0,3.5464844E1],"tree_param":{"num_deleted":"0","num_feature":"13","num_nodes":"29","size_leaf_vector":"1"}},{"base_weights":[1.0830821E-2,-2.9134148E-1,3.0348766E-1,-3.690238E-1,2.0845571E-1,7.6845706E-1,1.7623055E-1,-8.575741E-1,-2.8160945E-1,-2.8806098E-2,6.327114E-2,1.3025198E0,5.831942E-1,3.4377348E-1,-7.4456476E-2,-4.8499707E-2,-1.6368471E-2,-1.5593404E-2,3.912733E-2,-9.698658E-3,3.5421755E-2,2.030589E-2,7.439875E-2,5.0040215E-2,5.732402E-3,5.2633253E-3,4.1202344E-2,-1.6389688E-2,7.6435036E-3],"categories":[],"categories_nodes":[],"categories_segments":[],"categories_sizes":[],"default_left":[0,0,0,0,0,0,0,0,0,0,0,0,0,0,0,0,0,0,0,0,0,0,0,0,0,0,0,0,0],"id":17,"left_children":[1,3,5,7,9,11,13,15,17,19,-1,21,23,25,27,-1,-1,-1,-1,-1,-1,-1,-1,-1,-1,-1,-1,-1,-1],"loss_changes":[2.0642265E1,4.536521E0,6.87988E0,4.019416E0,4.0715513E0,1.7315989E0,3.989716E0,5.558882E-1,3.0170722E0,1.8565797E0,0E0,3.3896923E-1,3.8973832E0,6.4139466E0,2.2749016E0,0E0,0E0,0E0,0E0,0E0,0E0,0E0,0E0,0E0,0E0,0E0,0E0,0E0,0E0],"parents":[2147483647,0,0,1,1,2,2,3,3,4,4,5,5,6,6,7,7,8,8,9,9,11,11,12,12,13,13,14,14],"right_children":[2,4,6,8,10,12,14,16,18,20,-1,22,24,26,28,-1,-1,-1,-1,-1,-1,-1,-1,-1,-1,-1,-1,-1,-1],"split_conditions":[3.8591352E-1,2.4999994E-1,7.0405965E0,9.01E1,1.114E2,4.031129E0,4.13E1,9.999945E-1,3.4570072E1,3.6361316E-1,6.327114E-2,1.17E2,3.94E1,3.88E1,4.53E1,-4.8499707E-2,-1.6368471E-2,-1.5593404E-2,3.912733E-2,-9.698658E-3,3.5421755E-2,2.030589E-2,7.439875E-2,5.0040215E-2,5.732402E-3,5.2633253E-3,4.1202344E-2,-1.6389688E-2,7.6435036E-3],"split_indices":[3,12,2,0,0,2,1,7,2,3,0,0,1,1,1,0,0,0,0,0,0,0,0,0,0,0,0,0,0],"split_type":[0,0,0,0,0,0,0,0,0,0,0,0,0,0,0,0,0,0,0,0,0,0,0,0,0,0,0,0,0],"sum_hessian":[2.3142337E2,1.1386286E2,1.1756052E2,9.877253E1,1.5090329E1,2.4178604E1,9.3381905E1,1.3653575E1,8.511896E1,1.3118345E1,1.9719833E0,4.674019E0,1.9504585E1,5.5750538E1,3.7631367E1,1.058067E1,3.0729043E0,8.345296E1,1.6659997E0,1.1319325E1,1.7990199E0,1.3480469E0,3.3259718E0,9.712216E0,9.79237E0,3.8065926E1,1.7684614E1,1.758847E1,2.0042898E1],"tree_param":{"num_deleted":"0","num_feature":"13","num_nodes":"29","size_leaf_vector":"1"}},{"base_weights":[1.1152158E-2,3.4068608E-1,-2.343533E-1,9.044909E-1,2.4721076E-1,-8.7467104E-1,-1.7579906E-1,1.2418933E0,5.900437E-1,3.3711857E-1,-3.9800015E-1,-4.77255E-2,-3.7731815E-3,-2.2112305E-1,1.4031783E0,2.5776813E-2,7.603032E-2,6.0667574E-2,8.464825E-3,1.4773979E-2,7.95794E-2,-2.9834589E-2,1.9703761E-3,-6.4723007E-3,-2.7248142E-2,1.7038943E-2,8.684588E-2],"categories":[],"categories_nodes":[],"categories_segments":[],"categories_sizes":[],"default_left":[0,0,0,0,0,0,0,0,0,0,0,0,0,0,0,0,0,0,0,0,0,0,0,0,0,0,0],"id":18,"left_children":[1,3,5,7,9,11,13,15,17,19,21,-1,-1,23,25,-1,-1,-1,-1,-1,-1,-1,-1,-1,-1,-1,-1],"loss_changes":[1.8826435E1,5.011629E0,4.847165E0,7.261553E-1,5.156965E0,6.249876E-1,9.145632E0,3.7572765E-1,2.1608737E0,3.5276318E0,9.837178E-1,0E0,0E0,3.5181375E0,6.7781687E-1,0E0,0E0,0E0,0E0,0E0,0E0,0E0,0E0,0E0,0E0,0E0,0E0],"parents":[2147483647,0,0,1,1,2,2,3,3,4,4,5,5,6,6,7,7,8,8,9,9,10,10,13,13,14,14],"right_children":[2,4,6,8,10,12,14,16,18,20,22,-1,-1,24,26,-1,-1,-1,-1,-1,-1,-1,-1,-1,-1,-1,-1],"split_conditions":[1.3867949E1,5.467175E0,8.85E1,4.031129E0,1.15E2,5.58E1,3.502585E1,3.94E1,1.156E2,1.148E2,1.167E2,-4.77255E-2,-3.7731815E-3,2.6721714E1,1.9E1,2.5776813E-2,7.603032E-2,6.0667574E-2,8.464825E-3,1.4773979E-2,7.95794E-2,-2.9834589E-2,1.9703761E-3,-6.4723007E-3,-2.7248142E-2,1.7038943E-2,8.684588E-2],"split_indices":[2,2,0,2,0,1,2,1,0,0,0,0,0,2,1,0,0,0,0,0,0,0,0,0,0,0,0],"split_type":[0,0,0,0,0,0,0,0,0,0,0,0,0,0,0,0,0,0,0,0,0,0,0,0,0,0,0],"sum_hessian":[2.3071869E2,9.833677E1,1.3238191E2,1.2751102E1,8.558567E1,9.923716E0,1.224582E2,4.7282414E0,8.022861E0,7.553732E1,1.00483465E1,8.845727E0,1.077988E0,1.1987713E2,2.5810738E0,2.1014175E0,2.626824E0,2.474E0,5.5488605E0,7.430645E1,1.2308761E0,6.659242E0,3.389104E0,9.451908E1,2.5358047E1,1.1001226E0,1.4809511E0],"tree_param":{"num_deleted":"0","num_feature":"13","num_nodes":"27","size_leaf_vector":"1"}},{"base_weights":[1.1573634E-2,-2.7089986E-1,2.7580202E-1,-3.479359E-1,2.1336687E-1,4.135116E-1,-9.3562506E-2,-8.398574E-1,-2.6369688E-1,-1.5520433E-2,5.9276223E-2,2.9935515E-1,8.7643945E-1,-5.196419E-1,1.6168472E-1,-4.7928285E-2,-1.5283099E-2,-1.4693245E-2,3.6971614E-2,-8.86054E-3,3.3980917E-2,3.6589236E-3,2.9436657E-2,8.1864744E-2,3.1608235E-2,5.431282E-4,-4.3548014E-2,4.4299543E-2,-8.489576E-3],"categories":[],"categories_nodes":[],"categories_segments":[],"categories_sizes":[],"default_left":[0,0,0,0,0,0,0,0,0,0,0,0,0,0,0,0,0,0,0,0,0,0,0,0,0,0,0,0,0],"id":19,"left_children":[1,3,5,7,9,11,13,15,17,19,-1,21,23,25,27,-1,-1,-1,-1,-1,-1,-1,-1,-1,-1,-1,-1,-1,-1],"loss_changes":[1.7326054E1,4.2605305E0,6.1384144E0,3.8061628E0,3.5832682E0,4.3636246E0,3.714598E0,5.791178E-1,2.7726932E0,1.688913E0,0E0,4.6523023E0,2.0868979E0,2.38457E0,5.345814E0,0E0,0E0,0E0,0E0,0E0,0E0,0E0,0E0,0E0,0E0,0E0,0E0,0E0,0E0],"parents":[2147483647,0,0,1,1,2,2,3,3,4,4,5,5,6,6,7,7,8,8,9,9,11,11,12,12,13,13,14,14],"right_children":[2,4,6,8,10,12,14,16,18,20,-1,22,24,26,28,-1,-1,-1,-1,-1,-1,-1,-1,-1,-1,-1,-1,-1,-1],"split_conditions":[3.8591352E-1,2.4999994E-1,4.29E1,9.01E1,1.114E2,1.147E2,4.53E1,9.999945E-1,1.17E2,3.6361316E-1,5.9276223E-2,1.9999996E-1,1.151E2,4.41E1,4.65E1,-4.7928285E-2,-1.5283099E-2,-1.4693245E-2,3.6971614E-2,-8.86054E-3,3.3980917E-2,3.6589236E-3,2.9436657E-2,8.1864744E-2,3.1608235E-2,5.431282E-4,-4.3548014E-2,4.4299543E-2,-8.489576E-3],"split_indices":[3,12,1,0,0,0,1,7,0,3,0,12,0,1,1,0,0,0,0,0,0,0,0,0,0,0,0,0,0],"split_type":[0,0,0,0,0,0,0,0,0,0,0,0,0,0,0,0,0,0,0,0,0,0,0,0,0,0,0,0,0],"sum_hessian":[2.3013492E2,1.112151E2,1.18919815E2,9.619427E1,1.5020836E1,8.653689E1,3.2382927E1,1.2752851E1,8.3441414E1,1.2954767E1,2.066069E0,7.073943E1,1.5797452E1,1.1743645E1,2.063928E1,9.784206E0,2.9686441E0,8.169168E1,1.7497351E0,1.1114572E1,1.8401952E0,4.040889E1,3.0330545E1,2.453312E0,1.334414E1,5.0647526E0,6.678892E0,5.9547467E0,1.4684534E1],"tree_param":{"num_deleted":"0","num_feature":"13","num_nodes":"29","size_leaf_vector":"1"}},{"base_weights":[1.1609248E-2,-2.8108773E-1,2.4836314E-1,-4.7771525E-1,6.691508E-3,-6.1652288E-2,3.8928837E-1,-7.5105196E-3,-6.120192E-1,8.834611E-2,-1.3043296E-1,-1.348623E-1,7.131455E-2,1.1597867E0,3.310526E-1,-3.851391E-2,9.340352E-3,-4.798478E-2,-1.8970998E-2,-1.3538194E-2,4.7372658E-2,-2.1514983E-3,-3.5793185E-2,2.3609314E-2,7.151595E-2,8.776366E-3,3.3923265E-2],"categories":[],"categories_nodes":[],"categories_segments":[],"categories_sizes":[],"default_left":[0,0,0,0,0,0,0,0,0,0,0,0,0,0,0,0,0,0,0,0,0,0,0,0,0,0,0],"id":20,"left_children":[1,3,5,7,9,11,13,15,17,-1,19,21,-1,23,25,-1,-1,-1,-1,-1,-1,-1,-1,-1,-1,-1,-1],"loss_changes":[1.6050964E1,5.8651056E0,5.617223E0,3.8827887E0,1.06182165E1,4.644684E0,3.5714426E0,2.3210416E0,3.506998E0,0E0,6.4366646E0,2.0964143E0,0E0,4.0259504E-1,4.3847666E0,0E0,0E0,0E0,0E0,0E0,0E0,0E0,0E0,0E0,0E0,0E0,0E0],"parents":[2147483647,0,0,1,1,2,2,3,3,4,4,5,5,6,6,7,7,8,8,10,10,11,11,13,13,14,14],"right_children":[2,4,6,8,10,12,14,16,18,-1,20,22,-1,24,26,-1,-1,-1,-1,-1,-1,-1,-1,-1,-1,-1,-1],"split_conditions":[1.063E2,3.2029524E-1,4.7530144E-1,2.63E1,3.2549807E-1,2.5604101E1,4.031129E0,1.82E1,3.91E1,8.834611E-2,4.88E1,9.99994E-1,7.131455E-2,3.94E1,1.1650322E1,-3.851391E-2,9.340352E-3,-4.798478E-2,-1.8970998E-2,-1.3538194E-2,4.7372658E-2,-2.1514983E-3,-3.5793185E-2,2.3609314E-2,7.151595E-2,8.776366E-3,3.3923265E-2],"split_indices":[0,3,3,1,3,2,2,1,1,0,1,7,0,1,2,0,0,0,0,0,0,0,0,0,0,0,0],"split_type":[0,0,0,0,0,0,0,0,0,0,0,0,0,0,0,0,0,0,0,0,0,0,0,0,0,0,0],"sum_hessian":[2.2961777E2,1.02594154E2,1.2702361E2,6.0557644E1,4.203651E1,3.9872444E1,8.715117E1,1.3688709E1,4.6868935E1,2.1790526E0,3.9857456E1,3.886935E1,1.0030928E0,4.7949815E0,8.2356186E1,2.1774404E0,1.1511269E1,1.7534048E1,2.9334887E1,3.5928673E1,3.9287834E0,3.44917E1,4.377652E0,2.1290538E0,2.6659276E0,5.7928658E1,2.4427526E1],"tree_param":{"num_deleted":"0","num_feature":"13","num_nodes":"27","size_leaf_vector":"1"}},{"base_weights":[1.1687272E-2,-2.7037024E-1,2.3587115E-1,-4.646026E-1,8.898056E-3,6.3956434E-1,1.3158849E-1,-9.219571E-3,-5.981872E-1,8.102249E-2,-1.23941556E-1,-1.2091259E-2,6.975456E-1,3.902128E-1,-3.6491563E-3,-3.798836E-2,8.846549E-3,-4.760268E-2,-1.8349534E-2,-1.3019382E-2,4.407239E-2,7.163789E-2,2.6545111E-2,5.4189455E-2,2.2177768E-3,-1.1215459E-2,5.947247E-3],"categories":[],"categories_nodes":[],"categories_segments":[],"categories_sizes":[],"default_left":[0,0,0,0,0,0,0,0,0,0,0,0,0,0,0,0,0,0,0,0,0,0,0,0,0,0,0],"id":21,"left_children":[1,3,5,7,9,11,13,15,17,-1,19,-1,21,23,25,-1,-1,-1,-1,-1,-1,-1,-1,-1,-1,-1,-1],"loss_changes":[1.4612546E1,5.556214E0,5.3350196E0,3.6680012E0,9.399356E0,1.5059452E0,3.6235008E0,2.1899507E0,3.469246E0,0E0,5.8024993E0,0E0,2.278988E0,8.483881E0,1.893021E0,0E0,0E0,0E0,0E0,0E0,0E0,0E0,0E0,0E0,0E0,0E0,0E0],"parents":[2147483647,0,0,1,1,2,2,3,3,4,4,5,5,6,6,7,7,8,8,10,10,12,12,13,13,14,14],"right_children":[2,4,6,8,10,12,14,16,18,-1,20,-1,22,24,26,-1,-1,-1,-1,-1,-1,-1,-1,-1,-1,-1,-1],"split_conditions":[1.063E2,3.2029524E-1,7.0405965E0,2.63E1,3.2549807E-1,8.8847977E-1,1.089E2,1.82E1,3.91E1,8.102249E-2,4.88E1,-1.2091259E-2,3.67E1,1.2237647E1,1.114E2,-3.798836E-2,8.846549E-3,-4.760268E-2,-1.8349534E-2,-1.3019382E-2,4.407239E-2,7.163789E-2,2.6545111E-2,5.4189455E-2,2.2177768E-3,-1.1215459E-2,5.947247E-3],"split_indices":[0,3,2,1,3,3,0,1,1,0,1,0,1,2,0,0,0,0,0,0,0,0,0,0,0,0,0],"split_type":[0,0,0,0,0,0,0,0,0,0,0,0,0,0,0,0,0,0,0,0,0,0,0,0,0,0,0],"sum_hessian":[2.2908289E2,1.01355804E2,1.2772708E2,5.938773E1,4.196807E1,2.5167416E1,1.0255966E2,1.3712282E1,4.567545E1,2.3431735E0,3.9624897E1,1.3577111E0,2.3809704E1,3.4567825E1,6.799184E1,2.1126678E0,1.1599614E1,1.6817247E1,2.8858202E1,3.5542294E1,4.0826025E0,2.9956188E0,2.0814085E1,1.0792034E1,2.3775791E1,2.3987137E1,4.40047E1],"tree_param":{"num_deleted":"0","num_feature":"13","num_nodes":"27","size_leaf_vector":"1"}},{"base_weights":[1.1598023E-2,-2.4712327E-1,2.3567133E-1,-8.477269E-1,-1.8434687E-1,3.6655796E-1,-7.043546E-2,-4.6773266E-2,-2.27285E-3,-2.4089915E-1,1.3391432E0,7.161518E-1,2.4734575E-1,-3.7874135E-1,1.5734327E-1,2.1211256E-3,-1.7136334E-2,1.775661E-2,8.0673374E-2,-9.433444E-3,3.874132E-2,2.9425716E-3,2.544644E-2,1.9149563E-3,-4.3231305E-2,3.8517326E-2,-6.6089667E-3],"categories":[],"categories_nodes":[],"categories_segments":[],"categories_sizes":[],"default_left":[0,0,0,0,0,0,0,0,0,0,0,0,0,0,0,0,0,0,0,0,0,0,0,0,0,0,0],"id":22,"left_children":[1,3,5,7,9,11,13,-1,-1,15,17,19,21,23,25,-1,-1,-1,-1,-1,-1,-1,-1,-1,-1,-1,-1],"loss_changes":[1.3359343E1,3.8770537E0,4.9724283E0,6.504793E-1,8.77709E0,3.4338894E0,2.7153964E0,0E0,0E0,2.7686834E0,4.1623783E-1,1.2879066E0,3.231215E0,3.3486474E0,4.087278E0,0E0,0E0,0E0,0E0,0E0,0E0,0E0,0E0,0E0,0E0,0E0,0E0],"parents":[2147483647,0,0,1,1,2,2,3,3,4,4,5,5,6,6,9,9,10,10,11,11,12,12,13,13,14,14],"right_children":[2,4,6,8,10,12,14,-1,-1,16,18,20,22,24,26,-1,-1,-1,-1,-1,-1,-1,-1,-1,-1,-1,-1],"split_conditions":[3.8012075E-1,8.85E1,4.22E1,5.58E1,3.502585E1,7.0405965E0,4.53E1,-4.6773266E-2,-2.27285E-3,1.93458E1,1.9E1,1.133E2,3.85E1,4.41E1,4.65E1,2.1211256E-3,-1.7136334E-2,1.775661E-2,8.0673374E-2,-9.433444E-3,3.874132E-2,2.9425716E-3,2.544644E-2,1.9149563E-3,-4.3231305E-2,3.8517326E-2,-6.6089667E-3],"split_indices":[3,0,1,1,2,2,1,0,0,2,1,0,1,1,1,0,0,0,0,0,0,0,0,0,0,0,0],"split_type":[0,0,0,0,0,0,0,0,0,0,0,0,0,0,0,0,0,0,0,0,0,0,0,0,0,0,0],"sum_hessian":[2.2843802E2,1.0597428E2,1.2246373E2,8.845208E0,9.7129074E1,8.564552E1,3.681821E1,7.8235774E0,1.0216303E0,9.446441E1,2.664663E0,2.0505392E1,6.514013E1,1.5362206E1,2.1456005E1,2.5129177E1,6.933523E1,1.0811414E0,1.5835216E0,1.1138116E0,1.939158E1,3.857112E1,2.6569008E1,8.762461E0,6.5997453E0,6.35015E0,1.5105855E1],"tree_param":{"num_deleted":"0","num_feature":"13","num_nodes":"27","size_leaf_vector":"1"}},{"base_weights":[1.1237616E-2,-2.5108853E-1,2.1360219E-1,-4.4095263E-1,1.3631861E-2,7.3423016E-1,1.4823182E-1,8.4176764E-4,-5.750298E-1,7.567537E-2,-1.15905866E-1,4.4840652E-1,1.0586435E0,2.8828913E-1,-5.26125E-2,-3.7357535E-2,9.074984E-3,-4.7056083E-2,-1.7111754E-2,-1.2453816E-2,4.1463643E-2,5.2052207E-2,3.1542275E-3,3.459241E-3,6.540705E-2,4.5579104E-3,3.759997E-2,-1.5868608E-2,4.858404E-3],"categories":[],"categories_nodes":[],"categories_segments":[],"categories_sizes":[],"default_left":[0,0,0,0,0,0,0,0,0,0,0,0,0,0,0,0,0,0,0,0,0,0,0,0,0,0,0,0,0],"id":23,"left_children":[1,3,5,7,9,11,13,15,17,-1,19,21,23,25,27,-1,-1,-1,-1,-1,-1,-1,-1,-1,-1,-1,-1,-1,-1],"loss_changes":[1.2204151E1,5.038903E0,4.307042E0,3.4563637E0,8.489708E0,8.439584E-1,3.2931013E0,2.1060944E0,3.4925728E0,0E0,5.2816133E0,2.0569115E0,1.372467E0,6.2213216E0,1.9629096E0,0E0,0E0,0E0,0E0,0E0,0E0,0E0,0E0,0E0,0E0,0E0,0E0,0E0,0E0],"parents":[2147483647,0,0,1,1,2,2,3,3,4,4,5,5,6,6,7,7,8,8,10,10,11,11,12,12,13,13,14,14],"right_children":[2,4,6,8,10,12,14,16,18,-1,20,22,24,26,28,-1,-1,-1,-1,-1,-1,-1,-1,-1,-1,-1,-1,-1,-1],"split_conditions":[1.063E2,3.2029524E-1,5.467175E0,2.63E1,3.2549807E-1,1.17E2,4.13E1,1.82E1,3.91E1,7.567537E-2,4.88E1,1.156E2,1.4688779E0,3.88E1,4.53E1,-3.7357535E-2,9.074984E-3,-4.7056083E-2,-1.7111754E-2,-1.2453816E-2,4.1463643E-2,5.2052207E-2,3.1542275E-3,3.459241E-3,6.540705E-2,4.5579104E-3,3.759997E-2,-1.5868608E-2,4.858404E-3],"split_indices":[0,3,2,1,3,0,1,1,1,0,1,0,3,1,1,0,0,0,0,0,0,0,0,0,0,0,0,0,0],"split_type":[0,0,0,0,0,0,0,0,0,0,0,0,0,0,0,0,0,0,0,0,0,0,0,0,0,0,0,0,0],"sum_hessian":[2.2788576E2,9.913536E1,1.287504E2,5.7342297E1,4.179306E1,1.3221199E1,1.155292E2,1.3582072E1,4.3760223E1,2.4731655E0,3.9319897E1,8.29506E0,4.9261384E0,6.7808235E1,4.7720963E1,2.0322134E0,1.1549858E1,1.5827409E1,2.7932814E1,3.5109623E1,4.2102747E0,2.5978036E0,5.697257E0,1.2492303E0,3.676908E0,4.842047E1,1.9387764E1,1.6838129E1,3.0882833E1],"tree_param":{"num_deleted":"0","num_feature":"13","num_nodes":"29","size_leaf_vector":"1"}},{"base_weights":[1.1261334E-2,-2.3062733E-1,2.1556427E-1,-8.3361626E-1,-1.6995955E-1,3.2596877E-1,-8.6487055E-2,-4.6269167E-2,-1.8024415E-3,-2.2586726E-1,1.2737682E0,2.3236422E-1,7.072178E-1,-5.029388E-1,1.4632227E-1,-4.36354E-2,-9.0564005E-3,1.7860658E-2,7.54786E-2,7.9515495E-4,2.534527E-2,7.2090514E-2,2.4015581E-2,-4.1066683E-4,-4.2374693E-2,3.5883788E-2,-6.5226667E-3],"categories":[],"categories_nodes":[],"categories_segments":[],"categories_sizes":[],"default_left":[0,0,0,0,0,0,0,0,0,0,0,0,0,0,0,0,0,0,0,0,0,0,0,0,0,0,0],"id":24,"left_children":[1,3,5,7,9,11,13,-1,-1,15,17,19,21,23,25,-1,-1,-1,-1,-1,-1,-1,-1,-1,-1,-1,-1],"loss_changes":[1.1329557E1,3.6992502E0,4.1718583E0,6.503844E-1,8.089112E0,3.0904808E0,3.374933E0,0E0,0E0,2.5592933E0,2.7208614E-1,4.432125E0,2.2226648E0,2.1127293E0,3.669971E0,0E0,0E0,0E0,0E0,0E0,0E0,0E0,0E0,0E0,0E0,0E0,0E0],"parents":[2147483647,0,0,1,1,2,2,3,3,4,4,5,5,6,6,9,9,10,10,11,11,12,12,13,13,14,14],"right_children":[2,4,6,8,10,12,14,-1,-1,16,18,20,22,24,26,-1,-1,-1,-1,-1,-1,-1,-1,-1,-1,-1,-1],"split_conditions":[3.8012075E-1,8.85E1,4.29E1,5.58E1,3.502585E1,1.147E2,4.53E1,-4.6269167E-2,-1.8024415E-3,9.08E1,1.9E1,1.9999996E-1,1.151E2,4.41E1,4.65E1,-4.36354E-2,-9.0564005E-3,1.7860658E-2,7.54786E-2,7.9515495E-4,2.534527E-2,7.2090514E-2,2.4015581E-2,-4.1066683E-4,-4.2374693E-2,3.5883788E-2,-6.5226667E-3],"split_indices":[3,0,1,1,2,0,1,0,0,0,1,12,0,1,1,0,0,0,0,0,0,0,0,0,0,0,0],"split_type":[0,0,0,0,0,0,0,0,0,0,0,0,0,0,0,0,0,0,0,0,0,0,0,0,0,0,0],"sum_hessian":[2.2725111E2,1.0399512E2,1.23256004E2,8.34197E0,9.5653145E1,9.020535E1,3.305065E1,7.3374734E0,1.0044973E0,9.2899216E1,2.7539287E0,7.371603E1,1.6489328E1,1.1435106E1,2.1615545E1,4.8125644E0,8.8086655E1,1.0781395E0,1.6757891E0,4.1809433E1,3.1906591E1,2.6278005E0,1.3861528E1,5.114847E0,6.320259E0,6.534094E0,1.508145E1],"tree_param":{"num_deleted":"0","num_feature":"13","num_nodes":"27","size_leaf_vector":"1"}},{"base_weights":[1.1008161E-2,-2.3479296E-1,1.9604114E-1,-4.198445E-1,1.5959539E-2,9.929909E-1,1.5716423E-1,5.246197E-3,-5.5338013E-1,1.4100237E0,-1.09899506E-1,1.8151155E-2,6.328749E-2,2.8003788E-1,-3.0208966E-2,-6.7789475E-3,4.7681913E-2,-4.6528846E-2,-1.6020985E-2,8.1837565E-2,2.1184258E-2,-1.200324E-2,3.9283417E-2,5.5953553E-3,3.3978652E-2,-3.8783045E-3,4.6962366E-2],"categories":[],"categories_nodes":[],"categories_segments":[],"categories_sizes":[],"default_left":[0,0,0,0,0,0,0,0,0,0,0,0,0,0,0,0,0,0,0,0,0,0,0,0,0,0,0],"id":25,"left_children":[1,3,5,7,9,11,13,15,17,19,21,-1,-1,23,25,-1,-1,-1,-1,-1,-1,-1,-1,-1,-1,-1,-1],"loss_changes":[1.0406621E1,4.56753E0,3.8875108E0,3.21523E0,7.6467466E0,5.512686E-1,2.9008052E0,2.0682917E0,3.4866524E0,1.1340237E-1,4.8620925E0,0E0,0E0,5.027159E0,2.3985715E0,0E0,0E0,0E0,0E0,0E0,0E0,0E0,0E0,0E0,0E0,0E0,0E0],"parents":[2147483647,0,0,1,1,2,2,3,3,4,4,5,5,6,6,7,7,8,8,9,9,10,10,13,13,14,14],"right_children":[2,4,6,8,10,12,14,16,18,20,22,-1,-1,24,26,-1,-1,-1,-1,-1,-1,-1,-1,-1,-1,-1,-1],"split_conditions":[1.063E2,3.2029524E-1,4.031129E0,2.63E1,3.2549807E-1,3.94E1,4.13E1,2.58E1,3.91E1,9.9998426E-1,4.88E1,1.8151155E-2,6.328749E-2,3.88E1,1.175E2,-6.7789475E-3,4.7681913E-2,-4.6528846E-2,-1.6020985E-2,8.1837565E-2,2.1184258E-2,-1.200324E-2,3.9283417E-2,5.5953553E-3,3.3978652E-2,-3.8783045E-3,4.6962366E-2],"split_indices":[0,3,2,1,3,1,1,1,1,7,1,0,0,1,0,0,0,0,0,0,0,0,0,0,0,0,0],"split_type":[0,0,0,0,0,0,0,0,0,0,0,0,0,0,0,0,0,0,0,0,0,0,0,0,0,0,0],"sum_hessian":[2.2679889E2,9.7289215E1,1.2950967E2,5.559017E1,4.1699043E1,4.8823776E0,1.2462729E2,1.3518085E1,4.207209E1,2.608051E0,3.9090992E1,2.1795003E0,2.7028773E0,7.496982E1,4.9657475E1,1.2516564E1,1.0015202E0,1.49199505E1,2.7152138E1,1.5844218E0,1.0236292E0,3.4769413E1,4.3215804E0,5.366628E1,2.1303535E1,4.8221867E1,1.4356073E0],"tree_param":{"num_deleted":"0","num_feature":"13","num_nodes":"27","size_leaf_vector":"1"}},{"base_weights":[1.153681E-2,-2.1422578E-1,1.9757237E-1,-8.1943774E-1,-1.555739E-1,5.199276E-1,1.082036E-1,-4.573257E-2,-2.3748202E-3,-2.10609E-1,1.2042695E0,9.558411E-1,3.7950358E-1,1.0689303E0,7.0779726E-2,-4.299644E-2,-8.373306E-3,1.7443424E-2,7.073428E-2,1.7498104E-2,6.0932893E-2,3.3523705E-2,-6.3407565E-3,1.2381654E-2,7.000428E-2,-1.9661179E-2,5.540441E-3],"categories":[],"categories_nodes":[],"categories_segments":[],"categories_sizes":[],"default_left":[0,0,0,0,0,0,0,0,0,0,0,0,0,0,0,0,0,0,0,0,0,0,0,0,0,0,0],"id":26,"left_children":[1,3,5,7,9,11,13,-1,-1,15,17,19,21,23,25,-1,-1,-1,-1,-1,-1,-1,-1,-1,-1,-1,-1],"loss_changes":[9.58178E0,3.5318556E0,3.5459967E0,6.0875463E-1,7.379487E0,1.2825713E0,3.489649E0,0E0,0E0,2.4434104E0,1.9987202E-1,5.1148844E-1,3.3244085E0,6.4519787E-1,1.8362198E0,0E0,0E0,0E0,0E0,0E0,0E0,0E0,0E0,0E0,0E0,0E0,0E0],"parents":[2147483647,0,0,1,1,2,2,3,3,4,4,5,5,6,6,9,9,10,10,11,11,12,12,13,13,14,14],"right_children":[2,4,6,8,10,12,14,-1,-1,16,18,20,22,24,26,-1,-1,-1,-1,-1,-1,-1,-1,-1,-1,-1,-1],"split_conditions":[3.8012075E-1,8.85E1,7.0405965E0,5.55E1,3.502585E1,4.031129E0,1.008E2,-4.573257E-2,-2.3748202E-3,9.08E1,1.9E1,3.94E1,1.156E2,1.9999996E-1,7.798718E0,-4.299644E-2,-8.373306E-3,1.7443424E-2,7.073428E-2,1.7498104E-2,6.0932893E-2,3.3523705E-2,-6.3407565E-3,1.2381654E-2,7.000428E-2,-1.9661179E-2,5.540441E-3],"split_indices":[3,0,2,1,2,2,0,0,0,0,1,1,0,12,2,0,0,0,0,0,0,0,0,0,0,0,0],"split_type":[0,0,0,0,0,0,0,0,0,0,0,0,0,0,0,0,0,0,0,0,0,0,0,0,0,0,0],"sum_hessian":[2.2613058E2,1.02089195E2,1.240414E2,7.873509E0,9.421568E1,2.5878664E1,9.8162735E1,6.8444242E0,1.0290843E0,9.136319E1,2.8524961E0,4.890485E0,2.098818E1,2.6470187E0,9.551572E1,4.512713E0,8.685047E1,1.0878936E0,1.7646027E0,2.1849766E0,2.7055082E0,1.3122657E1,7.8655233E0,1.2628397E0,1.384179E0,6.884899E0,8.863081E1],"tree_param":{"num_deleted":"0","num_feature":"13","num_nodes":"27","size_leaf_vector":"1"}},{"base_weights":[1.1596864E-2,-2.1919599E-1,1.8148123E-1,-2.1091644E-3,-4.1746917E-1,1.361105E-1,7.787569E-1,-4.5439016E-2,1.1188827E-1,1.3620411E-2,-5.7381976E-1,2.0664111E-1,-2.622758E-1,5.506462E-2,1.0016388E0,-1.7846059E-2,1.7550923E-2,-3.666106E-2,9.443149E-3,-4.525955E-2,-1.8066017E-2,2.486821E-2,5.764924E-3,-4.0237408E-2,-6.0448865E-3,2.164281E-2,-1.583406E-2,6.219669E-2,2.2317518E-2],"categories":[],"categories_nodes":[],"categories_segments":[],"categories_sizes":[],"default_left":[0,0,0,0,0,0,0,0,0,0,0,0,0,0,0,0,0,0,0,0,0,0,0,0,0,0,0,0,0],"id":27,"left_children":[1,3,5,7,9,11,13,-1,15,17,19,21,23,25,27,-1,-1,-1,-1,-1,-1,-1,-1,-1,-1,-1,-1,-1,-1],"loss_changes":[8.926735E0,4.1551194E0,3.4468102E0,4.96946E0,3.408844E0,3.5120254E0,1.4036598E0,0E0,4.9151993E0,2.0240316E0,2.2820396E0,2.7339134E0,1.3560947E0,5.8477163E-1,3.6726665E-1,0E0,0E0,0E0,0E0,0E0,0E0,0E0,0E0,0E0,0E0,0E0,0E0,0E0,0E0],"parents":[2147483647,0,0,1,1,2,2,3,3,4,4,5,5,6,6,8,8,9,9,10,10,11,11,12,12,13,13,14,14],"right_children":[2,4,6,8,10,12,14,-1,16,18,20,22,24,26,28,-1,-1,-1,-1,-1,-1,-1,-1,-1,-1,-1,-1,-1,-1],"split_conditions":[1.063E2,9.999854E-1,1.17E2,1.5786703E1,2.63E1,4.85E1,3.63E1,-4.5439016E-2,3.62E1,1.82E1,3.98E1,1.082E2,2.0949134E-1,3.35E1,4.26E1,-1.7846059E-2,1.7550923E-2,-3.666106E-2,9.443149E-3,-4.525955E-2,-1.8066017E-2,2.486821E-2,5.764924E-3,-4.0237408E-2,-6.0448865E-3,2.164281E-2,-1.583406E-2,6.219669E-2,2.2317518E-2],"split_indices":[0,7,0,2,1,1,1,0,1,1,1,0,3,1,1,0,0,0,0,0,0,0,0,0,0,0,0,0,0],"split_type":[0,0,0,0,0,0,0,0,0,0,0,0,0,0,0,0,0,0,0,0,0,0,0,0,0,0,0,0,0],"sum_hessian":[2.2566124E2,9.555573E1,1.301055E2,4.6096207E1,4.9459522E1,1.2206127E2,8.044231E0,4.36975E0,4.172646E1,1.3406905E1,3.6052616E1,1.0411073E2,1.795054E1,2.187742E0,5.8564897E0,1.3928115E1,2.7798342E1,1.9428617E0,1.1464044E1,1.2812729E1,2.323989E1,2.3827646E1,8.028308E1,2.7410116E0,1.5209529E1,1.003517E0,1.184225E0,3.2139528E0,2.6425366E0],"tree_param":{"num_deleted":"0","num_feature":"13","num_nodes":"29","size_leaf_vector":"1"}},{"base_weights":[1.0615816E-2,-2.1168438E-1,1.722614E-1,-3.1589943E-3,-4.05511E-1,6.1981404E-1,1.1636991E-1,-4.492048E-2,1.0569231E-1,1.0924823E-2,-5.605173E-1,3.7268466E-1,9.086871E-1,9.4649464E-2,6.2843494E-2,-1.7253263E-2,1.6473126E-2,-7.723558E-3,3.988254E-2,-4.4863805E-2,-1.7470699E-2,4.40875E-2,-8.792197E-4,3.1969089E-3,5.6057986E-2,7.836822E-3,-2.3118882E-2],"categories":[],"categories_nodes":[],"categories_segments":[],"categories_sizes":[],"default_left":[0,0,0,0,0,0,0,0,0,0,0,0,0,0,0,0,0,0,0,0,0,0,0,0,0,0,0],"id":28,"left_children":[1,3,5,7,9,11,13,-1,15,17,19,21,23,25,-1,-1,-1,-1,-1,-1,-1,-1,-1,-1,-1,-1,-1],"loss_changes":[8.170189E0,3.8685498E0,3.2199397E0,4.687915E0,3.2087107E0,6.8789434E-1,2.8097858E0,0E0,4.4425735E0,2.0020213E0,2.2581959E0,1.8919781E0,9.934864E-1,4.122247E0,0E0,0E0,0E0,0E0,0E0,0E0,0E0,0E0,0E0,0E0,0E0,0E0,0E0],"parents":[2147483647,0,0,1,1,2,2,3,3,4,4,5,5,6,6,8,8,9,9,10,10,11,11,12,12,13,13],"right_children":[2,4,6,8,10,12,14,-1,16,18,20,22,24,26,-1,-1,-1,-1,-1,-1,-1,-1,-1,-1,-1,-1,-1],"split_conditions":[1.063E2,9.999854E-1,5.467175E0,1.5786703E1,2.63E1,1.17E2,2.5604101E1,-4.492048E-2,3.62E1,3.3333322E-1,3.98E1,1.3305291E0,1.4688779E0,1.15E2,6.2843494E-2,-1.7253263E-2,1.6473126E-2,-7.723558E-3,3.988254E-2,-4.4863805E-2,-1.7470699E-2,4.40875E-2,-8.792197E-4,3.1969089E-3,5.6057986E-2,7.836822E-3,-2.3118882E-2],"split_indices":[0,7,2,2,1,0,2,0,1,12,1,3,3,0,0,0,0,0,0,0,0,0,0,0,0,0,0],"split_type":[0,0,0,0,0,0,0,0,0,0,0,0,0,0,0,0,0,0,0,0,0,0,0,0,0,0,0],"sum_hessian":[2.2535272E2,9.4745766E1,1.3060696E2,4.6131836E1,4.8613926E1,1.337963E1,1.1722733E2,4.214664E0,4.191717E1,1.343889E1,3.5175037E1,8.445061E0,4.9345694E0,1.1609925E2,1.1280832E0,1.3725926E1,2.8191246E1,1.1768428E1,1.670462E0,1.2301262E1,2.2873775E1,3.1182673E0,5.326793E0,1.2531636E0,3.681406E0,1.0510295E2,1.0996296E1],"tree_param":{"num_deleted":"0","num_feature":"13","num_nodes":"27","size_leaf_vector":"1"}},{"base_weights":[1.0299984E-2,-1.9059926E-1,1.7585337E-1,-2.6849797E-1,2.695182E-1,2.8438413E-1,-8.6391725E-2,-7.649192E-1,-1.9735292E-1,4.773973E-2,5.554485E-2,5.8552712E-2,2.4984145E-1,-3.6825532E-1,1.1958163E-1,-4.5653358E-2,-1.05045345E-2,-7.295608E-3,-3.8584847E-2,-3.4327995E-2,1.0466187E-2,-4.9083335E-3,1.7909663E-2,4.3719044E-4,-4.1876018E-2,3.4957733E-2,-8.418829E-3],"categories":[],"categories_nodes":[],"categories_segments":[],"categories_sizes":[],"default_left":[0,0,0,0,0,0,0,0,0,0,0,0,0,0,0,0,0,0,0,0,0,0,0,0,0,0,0],"id":29,"left_children":[1,3,5,7,9,11,13,15,17,19,-1,-1,21,23,25,-1,-1,-1,-1,-1,-1,-1,-1,-1,-1,-1,-1],"loss_changes":[7.548231E0,3.7481682E0,3.5648391E0,2.9643083E0,2.8108506E0,2.4091325E0,2.202384E0,6.884222E-1,2.2065797E0,1.708846E0,0E0,0E0,3.2845597E0,2.8276274E0,3.8285728E0,0E0,0E0,0E0,0E0,0E0,0E0,0E0,0E0,0E0,0E0,0E0,0E0],"parents":[2147483647,0,0,1,1,2,2,3,3,4,4,5,5,6,6,7,7,8,8,9,9,12,12,13,13,14,14],"right_children":[2,4,6,8,10,12,14,16,18,20,-1,-1,22,24,26,-1,-1,-1,-1,-1,-1,-1,-1,-1,-1,-1,-1],"split_conditions":[3.8591352E-1,2.4999994E-1,4.22E1,9.01E1,1.114E2,1.008E2,4.53E1,9.999945E-1,3.664281E-1,1.7700283E1,5.554485E-2,5.8552712E-2,1.079E2,4.41E1,4.65E1,-4.5653358E-2,-1.05045345E-2,-7.295608E-3,-3.8584847E-2,-3.4327995E-2,1.0466187E-2,-4.9083335E-3,1.7909663E-2,4.3719044E-4,-4.1876018E-2,3.4957733E-2,-8.418829E-3],"split_indices":[3,12,1,0,0,0,1,7,3,2,0,0,0,1,1,0,0,0,0,0,0,0,0,0,0,0,0],"split_type":[0,0,0,0,0,0,0,0,0,0,0,0,0,0,0,0,0,0,0,0,0,0,0,0,0,0,0],"sum_hessian":[2.2494153E2,1.0155415E2,1.23387375E2,8.7206406E1,1.4347747E1,8.721063E1,3.6176743E1,9.709053E0,7.749735E1,1.2191054E1,2.156692E0,2.0364196E0,8.517421E1,1.4941802E1,2.1234941E1,7.1533275E0,2.5557253E0,7.2277885E1,5.219473E0,1.6128254E0,1.0578229E1,2.0244904E1,6.4929306E1,8.829615E0,6.1121874E0,6.574495E0,1.4660446E1],"tree_param":{"num_deleted":"0","num_feature":"13","num_nodes":"27","size_leaf_vector":"1"}},{"base_weights":[9.604544E-3,-1.9775367E-1,1.572364E-1,-3.693018E-1,1.9807039E-2,1.1444049E-1,7.302355E-1,1.8001221E-2,-5.009933E-1,6.7050114E-2,-1.0357862E-1,1.7831245E-1,-2.5397122E-1,5.672216E-2,9.371483E-1,-3.6116853E-2,9.37737E-3,-4.5223754E-2,-1.3511802E-2,-1.1423309E-2,3.5760093E-2,2.2777965E-2,4.5568435E-3,2.942544E-3,-2.3841327E-2,2.1511277E-2,-1.5685095E-2,5.750599E-2,2.1795614E-2],"categories":[],"categories_nodes":[],"categories_segments":[],"categories_sizes":[],"default_left":[0,0,0,0,0,0,0,0,0,0,0,0,0,0,0,0,0,0,0,0,0,0,0,0,0,0,0,0,0],"id":30,"left_children":[1,3,5,7,9,11,13,15,17,-1,19,21,23,25,27,-1,-1,-1,-1,-1,-1,-1,-1,-1,-1,-1,-1,-1,-1],"loss_changes":[6.9377127E0,3.5256705E0,3.1617508E0,2.6999998E0,7.0687838E0,2.9709513E0,1.2026858E0,1.93705E0,3.424613E0,0E0,4.233955E0,2.5336666E0,1.337504E0,5.752459E-1,2.276721E-1,0E0,0E0,0E0,0E0,0E0,0E0,0E0,0E0,0E0,0E0,0E0,0E0,0E0,0E0],"parents":[2147483647,0,0,1,1,2,2,3,3,4,4,5,5,6,6,7,7,8,8,10,10,11,11,12,12,13,13,14,14],"right_children":[2,4,6,8,10,12,14,16,18,-1,20,22,24,26,28,-1,-1,-1,-1,-1,-1,-1,-1,-1,-1,-1,-1,-1,-1],"split_conditions":[1.063E2,3.2029524E-1,1.17E2,2.63E1,3.2549807E-1,4.85E1,3.63E1,1.82E1,3.91E1,6.7050114E-2,4.88E1,1.082E2,3.0893412E-1,3.35E1,4.26E1,-3.6116853E-2,9.37737E-3,-4.5223754E-2,-1.3511802E-2,-1.1423309E-2,3.5760093E-2,2.2777965E-2,4.5568435E-3,2.942544E-3,-2.3841327E-2,2.1511277E-2,-1.5685095E-2,5.750599E-2,2.1795614E-2],"split_indices":[0,3,0,1,3,1,1,1,1,0,1,0,3,1,1,0,0,0,0,0,0,0,0,0,0,0,0,0,0],"split_type":[0,0,0,0,0,0,0,0,0,0,0,0,0,0,0,0,0,0,0,0,0,0,0,0,0,0,0,0,0],"sum_hessian":[2.2461302E2,9.326997E1,1.3134305E2,5.175966E1,4.1510315E1,1.23331436E2,8.011602E0,1.335274E1,3.840692E1,2.7026253E0,3.880769E1,1.0554839E2,1.7783047E1,2.1822815E0,5.8293214E0,1.8805848E0,1.1472156E1,1.2911469E1,2.5495451E1,3.429733E1,4.510361E0,2.4237963E1,8.131043E1,7.704358E0,1.0078689E1,1.0062381E0,1.1760435E0,3.1825228E0,2.6467984E0],"tree_param":{"num_deleted":"0","num_feature":"13","num_nodes":"29","size_leaf_vector":"1"}},{"base_weights":[9.439785E-3,-1.8152404E-1,1.5909186E-1,-7.880454E-1,-1.2742086E-1,2.5671872E-1,-7.761125E-2,-4.4588305E-2,-2.6455696E-3,-1.819072E-1,1.1443057E0,1.0179077E0,2.2147126E-1,-3.6575922E-1,1.2551264E-1,-6.3226954E-3,-3.259224E-2,1.7539082E-2,6.6111796E-2,1.3984214E-2,6.3057005E-2,-5.6238016E-3,1.629657E-2,7.4512755E-5,-4.148172E-2,-1.8798936E-3,4.721805E-2],"categories":[],"categories_nodes":[],"categories_segments":[],"categories_sizes":[],"default_left":[0,0,0,0,0,0,0,0,0,0,0,0,0,0,0,0,0,0,0,0,0,0,0,0,0,0,0],"id":31,"left_children":[1,3,5,7,9,11,13,-1,-1,15,17,19,21,23,25,-1,-1,-1,-1,-1,-1,-1,-1,-1,-1,-1,-1],"loss_changes":[6.464074E0,3.161406E0,2.9495816E0,5.5882215E-1,6.6144085E0,2.1889915E0,2.2576263E0,0E0,0E0,2.250368E0,9.184885E-2,3.1246924E-1,3.0815377E0,2.7064342E0,3.095224E0,0E0,0E0,0E0,0E0,0E0,0E0,0E0,0E0,0E0,0E0,0E0,0E0],"parents":[2147483647,0,0,1,1,2,2,3,3,4,4,5,5,6,6,9,9,10,10,11,11,12,12,13,13,14,14],"right_children":[2,4,6,8,10,12,14,-1,-1,16,18,20,22,24,26,-1,-1,-1,-1,-1,-1,-1,-1,-1,-1,-1,-1],"split_conditions":[3.8012075E-1,8.85E1,4.22E1,5.44E1,3.502585E1,1.008E2,4.53E1,-4.4588305E-2,-2.6455696E-3,9.99994E-1,1.9E1,1.9999996E-1,1.079E2,4.41E1,6.6930395E-1,-6.3226954E-3,-3.259224E-2,1.7539082E-2,6.6111796E-2,1.3984214E-2,6.3057005E-2,-5.6238016E-3,1.629657E-2,7.4512755E-5,-4.148172E-2,-1.8798936E-3,4.721805E-2],"split_indices":[3,0,1,1,2,0,1,0,0,7,1,12,0,1,3,0,0,0,0,0,0,0,0,0,0,0,0],"split_type":[0,0,0,0,0,0,0,0,0,0,0,0,0,0,0,0,0,0,0,0,0,0,0,0,0,0,0],"sum_hessian":[2.2417899E2,9.84011E1,1.25777885E2,6.9477735E0,9.145333E1,8.898993E1,3.6787956E1,5.90199E0,1.0457832E0,8.85178E1,2.9355302E0,2.7045593E0,8.628537E1,1.4879496E1,2.190846E1,8.031017E1,8.207626E0,1.0819154E0,1.8536147E0,1.2030628E0,1.5014966E0,2.0541084E1,6.5744286E1,8.861021E0,6.018474E0,1.906491E1,2.8435504E0],"tree_param":{"num_deleted":"0","num_feature":"13","num_nodes":"27","size_leaf_vector":"1"}},{"base_weights":[9.266574E-3,-2.3047231E-1,1.1820321E-1,1.3075754E-1,-3.8541594E-1,1.0164331E0,8.936598E-2,5.7847936E-2,-1.1894615E-2,-8.6742383E-1,-1.5721482E-1,7.946818E-2,-2.7968848E-2,4.1918772E-1,1.612297E-2,6.910237E-3,-3.0626575E-2,-3.1645284E-3,-4.5913E-2,1.5801327E-2,-1.9762725E-2,-1.3463705E-2,2.3341788E-2,2.9540544E-3,-2.185974E-2],"categories":[],"categories_nodes":[],"categories_segments":[],"categories_sizes":[],"default_left":[0,0,0,0,0,0,0,0,0,0,0,0,0,0,0,0,0,0,0,0,0,0,0,0,0],"id":32,"left_children":[1,3,5,7,9,11,13,-1,15,17,19,-1,-1,21,23,-1,-1,-1,-1,-1,-1,-1,-1,-1,-1],"loss_changes":[5.8973618E0,3.9998395E0,3.9293501E0,3.2238224E0,5.3232245E0,5.160686E0,3.6524048E0,0E0,1.9095567E0,5.847931E-1,4.057296E0,0E0,0E0,1.0273218E0,2.4598134E0,0E0,0E0,0E0,0E0,0E0,0E0,0E0,0E0,0E0,0E0],"parents":[2147483647,0,0,1,1,2,2,3,3,4,4,5,5,6,6,8,8,9,9,10,10,13,13,14,14],"right_children":[2,4,6,8,10,12,14,-1,16,18,20,-1,-1,22,24,-1,-1,-1,-1,-1,-1,-1,-1,-1,-1],"split_conditions":[3.2029524E-1,2.68E1,3.2549807E-1,1.7448496E1,3.91E1,5.08E1,7.0405965E0,5.7847936E-2,1.078E2,1.1403947E1,9.999883E-1,7.946818E-2,-2.7968848E-2,8.8847977E-1,2.0787016E1,6.910237E-3,-3.0626575E-2,-3.1645284E-3,-4.5913E-2,1.5801327E-2,-1.9762725E-2,-1.3463705E-2,2.3341788E-2,2.9540544E-3,-2.185974E-2],"split_indices":[3,1,3,2,1,1,2,0,0,2,7,0,0,3,2,0,0,0,0,0,0,0,0,0,0],"split_type":[0,0,0,0,0,0,0,0,0,0,0,0,0,0,0,0,0,0,0,0,0,0,0,0,0],"sum_hessian":[2.23768E2,6.956324E1,1.5420477E2,2.0928171E1,4.8635067E1,3.7313814E0,1.5047339E2,1.68639E0,1.9241781E1,1.4727149E1,3.3907917E1,2.730155E0,1.0012265E0,2.6485025E1,1.23988365E2,1.6010624E1,3.2311573E0,1.0091562E0,1.3717993E1,1.1238094E1,2.2669825E1,1.4132853E0,2.507174E1,1.140502E2,9.938161E0],"tree_param":{"num_deleted":"0","num_feature":"13","num_nodes":"25","size_leaf_vector":"1"}},{"base_weights":[8.773517E-3,-1.7910305E-1,1.3897412E-1,-2.4630792E-1,3.274293E-1,9.824342E-2,6.899275E-1,-7.3925894E-1,-1.7615736E-1,5.3145957E-1,-3.166744E-2,1.5476318E-1,-2.3676425E-1,5.325714E-2,8.8589734E-1,-4.4880997E-2,-9.041044E-3,-4.3558016E-2,-6.3112006E-3,7.824576E-3,7.006055E-2,1.1933286E-3,1.7151585E-2,3.8465366E-3,-2.312067E-2,2.1484789E-2,-1.5920434E-2,5.4384984E-2,2.0852683E-2],"categories":[],"categories_nodes":[],"categories_segments":[],"categories_sizes":[],"default_left":[0,0,0,0,0,0,0,0,0,0,0,0,0,0,0,0,0,0,0,0,0,0,0,0,0,0,0,0,0],"id":33,"left_children":[1,3,5,7,9,11,13,15,17,19,-1,21,23,25,27,-1,-1,-1,-1,-1,-1,-1,-1,-1,-1,-1,-1,-1,-1],"loss_changes":[5.515022E0,3.2229373E0,2.9197655E0,2.7076807E0,2.5403051E0,2.4059634E0,1.0755439E0,7.1415615E-1,2.4287999E0,2.982134E0,0E0,2.6452792E0,1.3421934E0,5.819881E-1,1.9131899E-1,0E0,0E0,0E0,0E0,0E0,0E0,0E0,0E0,0E0,0E0,0E0,0E0,0E0,0E0],"parents":[2147483647,0,0,1,1,2,2,3,3,4,4,5,5,6,6,7,7,8,8,9,9,11,11,12,12,13,13,14,14],"right_children":[2,4,6,8,10,12,14,16,18,20,-1,22,24,26,28,-1,-1,-1,-1,-1,-1,-1,-1,-1,-1,-1,-1,-1,-1],"split_conditions":[1.063E2,3.9999992E-1,1.17E2,9.01E1,5.08E1,4.85E1,3.63E1,9.999945E-1,1.5786703E1,4.34E1,-3.166744E-2,1.1650322E1,3.0893412E-1,3.35E1,4.26E1,-4.4880997E-2,-9.041044E-3,-4.3558016E-2,-6.3112006E-3,7.824576E-3,7.006055E-2,1.1933286E-3,1.7151585E-2,3.8465366E-3,-2.312067E-2,2.1484789E-2,-1.5920434E-2,5.4384984E-2,2.0852683E-2],"split_indices":[0,12,0,0,1,1,1,7,2,1,0,2,3,1,1,0,0,0,0,0,0,0,0,0,0,0,0,0,0],"split_type":[0,0,0,0,0,0,0,0,0,0,0,0,0,0,0,0,0,0,0,0,0,0,0,0,0,0,0,0,0],"sum_hessian":[2.2343839E2,9.130775E1,1.3213063E2,8.106595E1,1.0241799E1,1.2413215E2,7.9984837E0,8.9108515E0,7.215509E1,8.816399E0,1.4254006E0,1.06673164E2,1.7458992E1,2.1818404E0,5.816643E0,6.469005E0,2.4418466E0,3.734169E0,6.842092E1,6.984962E0,1.8314366E0,6.358882E1,4.3084343E1,7.5801787E0,9.878813E0,1.006391E0,1.1754495E0,3.1435966E0,2.6730466E0],"tree_param":{"num_deleted":"0","num_feature":"13","num_nodes":"29","size_leaf_vector":"1"}},{"base_weights":[8.354196E-3,9.443781E-2,-2.5939745E-1,3.8891253E-1,3.7148524E-2,8.474508E-2,-4.4751483E-1,2.3508354E-1,6.753041E-1,1.0263809E-2,5.929767E-1,-3.4779165E-2,4.9038637E-2,-5.338571E-1,4.588948E-2,2.590084E-2,-2.3863483E-2,7.440577E-2,-2.429333E-3,-2.4090268E-2,2.4488121E-3,1.5810101E-3,6.314661E-2,3.306726E-2,-7.549555E-3,-4.338454E-2,-1.7650638E-2],"categories":[],"categories_nodes":[],"categories_segments":[],"categories_sizes":[],"default_left":[0,0,0,0,0,0,0,0,0,0,0,0,0,0,0,0,0,0,0,0,0,0,0,0,0,0,0],"id":34,"left_children":[1,3,5,7,9,11,13,15,17,19,21,23,-1,25,-1,-1,-1,-1,-1,-1,-1,-1,-1,-1,-1,-1,-1],"loss_changes":[5.190713E0,2.8592796E0,3.5854638E0,1.0588012E0,2.1413531E0,2.1983166E0,4.685379E0,4.180168E0,5.4403462E0,2.6541655E0,2.4469483E0,1.6203591E0,0E0,1.7526731E0,0E0,0E0,0E0,0E0,0E0,0E0,0E0,0E0,0E0,0E0,0E0,0E0,0E0],"parents":[2147483647,0,0,1,1,2,2,3,3,4,4,5,5,6,6,7,7,8,8,9,9,10,10,11,11,13,13],"right_children":[2,4,6,8,10,12,14,16,18,20,22,24,-1,26,-1,-1,-1,-1,-1,-1,-1,-1,-1,-1,-1,-1,-1],"split_conditions":[9.999871E-1,7.0405965E0,2.63E1,6.228965E0,9.999861E-1,1.134E2,1.165E2,5.467175E0,3.93E1,3.2029524E-1,1.067E2,9.03E1,4.9038637E-2,4.18E1,4.588948E-2,2.590084E-2,-2.3863483E-2,7.440577E-2,-2.429333E-3,-2.4090268E-2,2.4488121E-3,1.5810101E-3,6.314661E-2,3.306726E-2,-7.549555E-3,-4.338454E-2,-1.7650638E-2],"split_indices":[7,2,1,2,7,0,0,2,1,3,0,0,0,1,0,0,0,0,0,0,0,0,0,0,0,0,0],"split_type":[0,0,0,0,0,0,0,0,0,0,0,0,0,0,0,0,0,0,0,0,0,0,0,0,0,0,0],"sum_hessian":[2.231403E2,1.6934293E2,5.379738E1,2.6636925E1,1.4270601E2,1.92079E1,3.4589478E1,1.8513596E1,8.123328E0,1.3709343E2,5.612573E0,1.7795307E1,1.4125926E0,3.3104897E1,1.484581E0,1.3445933E1,5.0676627E0,3.3293233E0,4.794005E0,9.164084E0,1.27929344E2,3.6235743E0,1.9889988E0,1.8747087E0,1.5920599E1,1.0297676E1,2.2807222E1],"tree_param":{"num_deleted":"0","num_feature":"13","num_nodes":"27","size_leaf_vector":"1"}},{"base_weights":[8.622361E-3,2.3575075E-1,-8.4446885E-2,1.3425751E-1,5.0025444E-2,-7.622507E-1,-5.162164E-2,3.8070297E-1,-8.0505654E-2,-4.367681E-2,-2.2537296E-3,-8.1641994E-2,1.0783561E0,1.1471735E-2,3.3031326E-2,-7.827328E-3,4.519623E-2,-2.3097459E-3,-3.1811725E-2,1.6603693E-2,6.2303025E-2],"categories":[],"categories_nodes":[],"categories_segments":[],"categories_sizes":[],"default_left":[0,0,0,0,0,0,0,0,0,0,0,0,0,0,0,0,0,0,0,0,0],"id":35,"left_children":[1,3,5,7,-1,9,11,13,15,-1,-1,17,19,-1,-1,-1,-1,-1,-1,-1,-1],"loss_changes":[4.7483153E0,4.932601E0,3.507259E0,3.1420898E0,0E0,5.424943E-1,5.2820272E0,1.0149474E0,2.5547516E0,0E0,0E0,2.921008E0,9.095621E-2,0E0,0E0,0E0,0E0,0E0,0E0,0E0,0E0],"parents":[2147483647,0,0,1,1,2,2,3,3,5,5,6,6,7,7,8,8,11,11,12,12],"right_children":[2,4,6,8,-1,10,12,14,16,-1,-1,18,20,-1,-1,-1,-1,-1,-1,-1,-1],"split_conditions":[9.99937E-1,9.999358E-1,8.85E1,7.0405965E0,5.0025444E-2,5.42E1,3.502585E1,6.228965E0,4.59E1,-4.367681E-2,-2.2537296E-3,9.99994E-1,1.9E1,1.1471735E-2,3.3031326E-2,-7.827328E-3,4.519623E-2,-2.3097459E-3,-3.1811725E-2,1.6603693E-2,6.2303025E-2],"split_indices":[7,7,0,2,0,1,2,2,1,0,0,7,1,0,0,0,0,0,0,0,0],"split_type":[0,0,0,0,0,0,0,0,0,0,0,0,0,0,0,0,0,0,0,0,0],"sum_hessian":[2.2268517E2,6.428049E1,1.5840468E2,5.778697E1,6.493518E0,6.2905507E0,1.5211414E2,2.6548882E1,3.1238089E1,5.256819E0,1.0337318E0,1.490812E2,3.0329225E0,1.8416433E1,8.132447E0,2.9778843E1,1.4592462E0,1.4114326E2,7.937952E0,1.1033121E0,1.9296105E0],"tree_param":{"num_deleted":"0","num_feature":"13","num_nodes":"21","size_leaf_vector":"1"}},{"base_weights":[8.72237E-3,8.7901965E-2,-2.4282342E-1,7.314115E-1,6.4841025E-2,9.139488E-2,-4.296799E-1,9.808785E-3,5.0118264E-2,4.3405604E-2,5.6651086E-1,-2.595172E-2,4.7426183E-2,-5.1634777E-1,4.3711822E-2,-2.3383591E-2,3.8409245E-3,1.6103722E-3,5.915124E-2,5.781313E-3,-2.869396E-2,-4.2858202E-2,-1.681535E-2],"categories":[],"categories_nodes":[],"categories_segments":[],"categories_sizes":[],"default_left":[0,0,0,0,0,0,0,0,0,0,0,0,0,0,0,0,0,0,0,0,0,0,0],"id":36,"left_children":[1,3,5,7,9,11,13,-1,-1,15,17,19,-1,21,-1,-1,-1,-1,-1,-1,-1,-1,-1],"loss_changes":[4.4672656E0,2.4829626E0,3.3933249E0,6.447654E-1,1.7573754E0,2.0446746E0,4.3640995E0,0E0,0E0,2.7682254E0,2.1713426E0,1.5122454E0,0E0,1.7424068E0,0E0,0E0,0E0,0E0,0E0,0E0,0E0,0E0,0E0],"parents":[2147483647,0,0,1,1,2,2,3,3,4,4,5,5,6,6,9,9,10,10,11,11,13,13],"right_children":[2,4,6,8,10,12,14,-1,-1,16,18,20,-1,22,-1,-1,-1,-1,-1,-1,-1,-1,-1],"split_conditions":[9.999871E-1,4.031129E0,2.63E1,3.94E1,9.999861E-1,1.134E2,1.165E2,9.808785E-3,5.0118264E-2,3.2029524E-1,1.067E2,1.078E2,4.7426183E-2,4.18E1,4.3711822E-2,-2.3383591E-2,3.8409245E-3,1.6103722E-3,5.915124E-2,5.781313E-3,-2.869396E-2,-4.2858202E-2,-1.681535E-2],"split_indices":[7,2,1,1,7,0,0,0,0,3,0,0,0,1,0,0,0,0,0,0,0,0,0],"split_type":[0,0,0,0,0,0,0,0,0,0,0,0,0,0,0,0,0,0,0,0,0,0,0],"sum_hessian":[2.2221913E2,1.6951202E2,5.2707104E1,4.8018284E0,1.6471019E2,1.9083872E1,3.362323E1,2.193284E0,2.6085443E0,1.5900282E2,5.707372E0,1.7638735E1,1.4451371E0,3.209403E1,1.5292029E0,8.959726E0,1.5004309E2,3.6212482E0,2.0861237E0,1.46439E1,2.9948354E0,9.793685E0,2.2300343E1],"tree_param":{"num_deleted":"0","num_feature":"13","num_nodes":"23","size_leaf_vector":"1"}},{"base_weights":[8.703215E-3,2.1935643E-1,-7.8446776E-2,1.2248562E-1,4.7349878E-2,-7.472354E-1,-4.7417697E-2,3.521694E-1,-7.9163656E-2,-4.3147225E-2,-1.788583E-3,-7.6452136E-2,1.0128678E0,3.8100358E-2,1.2496034E-2,-7.654396E-3,4.2912375E-2,-2.248589E-3,-3.3740457E-2,1.5674239E-2,5.85041E-2],"categories":[],"categories_nodes":[],"categories_segments":[],"categories_sizes":[],"default_left":[0,0,0,0,0,0,0,0,0,0,0,0,0,0,0,0,0,0,0,0,0],"id":37,"left_children":[1,3,5,7,-1,9,11,13,15,-1,-1,17,19,-1,-1,-1,-1,-1,-1,-1,-1],"loss_changes":[4.1092315E0,4.5003824E0,3.2517471E0,2.758012E0,0E0,5.4174185E-1,4.7705193E0,9.7205997E-1,2.363128E0,0E0,0E0,2.7822158E0,8.7687016E-2,0E0,0E0,0E0,0E0,0E0,0E0,0E0,0E0],"parents":[2147483647,0,0,1,1,2,2,3,3,5,5,6,6,7,7,8,8,11,11,12,12],"right_children":[2,4,6,8,-1,10,12,14,16,-1,-1,18,20,-1,-1,-1,-1,-1,-1,-1,-1],"split_conditions":[9.99937E-1,9.999358E-1,8.85E1,7.0405965E0,4.7349878E-2,5.42E1,3.502585E1,3.67E1,4.59E1,-4.3147225E-2,-1.788583E-3,9.9999446E-1,1.9E1,3.8100358E-2,1.2496034E-2,-7.654396E-3,4.2912375E-2,-2.248589E-3,-3.3740457E-2,1.5674239E-2,5.85041E-2],"split_indices":[7,7,0,2,0,1,2,1,1,0,0,7,1,0,0,0,0,0,0,0,0],"split_type":[0,0,0,0,0,0,0,0,0,0,0,0,0,0,0,0,0,0,0,0,0],"sum_hessian":[2.218962E2,6.449241E1,1.574038E2,5.7946342E1,6.546061E0,5.955678E0,1.5144812E2,2.6741096E1,3.1205248E1,4.9394374E0,1.0162407E0,1.4831462E2,3.1334941E0,4.0510435E0,2.2690052E1,2.9699812E1,1.5054369E0,1.4192302E2,6.3915997E0,1.1245993E0,2.008895E0],"tree_param":{"num_deleted":"0","num_feature":"13","num_nodes":"21","size_leaf_vector":"1"}},{"base_weights":[8.7922765E-3,-1.5263657E-1,1.17020555E-1,-2.188836E-1,3.3172297E-1,9.7608894E-2,6.599804E-2,-6.6652936E-1,-1.4943804E-1,5.236196E-1,-3.0779019E-2,1.276341E-1,-6.839031E-1,1.4838732E-2,-4.0887296E-2,3.7233233E-2,-9.558355E-3,8.112525E-3,6.6502E-2,3.4861386E-2,5.002232E-3,-1.180039E-2,-3.9762553E-2],"categories":[],"categories_nodes":[],"categories_segments":[],"categories_sizes":[],"default_left":[0,0,0,0,0,0,0,0,0,0,0,0,0,0,0,0,0,0,0,0,0,0,0],"id":38,"left_children":[1,3,5,7,9,11,-1,13,15,17,-1,19,21,-1,-1,-1,-1,-1,-1,-1,-1,-1,-1],"loss_changes":[3.9038749E0,2.9510124E0,2.9936466E0,2.3722672E0,2.3565946E0,3.2005289E0,0E0,1.7561493E0,2.7587144E0,2.6534379E0,0E0,1.9513175E0,6.4967155E-2,0E0,0E0,0E0,0E0,0E0,0E0,0E0,0E0,0E0,0E0],"parents":[2147483647,0,0,1,1,2,2,3,3,4,4,5,5,7,7,8,8,9,9,11,11,12,12],"right_children":[2,4,6,8,10,12,-1,14,16,18,-1,20,22,-1,-1,-1,-1,-1,-1,-1,-1,-1,-1],"split_conditions":[1.063E2,3.9999992E-1,2.6557297E1,9.08E1,5.08E1,9.99994E-1,6.599804E-2,2.13E1,9.17E1,4.34E1,-3.0779019E-2,4.031129E0,2.4E1,1.4838732E-2,-4.0887296E-2,3.7233233E-2,-9.558355E-3,8.112525E-3,6.6502E-2,3.4861386E-2,5.002232E-3,-1.180039E-2,-3.9762553E-2],"split_indices":[0,12,2,0,1,7,0,1,0,1,0,2,1,0,0,0,0,0,0,0,0,0,0],"split_type":[0,0,0,0,0,0,0,0,0,0,0,0,0,0,0,0,0,0,0,0,0,0,0],"sum_hessian":[2.214244E2,8.870514E1,1.3271925E2,7.85146E1,1.0190537E1,1.3167557E2,1.043686E0,9.389845E0,6.9124756E1,8.845869E0,1.3446681E0,1.2760957E2,4.0659966E0,1.1433992E0,8.246446E0,2.331162E0,6.6793594E1,6.938031E0,1.9078383E0,4.7741494E0,1.2283542E2,1.4306766E0,2.63532E0],"tree_param":{"num_deleted":"0","num_feature":"13","num_nodes":"23","size_leaf_vector":"1"}},{"base_weights":[8.731847E-3,-7.291946E-1,3.1154566E-2,-4.2505458E-2,-1.4479313E-3,1.2950756E-2,9.3632823E-1,7.9265036E-2,-2.4774623E-1,1.4644153E-2,5.398981E-2,3.351913E-2,2.9142944E-3,1.1881037E-3,-2.0352984E-2],"categories":[],"categories_nodes":[],"categories_segments":[],"categories_sizes":[],"default_left":[0,0,0,0,0,0,0,0,0,0,0,0,0,0,0],"id":39,"left_children":[1,3,5,-1,-1,7,9,11,13,-1,-1,-1,-1,-1,-1],"loss_changes":[3.6975567E0,5.3339434E-1,3.555335E0,0E0,0E0,3.7062786E0,7.646799E-2,2.0785747E0,1.8907001E0,0E0,0E0,0E0,0E0,0E0,0E0],"parents":[2147483647,0,0,1,1,2,2,5,5,6,6,7,7,8,8],"right_children":[2,4,6,-1,-1,8,10,12,14,-1,-1,-1,-1,-1,-1],"split_conditions":[8.85E1,5.37E1,3.502585E1,-4.2505458E-2,-1.4479313E-3,9.999871E-1,1.9E1,4.031129E0,2.63E1,1.4644153E-2,5.398981E-2,3.351913E-2,2.9142944E-3,1.1881037E-3,-2.0352984E-2],"split_indices":[0,1,2,0,0,7,1,2,1,0,0,0,0,0,0],"split_type":[0,0,0,0,0,0,0,0,0,0,0,0,0,0,0],"sum_hessian":[2.210941E2,5.5905356E0,2.1550357E2,4.5848117E0,1.0057236E0,2.1224936E2,3.2542071E0,1.6976234E2,4.2487015E1,1.1478084E0,2.1063986E0,4.7575274E0,1.6500482E2,1.6025894E1,2.646112E1],"tree_param":{"num_deleted":"0","num_feature":"13","num_nodes":"15","size_leaf_vector":"1"}},{"base_weights":[8.445503E-3,-7.1959513E-1,2.997169E-2,-4.2140327E-2,-1.4125763E-3,1.23697E-2,8.885423E-1,7.538044E-2,-2.383999E-1,1.4175323E-2,5.100872E-2,2.132642E-2,2.1285575E-3,1.1311223E-3,-1.9718494E-2],"categories":[],"categories_nodes":[],"categories_segments":[],"categories_sizes":[],"default_left":[0,0,0,0,0,0,0,0,0,0,0,0,0,0,0],"id":40,"left_children":[1,3,5,-1,-1,7,9,11,13,-1,-1,-1,-1,-1,-1],"loss_changes":[3.4982781E0,5.2227974E-1,3.2598505E0,0E0,0E0,3.3851728E0,5.593729E-2,1.9526715E0,1.7608588E0,0E0,0E0,0E0,0E0,0E0,0E0],"parents":[2147483647,0,0,1,1,2,2,5,5,6,6,7,7,8,8],"right_children":[2,4,6,-1,-1,8,10,12,14,-1,-1,-1,-1,-1,-1],"split_conditions":[8.85E1,5.37E1,3.502585E1,-4.2140327E-2,-1.4125763E-3,9.999871E-1,1.9E1,5.467175E0,2.63E1,1.4175323E-2,5.100872E-2,2.132642E-2,2.1285575E-3,1.1311223E-3,-1.9718494E-2],"split_indices":[0,1,2,0,0,7,1,2,1,0,0,0,0,0,0],"split_type":[0,0,0,0,0,0,0,0,0,0,0,0,0,0,0],"sum_hessian":[2.2084303E2,5.410911E0,2.1543211E2,4.4064994E0,1.004412E0,2.1209819E2,3.3339252E0,1.7006537E2,4.203283E1,1.1592607E0,2.1746645E0,1.3506723E1,1.5655864E2,1.604156E1,2.5991268E1],"tree_param":{"num_deleted":"0","num_feature":"13","num_nodes":"15","size_leaf_vector":"1"}},{"base_weights":[8.105919E-3,-7.099855E-1,2.8778756E-2,-4.177304E-2,-1.3780846E-3,1.1760193E-2,8.439988E-1,3.6397487E-2,-5.9706044E-1,5.5831727E-2,3.9095768E-1,-3.972839E-2,2.688633E-3,-4.40838E-2,-3.079618E-3,-9.618747E-3,4.1569483E-2],"categories":[],"categories_nodes":[],"categories_segments":[],"categories_sizes":[],"default_left":[0,0,0,0,0,0,0,0,0,0,0,0,0,0,0,0,0],"id":41,"left_children":[1,3,5,-1,-1,7,9,11,13,-1,15,-1,-1,-1,-1,-1,-1],"loss_changes":[3.3096812E0,5.112219E-1,2.9914618E0,0E0,0E0,3.215527E0,1.08109E-1,3.011001E0,1.2165482E0,0E0,9.809133E-1,0E0,0E0,0E0,0E0,0E0,0E0],"parents":[2147483647,0,0,1,1,2,2,5,5,6,6,7,7,8,8,10,10],"right_children":[2,4,6,-1,-1,8,10,12,14,-1,16,-1,-1,-1,-1,-1,-1],"split_conditions":[8.85E1,5.37E1,3.502585E1,-4.177304E-2,-1.3780846E-3,9.99994E-1,9.05E1,9.08E1,1.9999996E-1,5.5831727E-2,9.6E1,-3.972839E-2,2.688633E-3,-4.40838E-2,-3.079618E-3,-9.618747E-3,4.1569483E-2],"split_indices":[0,1,2,0,0,7,0,0,12,0,0,0,0,0,0,0,0],"split_type":[0,0,0,0,0,0,0,0,0,0,0,0,0,0,0,0,0],"sum_hessian":[2.2057301E2,5.2392316E0,2.1533379E2,4.236098E0,1.003134E0,2.1192407E2,3.4097085E0,2.0458528E2,7.338786E0,1.2142386E0,2.1954699E0,3.274055E0,2.0131123E2,4.369649E0,2.9691367E0,1.1868082E0,1.0086616E0],"tree_param":{"num_deleted":"0","num_feature":"13","num_nodes":"17","size_leaf_vector":"1"}},{"base_weights":[7.471196E-3,-7.003697E-1,2.7302133E-2,-4.1403573E-2,-1.3444374E-3,1.0742469E-2,8.1125677E-1,3.2417193E-2,-6.39768E-1,5.330136E-2,3.795514E-1,-3.932687E-2,2.4472666E-3,-4.1721083E-2,-1.0642009E-2,-9.3915975E-3,4.0075075E-2],"categories":[],"categories_nodes":[],"categories_segments":[],"categories_sizes":[],"default_left":[0,0,0,0,0,0,0,0,0,0,0,0,0,0,0,0,0],"id":42,"left_children":[1,3,5,-1,-1,7,9,11,13,-1,15,-1,-1,-1,-1,-1,-1],"loss_changes":[3.128958E0,5.002258E-1,2.8014808E0,0E0,0E0,3.024014E0,8.6419344E-2,2.8415854E0,3.9718914E-1,0E0,9.189976E-1,0E0,0E0,0E0,0E0,0E0,0E0],"parents":[2147483647,0,0,1,1,2,2,5,5,6,6,7,7,8,8,10,10],"right_children":[2,4,6,-1,-1,8,10,12,14,-1,16,-1,-1,-1,-1,-1,-1],"split_conditions":[8.85E1,5.37E1,3.502585E1,-4.1403573E-2,-1.3444374E-3,9.9999446E-1,9.05E1,9.08E1,1.9999996E-1,5.330136E-2,9.6E1,-3.932687E-2,2.4472666E-3,-4.1721083E-2,-1.0642009E-2,-9.3915975E-3,4.0075075E-2],"split_indices":[0,1,2,0,0,7,0,0,12,0,0,0,0,0,0,0,0],"split_type":[0,0,0,0,0,0,0,0,0,0,0,0,0,0,0,0,0],"sum_hessian":[2.2054333E2,5.075148E0,2.1546819E2,4.0732594E0,1.0018886E0,2.1200368E2,3.4645026E0,2.0608711E2,5.9165664E0,1.2547017E0,2.2098007E0,3.1553333E0,2.0293178E2,3.4081662E0,2.5084002E0,1.1791208E0,1.03068E0],"tree_param":{"num_deleted":"0","num_feature":"13","num_nodes":"17","size_leaf_vector":"1"}},{"base_weights":[6.8364204E-3,-1.3756594E-1,1.0146577E-1,-5.536976E-2,-5.48141E-1,8.2628354E-2,6.4120814E-2,1.3045361E0,-1.256026E-1,-1.8234897E-1,-8.383001E-1,1.094813E-1,-6.562497E-1,1.10198796E-1,3.432837E-3,-1.733885E-2,1.4839442E-3,2.7726023E-2,-4.204771E-2,-4.001283E-3,-4.718218E-2,4.0164217E-3,2.719897E-2,-1.2415773E-2,-3.8063526E-2],"categories":[],"categories_nodes":[],"categories_segments":[],"categories_sizes":[],"default_left":[0,0,0,0,0,0,0,0,0,0,0,0,0,0,0,0,0,0,0,0,0,0,0,0,0],"id":43,"left_children":[1,3,5,7,9,11,-1,13,15,17,19,21,23,-1,-1,-1,-1,-1,-1,-1,-1,-1,-1,-1,-1],"loss_changes":[3.0409653E0,2.9435394E0,2.8838825E0,7.2826624E0,1.395329E0,2.7178028E0,0E0,4.0151286E0,2.4757483E0,4.217916E0,5.520358E-1,1.5971432E0,1.744461E-2,0E0,0E0,0E0,0E0,0E0,0E0,0E0,0E0,0E0,0E0,0E0,0E0],"parents":[2147483647,0,0,1,1,2,2,3,3,4,4,5,5,7,7,8,8,9,9,10,10,11,11,12,12],"right_children":[2,4,6,8,10,12,-1,14,16,18,20,22,24,-1,-1,-1,-1,-1,-1,-1,-1,-1,-1,-1,-1],"split_conditions":[1.063E2,1.043E2,2.7373161E1,1.7220047E1,4.0128362E-1,9.99994E-1,6.4120814E-2,4E1,3.62E1,1.8788294E1,3.33E1,1.17E2,2.4E1,1.10198796E-1,3.432837E-3,-1.733885E-2,1.4839442E-3,2.7726023E-2,-4.204771E-2,-4.001283E-3,-4.718218E-2,4.0164217E-3,2.719897E-2,-1.2415773E-2,-3.8063526E-2],"split_indices":[0,0,2,2,3,7,0,1,1,2,1,0,1,0,0,0,0,0,0,0,0,0,0,0,0],"split_type":[0,0,0,0,0,0,0,0,0,0,0,0,0,0,0,0,0,0,0,0,0,0,0,0,0],"sum_hessian":[2.2052019E2,8.712127E1,1.3339893E2,7.353466E1,1.358661E1,1.3235764E2,1.041278E0,2.748156E0,7.078651E1,6.730359E0,6.8562503E0,1.2853802E2,3.8196123E0,1.1372036E0,1.6109525E0,2.8689518E1,4.2096985E1,3.2510333E0,3.479326E0,1.0509626E0,5.805288E0,1.2156635E2,6.9716773E0,1.4708405E0,2.3487718E0],"tree_param":{"num_deleted":"0","num_feature":"13","num_nodes":"25","size_leaf_vector":"1"}},{"base_weights":[6.7535546E-3,-6.8947136E-1,2.5703957E-2,-4.0976517E-2,-1.3478426E-3,9.666025E-3,7.7536726E-1,4.2631842E-2,-3.9196798E-1,5.1613975E-2,3.546887E-1,-3.8394928E-2,2.9292705E-3,2.2779338E-2,-2.395208E-2,-1.1038619E-2,4.04935E-2],"categories":[],"categories_nodes":[],"categories_segments":[],"categories_sizes":[],"default_left":[0,0,0,0,0,0,0,0,0,0,0,0,0,0,0,0,0],"id":44,"left_children":[1,3,5,-1,-1,7,9,11,13,-1,15,-1,-1,-1,-1,-1,-1],"loss_changes":[2.9370575E0,4.861982E-1,2.593905E0,0E0,0E0,2.8348644E0,1.2229514E-1,2.6001894E0,1.4169981E0,0E0,1.0266856E0,0E0,0E0,0E0,0E0,0E0,0E0],"parents":[2147483647,0,0,1,1,2,2,5,5,6,6,7,7,8,8,10,10],"right_children":[2,4,6,-1,-1,8,10,12,14,-1,16,-1,-1,-1,-1,-1,-1],"split_conditions":[8.85E1,5.37E1,3.502585E1,-4.0976517E-2,-1.3478426E-3,5.21E1,9.05E1,9.08E1,9.38E1,5.1613975E-2,6.55E1,-3.8394928E-2,2.9292705E-3,2.2779338E-2,-2.395208E-2,-1.1038619E-2,4.04935E-2],"split_indices":[0,1,2,0,0,1,0,0,0,0,1,0,0,0,0,0,0],"split_type":[0,0,0,0,0,0,0,0,0,0,0,0,0,0,0,0,0],"sum_hessian":[2.2026666E2,4.8989677E0,2.1536769E2,3.896953E0,1.0020146E0,2.118484E2,3.519288E0,1.9660506E2,1.5243341E1,1.2823198E0,2.2369683E0,2.8852427E0,1.9371982E2,1.0258408E0,1.4217501E1,1.2153927E0,1.0215757E0],"tree_param":{"num_deleted":"0","num_feature":"13","num_nodes":"17","size_leaf_vector":"1"}},{"base_weights":[6.379483E-3,-6.798628E-1,2.4582004E-2,-4.060259E-2,-1.3149339E-3,2.357562E-3,5.3494257E-1,3.4348395E-2,-3.6326054E-1,1.3210153E-2,7.03466E-1,-2.8577787E-3,8.528453E-3,-4.264542E-2,-8.163226E-3,2.1001298E-2,-1.8192021E-2,4.670471E-2,1.4090597E-2],"categories":[],"categories_nodes":[],"categories_segments":[],"categories_sizes":[],"default_left":[0,0,0,0,0,0,0,0,0,0,0,0,0,0,0,0,0,0,0],"id":45,"left_children":[1,3,5,-1,-1,7,9,11,13,15,17,-1,-1,-1,-1,-1,-1,-1,-1],"loss_changes":[2.7794871E0,4.7540617E-1,2.4535375E0,0E0,0E0,2.4499943E0,7.8438616E-1,2.4097662E0,1.511194E0,6.4720094E-1,3.9840364E-1,0E0,0E0,0E0,0E0,0E0,0E0,0E0,0E0],"parents":[2147483647,0,0,1,1,2,2,5,5,6,6,7,7,8,8,9,9,10,10],"right_children":[2,4,6,-1,-1,8,10,12,14,16,18,-1,-1,-1,-1,-1,-1,-1,-1],"split_conditions":[8.85E1,5.37E1,1.17E2,-4.060259E-2,-1.3149339E-3,5.21E1,3.63E1,1.9999996E-1,5.31E1,3.35E1,4.26E1,-2.8577787E-3,8.528453E-3,-4.264542E-2,-8.163226E-3,2.1001298E-2,-1.8192021E-2,4.670471E-2,1.4090597E-2],"split_indices":[0,1,0,0,0,1,1,12,1,1,1,0,0,0,0,0,0,0,0],"split_type":[0,0,0,0,0,0,0,0,0,0,0,0,0,0,0,0,0,0,0],"sum_hessian":[2.201752E2,4.749958E0,2.1542523E2,3.7491603E0,1.0007979E0,2.0739838E2,8.026864E0,1.9154466E2,1.5853711E1,2.2230139E0,5.8038507E0,1.14925674E2,7.661899E1,3.6508222E0,1.2202889E1,1.0144755E0,1.2085384E0,2.9661653E0,2.8376853E0],"tree_param":{"num_deleted":"0","num_feature":"13","num_nodes":"19","size_leaf_vector":"1"}},{"base_weights":[5.923863E-3,-6.7026275E-1,2.3417542E-2,-4.012333E-2,-2.337398E-3,7.814009E-3,7.451758E-1,2.796663E-2,-6.19952E-1,3.4399453E-1,4.9574148E-2,-3.8490664E-2,2.1578362E-3,-4.0927242E-2,-9.992683E-3,3.1254813E-2,-6.9050337E-3],"categories":[],"categories_nodes":[],"categories_segments":[],"categories_sizes":[],"default_left":[0,0,0,0,0,0,0,0,0,0,0,0,0,0,0,0,0],"id":46,"left_children":[1,3,5,-1,-1,7,9,11,13,15,-1,-1,-1,-1,-1,-1,-1],"loss_changes":[2.6301196E0,4.2472196E-1,2.4313908E0,0E0,0E0,2.7100275E0,1.1040902E-1,2.5438845E0,3.9232183E-1,5.2937675E-1,0E0,0E0,0E0,0E0,0E0,0E0,0E0],"parents":[2147483647,0,0,1,1,2,2,5,5,6,6,7,7,8,8,9,9],"right_children":[2,4,6,-1,-1,8,10,12,14,16,-1,-1,-1,-1,-1,-1,-1],"split_conditions":[8.85E1,5.31E1,3.502585E1,-4.012333E-2,-2.337398E-3,9.9999446E-1,3.726473E1,9.08E1,1.9999996E-1,3.5652348E1,4.9574148E-2,-3.8490664E-2,2.1578362E-3,-4.0927242E-2,-9.992683E-3,3.1254813E-2,-6.9050337E-3],"split_indices":[0,1,2,0,0,7,2,0,12,2,0,0,0,0,0,0,0],"split_type":[0,0,0,0,0,0,0,0,0,0,0,0,0,0,0,0,0],"sum_hessian":[2.200183E2,4.607541E0,2.1541077E2,3.5647109E0,1.0428303E0,2.1184183E2,3.5689356E0,2.0617851E2,5.663317E0,2.2693162E0,1.2996194E0,2.924152E0,2.0325435E2,3.2014413E0,2.461876E0,1.2461075E0,1.0232086E0],"tree_param":{"num_deleted":"0","num_feature":"13","num_nodes":"17","size_leaf_vector":"1"}},{"base_weights":[5.3368066E-3,1.7008644E-1,-6.483129E-2,9.1488177E-1,8.158975E-2,-6.60731E-1,-4.284076E-2,2.1493461E-2,5.6516804E-2,-3.68366E-1,2.0535447E-1,-3.9744027E-2,-2.2802572E-3,-6.629517E-2,7.156907E-1,-2.5230765E-2,1.834323E-2,4.7781795E-2,6.4862925E-3,-2.0440484E-3,-3.0449754E-2,4.7916606E-2,1.6200675E-2],"categories":[],"categories_nodes":[],"categories_segments":[],"categories_sizes":[],"default_left":[0,0,0,0,0,0,0,0,0,0,0,0,0,0,0,0,0,0,0,0,0,0,0],"id":47,"left_children":[1,3,5,7,9,11,13,-1,-1,15,17,-1,-1,19,21,-1,-1,-1,-1,-1,-1,-1,-1],"loss_changes":[2.5657763E0,4.294375E0,2.012143E0,2.3949909E-1,3.4361215E0,4.1532087E-1,2.7381046E0,0E0,0E0,1.525015E0,2.5978923E0,0E0,0E0,2.0110784E0,1.286459E-1,0E0,0E0,0E0,0E0,0E0,0E0,0E0,0E0],"parents":[2147483647,0,0,1,1,2,2,3,3,4,4,5,5,6,6,9,9,10,10,13,13,14,14],"right_children":[2,4,6,8,10,12,14,-1,-1,16,18,-1,-1,20,22,-1,-1,-1,-1,-1,-1,-1,-1],"split_conditions":[9.99937E-1,1.083E2,8.85E1,1.9999996E-1,1.113E2,5.31E1,3.502585E1,2.1493461E-2,5.6516804E-2,7.850349E-1,6.991816E-1,-3.9744027E-2,-2.2802572E-3,9.9999446E-1,9.05E1,-2.5230765E-2,1.834323E-2,4.7781795E-2,6.4862925E-3,-2.0440484E-3,-3.0449754E-2,4.7916606E-2,1.6200675E-2],"split_indices":[7,0,0,12,0,1,2,0,0,3,3,0,0,7,0,0,0,0,0,0,0,0,0],"split_type":[0,0,0,0,0,0,0,0,0,0,0,0,0,0,0,0,0,0,0,0,0,0,0],"sum_hessian":[2.199959E2,6.528573E1,1.5471017E2,5.941717E0,5.934401E1,4.472344E0,1.5023782E2,2.7488694E0,3.192848E0,1.2375527E1,4.696848E1,3.431715E0,1.0406288E0,1.4661691E2,3.6209133E0,1.0705332E1,1.6701956E0,3.2354057E0,4.3733074E1,1.4108533E2,5.531584E0,1.3425021E0,2.2784111E0],"tree_param":{"num_deleted":"0","num_feature":"13","num_nodes":"23","size_leaf_vector":"1"}},{"base_weights":[5.5487636E-3,-2.2544628E-1,5.288398E-2,-5.0367173E-2,-6.283151E-1,6.560276E-2,3.2302216E-2,1.0397464E0,-2.1567278E-1,-7.5601023E-1,3.1560012E-3,7.2823726E-3,5.126096E-1,2.1300538E-2,6.645199E-2,-1.8782223E-2,1.2391663E-2,-6.5530795E-3,-4.1338958E-2,2.09644E-3,-2.193292E-2,9.371398E-3,4.034589E-2],"categories":[],"categories_nodes":[],"categories_segments":[],"categories_sizes":[],"default_left":[0,0,0,0,0,0,0,0,0,0,0,0,0,0,0,0,0,0,0,0,0,0,0],"id":48,"left_children":[1,3,5,7,9,-1,11,13,15,17,-1,19,21,-1,-1,-1,-1,-1,-1,-1,-1,-1,-1],"loss_changes":[2.4242198E0,2.6282172E0,4.7237964E0,5.157068E0,1.0486574E0,0E0,2.183118E0,1.0427952E-1,1.9169601E0,3.1826878E-1,0E0,2.7064412E0,7.0967627E-1,0E0,0E0,0E0,0E0,0E0,0E0,0E0,0E0,0E0,0E0],"parents":[2147483647,0,0,1,1,2,2,3,3,4,4,6,6,7,7,8,8,9,9,11,11,12,12],"right_children":[2,4,6,8,10,-1,12,14,16,18,-1,20,22,-1,-1,-1,-1,-1,-1,-1,-1,-1,-1],"split_conditions":[9.85E1,9.62E1,9.89E1,9.999854E-1,2.4999994E-1,6.560276E-2,1.17E2,4.15E1,4.85E1,2.52E1,3.1560012E-3,5.21E1,1.4688779E0,2.1300538E-2,6.645199E-2,-1.8782223E-2,1.2391663E-2,-6.5530795E-3,-4.1338958E-2,2.09644E-3,-2.193292E-2,9.371398E-3,4.034589E-2],"split_indices":[0,0,0,7,12,0,0,1,1,1,0,1,3,0,0,0,0,0,0,0,0,0,0],"split_type":[0,0,0,0,0,0,0,0,0,0,0,0,0,0,0,0,0,0,0,0,0,0,0],"sum_hessian":[2.1961945E2,3.6710426E1,1.8290901E2,2.6373867E1,1.0336559E1,1.9324957E0,1.8097652E2,2.7762098E0,2.3597658E1,8.646347E0,1.6902122E0,1.7298088E2,7.9956393E0,1.6814997E0,1.0947101E0,1.7683903E1,5.9137564E0,1.1696163E0,7.476731E0,1.6135103E2,1.1629851E1,4.576214E0,3.4194257E0],"tree_param":{"num_deleted":"0","num_feature":"13","num_nodes":"23","size_leaf_vector":"1"}},{"base_weights":[5.804327E-3,-6.485133E-1,2.1849085E-2,-3.9330795E-2,-1.4726428E-3,6.972589E-3,6.955575E-1,2.541516E-2,-5.9423363E-1,6.700085E-2,1.5138023E-1,-3.7929226E-2,1.9902634E-3,-4.0061854E-2,-8.634283E-3,-3.476645E-2,4.5164153E-2],"categories":[],"categories_nodes":[],"categories_segments":[],"categories_sizes":[],"default_left":[0,0,0,0,0,0,0,0,0,0,0,0,0,0,0,0,0],"id":49,"left_children":[1,3,5,-1,-1,7,9,11,13,-1,15,-1,-1,-1,-1,-1,-1],"loss_changes":[2.327137E0,4.3044162E-1,2.1601045E0,0E0,0E0,2.3696437E0,1.4302442E0,2.365459E0,4.1673756E-1,0E0,2.9531822E0,0E0,0E0,0E0,0E0,0E0,0E0],"parents":[2147483647,0,0,1,1,2,2,5,5,6,6,7,7,8,8,10,10],"right_children":[2,4,6,-1,-1,8,10,12,14,-1,16,-1,-1,-1,-1,-1,-1],"split_conditions":[8.85E1,5.37E1,3.502585E1,-3.9330795E-2,-1.4726428E-3,9.9999446E-1,9.03E1,9.08E1,1.9999996E-1,6.700085E-2,9.53E1,-3.7929226E-2,1.9902634E-3,-4.0061854E-2,-8.634283E-3,-3.476645E-2,4.5164153E-2],"split_indices":[0,1,2,0,0,7,0,0,12,0,0,0,0,0,0,0,0],"split_type":[0,0,0,0,0,0,0,0,0,0,0,0,0,0,0,0,0],"sum_hessian":[2.1931686E2,4.305757E0,2.1501111E2,3.2991157E0,1.0066413E0,2.1135443E2,3.656675E0,2.0599313E2,5.361308E0,1.0045453E0,2.6521297E0,2.780683E0,2.0321245E2,2.9915764E0,2.3697317E0,1.2828113E0,1.3693184E0],"tree_param":{"num_deleted":"0","num_feature":"13","num_nodes":"17","size_leaf_vector":"1"}},{"base_weights":[5.2556307E-3,-1.1989572E-1,8.535047E-2,-3.6929164E-2,-5.3551924E-1,6.765872E-2,5.8627065E-2,1.2214788E0,-1.0577025E-1,-1.6904405E-1,-8.29339E-1,9.064906E-2,-6.1693007E-1,1.0169705E-1,3.0641537E-3,-1.6406497E-2,2.4238627E-3,2.6214672E-2,-4.1359887E-2,-4.1266372E-3,-4.6792027E-2,3.698653E-3,4.4325452E-2,-1.0940561E-2,-3.632232E-2],"categories":[],"categories_nodes":[],"categories_segments":[],"categories_sizes":[],"default_left":[0,0,0,0,0,0,0,0,0,0,0,0,0,0,0,0,0,0,0,0,0,0,0,0,0],"id":50,"left_children":[1,3,5,7,9,11,-1,13,15,17,19,21,23,-1,-1,-1,-1,-1,-1,-1,-1,-1,-1,-1,-1],"loss_changes":[2.2183912E0,2.958867E0,2.5155134E0,6.4601793E0,1.3995776E0,2.1619227E0,0E0,3.5234618E0,2.4240122E0,3.9105036E0,5.3365135E-1,1.6641643E0,3.619027E-2,0E0,0E0,0E0,0E0,0E0,0E0,0E0,0E0,0E0,0E0,0E0,0E0],"parents":[2147483647,0,0,1,1,2,2,3,3,4,4,5,5,7,7,8,8,9,9,10,10,11,11,12,12],"right_children":[2,4,6,8,10,12,-1,14,16,18,20,22,24,-1,-1,-1,-1,-1,-1,-1,-1,-1,-1,-1,-1],"split_conditions":[1.063E2,1.043E2,2.7373161E1,1.7220047E1,4.0128362E-1,9.99994E-1,5.8627065E-2,4E1,3.62E1,1.8788294E1,3.33E1,5.52E1,2.4E1,1.0169705E-1,3.0641537E-3,-1.6406497E-2,2.4238627E-3,2.6214672E-2,-4.1359887E-2,-4.1266372E-3,-4.6792027E-2,3.698653E-3,4.4325452E-2,-1.0940561E-2,-3.632232E-2],"split_indices":[0,0,2,2,3,7,0,1,1,2,1,1,1,0,0,0,0,0,0,0,0,0,0,0,0],"split_type":[0,0,0,0,0,0,0,0,0,0,0,0,0,0,0,0,0,0,0,0,0,0,0,0,0],"sum_hessian":[2.192876E2,8.538041E1,1.3390718E2,7.2080574E1,1.3299835E1,1.3280824E2,1.0989429E0,2.8701982E0,6.921038E1,6.6191907E0,6.6806445E0,1.2933249E2,3.4757483E0,1.2451456E0,1.6250527E0,2.788488E1,4.1325497E1,3.322482E0,3.2967088E0,1.055344E0,5.6253004E0,1.27748665E2,1.5838265E0,1.3966304E0,2.079118E0],"tree_param":{"num_deleted":"0","num_feature":"13","num_nodes":"25","size_leaf_vector":"1"}},{"base_weights":[5.2868202E-3,-6.380365E-1,2.0668406E-2,-3.889974E-2,-1.495865E-3,3.9676757E-4,4.8820233E-1,-4.0630557E-2,2.4441852E-1,1.7358467E-1,3.8932953E-2,2.6666594E-3,-8.866399E-3,-1.0123591E-2,3.0526279E-2,-1.907713E-2,3.4977783E-2],"categories":[],"categories_nodes":[],"categories_segments":[],"categories_sizes":[],"default_left":[0,0,0,0,0,0,0,0,0,0,0,0,0,0,0,0,0],"id":51,"left_children":[1,3,5,-1,-1,7,9,11,13,15,-1,-1,-1,-1,-1,-1,-1],"loss_changes":[2.1913056E0,4.168651E-1,2.0464575E0,0E0,0E0,2.092047E0,6.848278E-1,2.3072953E0,5.044338E0,1.9003394E0,0E0,0E0,0E0,0E0,0E0,0E0,0E0],"parents":[2147483647,0,0,1,1,2,2,5,5,6,6,7,7,8,8,9,9],"right_children":[2,4,6,-1,-1,8,10,12,14,16,-1,-1,-1,-1,-1,-1,-1],"split_conditions":[8.85E1,5.37E1,1.17E2,-3.889974E-2,-1.495865E-3,3.9999992E-1,1.4688779E0,4.12E1,3.88E1,7.4518456E0,3.8932953E-2,2.6666594E-3,-8.866399E-3,-1.0123591E-2,3.0526279E-2,-1.907713E-2,3.4977783E-2],"split_indices":[0,1,0,0,0,12,3,1,1,2,0,0,0,0,0,0,0],"split_type":[0,0,0,0,0,0,0,0,0,0,0,0,0,0,0,0,0],"sum_hessian":[2.191157E2,4.1713552E0,2.1494435E2,3.1638513E0,1.0075042E0,2.0697122E2,7.9731436E0,1.7789523E2,2.9075989E1,4.594302E0,3.3788412E0,1.05787994E2,7.210723E1,1.32947035E1,1.5781285E1,2.3687932E0,2.2255092E0],"tree_param":{"num_deleted":"0","num_feature":"13","num_nodes":"17","size_leaf_vector":"1"}},{"base_weights":[5.1105553E-3,-6.2856287E-1,1.9926071E-2,-3.8515557E-2,-1.4593414E-3,5.5295825E-3,6.666535E-1,2.2857955E-2,-5.768853E-1,6.487091E-2,1.3448162E-1,-3.7465256E-2,1.8305213E-3,-3.9426256E-2,-7.916282E-3,-3.4033176E-2,4.1853685E-2],"categories":[],"categories_nodes":[],"categories_segments":[],"categories_sizes":[],"default_left":[0,0,0,0,0,0,0,0,0,0,0,0,0,0,0,0,0],"id":52,"left_children":[1,3,5,-1,-1,7,9,11,13,-1,15,-1,-1,-1,-1,-1,-1],"loss_changes":[2.077023E0,4.0696573E-1,2.005997E0,0E0,0E0,2.1543384E0,1.40048E0,2.2254794E0,4.2153835E-1,0E0,2.666178E0,0E0,0E0,0E0,0E0,0E0,0E0],"parents":[2147483647,0,0,1,1,2,2,5,5,6,6,7,7,8,8,10,10],"right_children":[2,4,6,-1,-1,8,10,12,14,-1,16,-1,-1,-1,-1,-1,-1],"split_conditions":[8.85E1,5.37E1,3.502585E1,-3.8515557E-2,-1.4593414E-3,9.9999446E-1,9.03E1,9.08E1,1.9999996E-1,6.487091E-2,9.53E1,-3.7465256E-2,1.8305213E-3,-3.9426256E-2,-7.916282E-3,-3.4033176E-2,4.1853685E-2],"split_indices":[0,1,2,0,0,7,0,0,12,0,0,0,0,0,0,0,0],"split_type":[0,0,0,0,0,0,0,0,0,0,0,0,0,0,0,0,0],"sum_hessian":[2.1890356E2,4.05469E0,2.1484888E2,3.0485427E0,1.0061473E0,2.1115697E2,3.6919131E0,2.05989E2,5.1679606E0,1.0314288E0,2.6604843E0,2.6686134E0,2.0332039E2,2.845344E0,2.3226163E0,1.2460418E0,1.4144425E0],"tree_param":{"num_deleted":"0","num_feature":"13","num_nodes":"17","size_leaf_vector":"1"}},{"base_weights":[4.5896233E-3,-4.773356E-2,1.8080182E-1,-9.461366E-2,1.9621189E-1,3.6609507E-1,-3.391208E-2,-5.636972E-1,-6.654688E-2,-3.645424E-1,6.306008E-1,6.888808E-2,7.481209E-1,-3.0697188E-1,4.6893173E-1,1.9816859E-3,-4.2462632E-2,4.1129433E-2,-4.3609934E-3,1.5682725E-2,-3.946442E-2,4.9534835E-2,-8.926867E-3,1.10954475E-2,-1.583199E-2,5.578366E-2,-2.9741598E-3,-4.0349127E-3,-3.2239914E-2,2.9053105E-2,-6.0783015E-3],"categories":[],"categories_nodes":[],"categories_segments":[],"categories_sizes":[],"default_left":[0,0,0,0,0,0,0,0,0,0,0,0,0,0,0,0,0,0,0,0,0,0,0,0,0,0,0,0,0,0,0],"id":53,"left_children":[1,3,5,7,9,11,13,15,17,19,21,23,25,27,29,-1,-1,-1,-1,-1,-1,-1,-1,-1,-1,-1,-1,-1,-1,-1,-1],"loss_changes":[2.035841E0,1.9664092E0,2.0234866E0,1.8523151E0,6.9968834E0,3.0388057E0,3.4846842E0,1.4067416E0,2.582093E0,3.923301E0,4.8447433E0,1.0383412E0,3.5714512E0,1.1994894E0,6.637807E-1,0E0,0E0,0E0,0E0,0E0,0E0,0E0,0E0,0E0,0E0,0E0,0E0,0E0,0E0,0E0,0E0],"parents":[2147483647,0,0,1,1,2,2,3,3,4,4,5,5,6,6,7,7,8,8,9,9,10,10,11,11,12,12,13,13,14,14],"right_children":[2,4,6,8,10,12,14,16,18,20,22,24,26,28,30,-1,-1,-1,-1,-1,-1,-1,-1,-1,-1,-1,-1,-1,-1,-1,-1],"split_conditions":[1.133E2,3.3333322E-1,1.151E2,9.08E1,3.88E1,1.9999996E-1,1.17E2,1.9258621E-1,9.17E1,3.15E1,4.9999976E-1,1.0278619E1,4.29E1,6.762396E0,2.4999994E-1,1.9816859E-3,-4.2462632E-2,4.1129433E-2,-4.3609934E-3,1.5682725E-2,-3.946442E-2,4.9534835E-2,-8.926867E-3,1.10954475E-2,-1.583199E-2,5.578366E-2,-2.9741598E-3,-4.0349127E-3,-3.2239914E-2,2.9053105E-2,-6.0783015E-3],"split_indices":[0,12,0,0,1,12,0,3,0,1,12,2,1,2,12,0,0,0,0,0,0,0,0,0,0,0,0,0,0,0,0],"split_type":[0,0,0,0,0,0,0,0,0,0,0,0,0,0,0,0,0,0,0,0,0,0,0,0,0,0,0,0,0,0,0],"sum_hessian":[2.188714E2,1.6932297E2,4.954843E1,1.4254216E2,2.6780813E1,2.621792E1,2.333051E1,6.969859E0,1.355723E2,1.1760253E1,1.502056E1,1.5409792E1,1.0808129E1,1.5372366E1,7.9581437E0,2.5157351E0,4.454124E0,2.1991093E0,1.3337318E2,4.629625E0,7.1306276E0,1.023931E1,4.78125E0,1.1335136E1,4.0746555E0,7.1655316E0,3.6425974E0,9.948087E0,5.4242797E0,6.7015557E0,1.2565879E0],"tree_param":{"num_deleted":"0","num_feature":"13","num_nodes":"31","size_leaf_vector":"1"}},{"base_weights":[4.455709E-3,-6.127856E-1,1.836338E-2,-3.788703E-2,-1.306554E-3,4.5060837E-3,6.3419724E-1,3.1933304E-2,-3.4876335E-1,6.1852958E-2,1.21571496E-1,-6.281049E-3,4.881216E-3,-4.2016815E-2,-6.710143E-3,-3.35777E-2,3.9686408E-2],"categories":[],"categories_nodes":[],"categories_segments":[],"categories_sizes":[],"default_left":[0,0,0,0,0,0,0,0,0,0,0,0,0,0,0,0,0],"id":54,"left_children":[1,3,5,-1,-1,7,9,11,13,-1,15,-1,-1,-1,-1,-1,-1],"loss_changes":[1.8965914E0,3.942194E-1,1.8383546E0,0E0,0E0,2.065389E0,1.3147382E0,2.0579855E0,1.5071111E0,0E0,2.4901497E0,0E0,0E0,0E0,0E0,0E0,0E0],"parents":[2147483647,0,0,1,1,2,2,5,5,6,6,7,7,8,8,10,10],"right_children":[2,4,6,-1,-1,8,10,12,14,-1,16,-1,-1,-1,-1,-1,-1],"split_conditions":[8.85E1,5.37E1,3.502585E1,-3.788703E-2,-1.306554E-3,5.21E1,9.03E1,3.48E1,5.31E1,6.1852958E-2,9.53E1,-6.281049E-3,4.881216E-3,-4.2016815E-2,-6.710143E-3,-3.35777E-2,3.9686408E-2],"split_indices":[0,1,2,0,0,1,0,1,1,0,0,0,0,0,0,0,0],"split_type":[0,0,0,0,0,0,0,0,0,0,0,0,0,0,0,0,0],"sum_hessian":[2.1862408E2,3.8686178E0,2.1475546E2,2.8682735E0,1.0003442E0,2.110146E2,3.740866E0,1.9665616E2,1.4358435E1,1.0696944E0,2.6711717E0,5.759859E1,1.3905757E2,3.4766476E0,1.0881787E1,1.2257355E0,1.445436E0],"tree_param":{"num_deleted":"0","num_feature":"13","num_nodes":"17","size_leaf_vector":"1"}},{"base_weights":[4.0989676E-3,-6.034154E-1,1.7499298E-2,-3.7365526E-2,-2.1753765E-3,4.023273E-3,6.1244464E-1,2.056354E-2,-5.6413066E-1,5.9297632E-2,1.1696014E-1,-3.6663216E-2,1.6661382E-3,-7.2588176E-3,-3.9003786E-2,-3.305713E-2,3.8118627E-2],"categories":[],"categories_nodes":[],"categories_segments":[],"categories_sizes":[],"default_left":[0,0,0,0,0,0,0,0,0,0,0,0,0,0,0,0,0],"id":55,"left_children":[1,3,5,-1,-1,7,9,