{"learner":{"attributes":{"scikit_learn":"{\"_estimator_type\": \"classifier\"}"},"feature_names":["start_x","start_y","distance","visible_angle","body_part_code","technique_code","angle_sin","angle_cos","dist_to_goal_center","is_header","start_x_norm","start_y_norm","player_last5_conv"],"feature_types":["float","float","float","float","int","int","float","float","float","int","float","float","float"],"gradient_booster":{"model":{"cats":{"enc":[],"feature_segments":[],"sorted_idx":[]},"gbtree_model_param":{"num_parallel_tree":"1","num_trees":"250"},"iteration_indptr":[0,1,2,3,4,5,6,7,8,9,10,11,12,13,14,15,16,17,18,19,20,21,22,23,24,25,26,27,28,29,30,31,32,33,34,35,36,37,38,39,40,41,42,43,44,45,46,47,48,49,50,51,52,53,54,55,56,57,58,59,60,61,62,63,64,65,66,67,68,69,70,71,72,73,74,75,76,77,78,79,80,81,82,83,84,85,86,87,88,89,90,91,92,93,94,95,96,97,98,99,100,101,102,103,104,105,106,107,108,109,110,111,112,113,114,115,116,117,118,119,120,121,122,123,124,125,126,127,128,129,130,131,132,133,134,135,136,137,138,139,140,141,142,143,144,145,146,147,148,149,150,151,152,153,154,155,156,157,158,159,160,161,162,163,164,165,166,167,168,169,170,171,172,173,174,175,176,177,178,179,180,181,182,183,184,185,186,187,188,189,190,191,192,193,194,195,196,197,198,199,200,201,202,203,204,205,206,207,208,209,210,211,212,213,214,215,216,217,218,219,220,221,222,223,224,225,226,227,228,229,230,231,232,233,234,235,236,237,238,239,240,241,242,243,244,245,246,247,248,249,250],"tree_info":[0,0,0,0,0,0,0,0,0,0,0,0,0,0,0,0,0,0,0,0,0,0,0,0,0,0,0,0,0,0,0,0,0,0,0,0,0,0,0,0,0,0,0,0,0,0,0,0,0,0,0,0,0,0,0,0,0,0,0,0,0,0,0,0,0,0,0,0,0,0,0,0,0,0,0,0,0,0,0,0,0,0,0,0,0,0,0,0,0,0,0,0,0,0,0,0,0,0,0,0,0,0,0,0,0,0,0,0,0,0,0,0,0,0,0,0,0,0,0,0,0,0,0,0,0,0,0,0,0,0,0,0,0,0,0,0,0,0,0,0,0,0,0,0,0,0,0,0,0,0,0,0,0,0,0,0,0,0,0,0,0,0,0,0,0,0,0,0,0,0,0,0,0,0,0,0,0,0,0,0,0,0,0,0,0,0,0,0,0,0,0,0,0,0,0,0,0,0,0,0,0,0,0,0,0,0,0,0,0,0,0,0,0,0,0,0,0,0,0,0,0,0,0,0,0,0,0,0,0,0,0,0,0,0,0,0,0,0,0,0,0,0,0,0,0,0,0,0,0,0],"trees":[{"base_weights":[5.7553578E-8,-4.9320903E-1,1.3902413E0,3.7501108E-2,-8.632705E-1,8.473322E-1,2.2673357E-1,2.0315085E-1,-5.176171E-1,-1.4554714E-1,-9.1565865E-1,2.3462763E0,-1.633833E-1,3.236682E-3,7.7214785E-2,1.12815555E-2,-3.6945164E-2,2.5893584E-2,-2.7844075E-2,-4.649658E-2,-5.2827066E-3,2.5893584E-2,1.2726101E-1,-1.7465573E-2,5.6225818E-2],"categories":[],"categories_nodes":[],"categories_segments":[],"categories_sizes":[],"default_left":[0,0,0,0,0,0,0,0,0,0,0,0,0,0,0,0,0,0,0,0,0,0,0,0,0],"id":0,"left_children":[1,3,5,7,9,11,-1,13,15,17,19,21,23,-1,-1,-1,-1,-1,-1,-1,-1,-1,-1,-1,-1],"loss_changes":[9.229058E1,1.954445E1,5.632792E1,3.9465322E0,2.0692177E0,4.778263E1,0E0,6.0059905E0,1.7921205E0,1.7002456E0,5.307045E-1,3.2888412E0,5.0912843E0,0E0,0E0,0E0,0E0,0E0,0E0,0E0,0E0,0E0,0E0,0E0,0E0],"parents":[2147483647,0,0,1,1,2,2,3,3,4,4,5,5,7,7,8,8,9,9,10,10,11,11,12,12],"right_children":[2,4,6,8,10,12,-1,14,16,18,20,22,24,-1,-1,-1,-1,-1,-1,-1,-1,-1,-1,-1,-1],"split_conditions":[6.4335114E-1,1.8478365E1,1.1667476E1,1.12E2,9.9997914E-1,7.602631E0,2.2673357E-1,1.111E2,9.999594E-1,1.007E2,4.9999988E-1,3.68E1,1.136E2,3.236682E-3,7.7214785E-2,1.12815555E-2,-3.6945164E-2,2.5893584E-2,-2.7844075E-2,-4.649658E-2,-5.2827066E-3,2.5893584E-2,1.2726101E-1,-1.7465573E-2,5.6225818E-2],"split_indices":[3,2,2,0,7,2,0,0,7,0,12,1,0,0,0,0,0,0,0,0,0,0,0,0,0],"split_type":[0,0,0,0,0,0,0,0,0,0,0,0,0,0,0,0,0,0,0,0,0,0,0,0,0],"sum_hessian":[1.3259724E2,9.835098E1,3.424626E1,4.0774456E1,5.7576527E1,3.0286537E1,3.959724E0,3.189183E1,8.882624E0,4.1737633E0,5.3402763E1,1.16651325E1,1.8621405E1,2.985846E1,2.0333717E0,2.0333717E0,6.849252E0,1.498274E0,2.6754892E0,5.233257E1,1.0701957E0,1.498274E0,1.0166859E1,1.6909092E1,1.712313E0],"tree_param":{"num_deleted":"0","num_feature":"13","num_nodes":"25","size_leaf_vector":"1"}},{"base_weights":[1.6511931E-3,-4.7785726E-1,1.270692E0,3.671816E-2,-8.4857637E-1,7.8660506E-1,1.8960865E-1,-6.5454394E-1,1.5957543E-1,-1.3958496E-1,-9.018456E-1,2.105924E0,-1.2813413E-1,-4.245178E-2,-1.2669884E-2,1.4940306E-2,-3.645869E-2,2.4816282E-2,-2.7256293E-2,-4.5818523E-2,-5.1570674E-3,2.4816282E-2,1.1368177E-1,-1.4886603E-2,4.8481923E-2],"categories":[],"categories_nodes":[],"categories_segments":[],"categories_sizes":[],"default_left":[0,0,0,0,0,0,0,0,0,0,0,0,0,0,0,0,0,0,0,0,0,0,0,0,0],"id":1,"left_children":[1,3,5,7,9,11,-1,13,15,17,19,21,23,-1,-1,-1,-1,-1,-1,-1,-1,-1,-1,-1,-1],"loss_changes":[8.1764854E1,1.8634787E1,4.1993797E1,3.6540556E0,2.0165062E0,3.909908E1,0E0,2.9224896E-1,4.708792E0,1.5979898E0,5.1545715E-1,2.4432907E0,4.001724E0,0E0,0E0,0E0,0E0,0E0,0E0,0E0,0E0,0E0,0E0,0E0,0E0],"parents":[2147483647,0,0,1,1,2,2,3,3,4,4,5,5,7,7,8,8,9,9,10,10,11,11,12,12],"right_children":[2,4,6,8,10,12,-1,14,16,18,20,22,24,-1,-1,-1,-1,-1,-1,-1,-1,-1,-1,-1,-1],"split_conditions":[6.4335114E-1,1.8478365E1,1.1667476E1,3.0490944E-1,9.9997914E-1,7.510659E0,1.8960865E-1,2.5755104E-1,5.984807E-1,1.007E2,4.9999988E-1,3.68E1,1.136E2,-4.245178E-2,-1.2669884E-2,1.4940306E-2,-3.645869E-2,2.4816282E-2,-2.7256293E-2,-4.5818523E-2,-5.1570674E-3,2.4816282E-2,1.1368177E-1,-1.4886603E-2,4.8481923E-2],"split_indices":[3,2,2,3,7,2,0,3,3,0,12,1,0,0,0,0,0,0,0,0,0,0,0,0,0],"split_type":[0,0,0,0,0,0,0,0,0,0,0,0,0,0,0,0,0,0,0,0,0,0,0,0,0],"sum_hessian":[1.3236981E2,9.652223E1,3.584758E1,4.079618E1,5.572605E1,3.1174501E1,4.6730804E0,5.5033956E0,3.5292786E1,4.1473165E0,5.1578735E1,1.2231264E1,1.8943237E1,2.9544415E0,2.5489538E0,3.1086578E1,4.206206E0,1.5277923E0,2.619524E0,5.051281E1,1.0659255E0,1.5277923E0,1.0703471E1,1.7039537E1,1.9037001E0],"tree_param":{"num_deleted":"0","num_feature":"13","num_nodes":"25","size_leaf_vector":"1"}},{"base_weights":[2.0858347E-3,-4.6370235E-1,1.167826E0,3.2790624E-2,-8.340224E-1,7.324671E-1,1.628539E-1,1.8692978E-1,-5.0037384E-1,-1.3395385E-1,-8.881653E-1,1.8456727E0,-1.4738835E-1,2.7129252E-3,7.1837865E-2,1.0882202E-2,-3.609582E-2,2.3789957E-2,-2.667861E-2,-4.514724E-2,-5.034419E-3,1.0341654E-1,2.8292898E-2,-1.6331226E-2,5.0216552E-2],"categories":[],"categories_nodes":[],"categories_segments":[],"categories_sizes":[],"default_left":[0,0,0,0,0,0,0,0,0,0,0,0,0,0,0,0,0,0,0,0,0,0,0,0,0],"id":2,"left_children":[1,3,5,7,9,11,-1,13,15,17,19,21,23,-1,-1,-1,-1,-1,-1,-1,-1,-1,-1,-1,-1],"loss_changes":[7.284517E1,1.765208E1,3.2450985E1,3.5381744E0,1.963604E0,3.2579952E1,0E0,5.4342566E0,1.6956768E0,1.5019151E0,5.005722E-1,3.0002174E0,4.3224053E0,0E0,0E0,0E0,0E0,0E0,0E0,0E0,0E0,0E0,0E0,0E0,0E0],"parents":[2147483647,0,0,1,1,2,2,3,3,4,4,5,5,7,7,8,8,9,9,10,10,11,11,12,12],"right_children":[2,4,6,8,10,12,-1,14,16,18,20,22,24,-1,-1,-1,-1,-1,-1,-1,-1,-1,-1,-1,-1],"split_conditions":[6.4335114E-1,1.8478365E1,1.1667476E1,1.12E2,9.9997914E-1,7.602631E0,1.628539E-1,1.111E2,9.999594E-1,1.007E2,4.9999988E-1,4.28E1,1.136E2,2.7129252E-3,7.1837865E-2,1.0882202E-2,-3.609582E-2,2.3789957E-2,-2.667861E-2,-4.514724E-2,-5.034419E-3,1.0341654E-1,2.8292898E-2,-1.6331226E-2,5.0216552E-2],"split_indices":[3,2,2,0,7,2,0,0,7,0,12,1,0,0,0,0,0,0,0,0,0,0,0,0,0],"split_type":[0,0,0,0,0,0,0,0,0,0,0,0,0,0,0,0,0,0,0,0,0,0,0,0,0],"sum_hessian":[1.3215884E2,9.485886E1,3.7299988E1,4.0915012E1,5.394384E1,3.1985441E1,5.3145466E0,3.2242905E1,8.672108E0,4.121885E0,4.9821957E1,1.3635683E1,1.8349758E1,3.0092003E1,2.1509037E0,2.0489783E0,6.6231294E0,1.5564142E0,2.5654705E0,4.876019E1,1.0617672E0,1.1090139E1,2.5455437E0,1.6498573E1,1.8511856E0],"tree_param":{"num_deleted":"0","num_feature":"13","num_nodes":"25","size_leaf_vector":"1"}},{"base_weights":[3.3798565E-3,-4.4901818E-1,1.0786273E0,3.213663E-2,-8.19588E-1,6.841078E-1,2.853984E0,-6.365252E-1,1.4682366E-1,-1.2863508E-1,-8.745937E-1,1.6600955E0,-1.3942294E-1,1.6562408E-1,6.538919E-2,-4.1672315E-2,-1.2016005E-2,1.3944921E-2,-3.5974707E-2,2.28118E-2,-2.6110858E-2,-4.4481464E-2,-4.9146875E-3,9.220498E-2,2.6882773E-2,-1.5750445E-2,4.7411483E-2],"categories":[],"categories_nodes":[],"categories_segments":[],"categories_sizes":[],"default_left":[0,0,0,0,0,0,0,0,0,0,0,0,0,0,0,0,0,0,0,0,0,0,0,0,0,0,0],"id":3,"left_children":[1,3,5,7,9,11,13,15,17,19,21,23,25,-1,-1,-1,-1,-1,-1,-1,-1,-1,-1,-1,-1,-1,-1],"loss_changes":[6.506843E1,1.6814617E1,2.579248E1,3.3087933E0,1.9105186E0,2.7338387E1,5.503006E-1,2.932651E-1,4.38864E0,1.4116547E0,4.8602295E-1,2.212162E0,3.9680877E0,0E0,0E0,0E0,0E0,0E0,0E0,0E0,0E0,0E0,0E0,0E0,0E0,0E0,0E0],"parents":[2147483647,0,0,1,1,2,2,3,3,4,4,5,5,6,6,7,7,8,8,9,9,10,10,11,11,12,12],"right_children":[2,4,6,8,10,12,14,16,18,20,22,24,26,-1,-1,-1,-1,-1,-1,-1,-1,-1,-1,-1,-1,-1,-1],"split_conditions":[6.4335114E-1,1.8478365E1,1.1667476E1,3.0490944E-1,9.9997914E-1,7.602631E0,1.9999996E-1,2.5755104E-1,5.984807E-1,1.007E2,4.9999988E-1,4.28E1,1.136E2,1.6562408E-1,6.538919E-2,-4.1672315E-2,-1.2016005E-2,1.3944921E-2,-3.5974707E-2,2.28118E-2,-2.6110858E-2,-4.4481464E-2,-4.9146875E-3,9.220498E-2,2.6882773E-2,-1.5750445E-2,4.7411483E-2],"split_indices":[3,2,2,3,7,2,12,3,3,0,12,1,0,0,0,0,0,0,0,0,0,0,0,0,0,0,0],"split_type":[0,0,0,0,0,0,0,0,0,0,0,0,0,0,0,0,0,0,0,0,0,0,0,0,0,0,0],"sum_hessian":[1.3176894E2,9.315672E1,3.8612217E1,4.0928135E1,5.222859E1,3.2725334E1,5.886884E0,5.325964E0,3.5602173E1,4.0974245E0,4.813116E1,1.4511524E1,1.821381E1,3.6594143E0,2.2274697E0,2.820535E0,2.5054288E0,3.1480818E1,4.1213546E0,1.5841523E0,2.513272E0,4.7073444E1,1.0577177E0,1.1915286E1,2.596238E0,1.6293789E1,1.920022E0],"tree_param":{"num_deleted":"0","num_feature":"13","num_nodes":"27","size_leaf_vector":"1"}},{"base_weights":[4.264313E-3,-4.3553013E-1,1.0038922E0,2.850026E-2,-8.052549E-1,6.404012E-1,2.570511E0,1.7214932E-1,-4.8362482E-1,-1.23610534E-1,-8.611087E-1,1.5043819E0,-1.318558E-1,1.4722595E-1,6.141401E-2,2.244381E-3,6.700841E-2,1.0505418E-2,-3.5263654E-2,2.187919E-2,-2.5552878E-2,-4.382005E-2,-4.7978065E-3,1.5917862E-2,8.14424E-2,-1.5184964E-2,4.4809505E-2],"categories":[],"categories_nodes":[],"categories_segments":[],"categories_sizes":[],"default_left":[0,0,0,0,0,0,0,0,0,0,0,0,0,0,0,0,0,0,0,0,0,0,0,0,0,0,0],"id":4,"left_children":[1,3,5,7,9,11,13,15,17,19,21,23,25,-1,-1,-1,-1,-1,-1,-1,-1,-1,-1,-1,-1,-1,-1],"loss_changes":[5.8624912E1,1.5912113E1,2.1554428E1,3.1756144E0,1.8572884E0,2.3151196E1,6.851959E-2,4.9290233E0,1.6043961E0,1.3268623E0,4.7175598E-1,1.8901367E0,3.6436286E0,0E0,0E0,0E0,0E0,0E0,0E0,0E0,0E0,0E0,0E0,0E0,0E0,0E0,0E0],"parents":[2147483647,0,0,1,1,2,2,3,3,4,4,5,5,6,6,7,7,8,8,9,9,10,10,11,11,12,12],"right_children":[2,4,6,8,10,12,14,16,18,20,22,24,26,-1,-1,-1,-1,-1,-1,-1,-1,-1,-1,-1,-1,-1,-1],"split_conditions":[6.4335114E-1,1.8478365E1,1.1667476E1,1.12E2,9.9997914E-1,7.602631E0,1.9999996E-1,1.111E2,9.999594E-1,1.007E2,4.9999988E-1,3.68E1,1.136E2,1.4722595E-1,6.141401E-2,2.244381E-3,6.700841E-2,1.0505418E-2,-3.5263654E-2,2.187919E-2,-2.5552878E-2,-4.382005E-2,-4.7978065E-3,1.5917862E-2,8.14424E-2,-1.5184964E-2,4.4809505E-2],"split_indices":[3,2,2,0,7,2,12,0,7,0,12,1,0,0,0,0,0,0,0,0,0,0,0,0,0,0,0],"split_type":[0,0,0,0,0,0,0,0,0,0,0,0,0,0,0,0,0,0,0,0,0,0,0,0,0,0,0],"sum_hessian":[1.3135582E2,9.161386E1,3.9741955E1,4.1034996E1,5.0578865E1,3.3400955E1,6.340998E0,3.2564606E1,8.470389E0,4.073891E0,4.6504974E1,1.5316844E1,1.8084112E1,4.0255456E0,2.3154526E0,3.0301527E1,2.2630775E0,2.0636065E0,6.406783E0,1.6110201E0,2.462871E0,4.54512E1,1.053774E0,1.7926495E0,1.3524195E1,1.6097853E1,1.9862581E0],"tree_param":{"num_deleted":"0","num_feature":"13","num_nodes":"27","size_leaf_vector":"1"}},{"base_weights":[5.7892776E-3,-4.214852E-1,9.3686146E-1,2.7965752E-2,-7.910073E-1,6.0024065E-1,2.3382258E0,1.2501436E-1,-7.09788E-1,-1.18863314E-1,-8.4769094E-1,1.3967702E0,-1.0417705E-1,1.297143E-1,1.6847005E-2,-3.09537E-2,1.3035146E-2,-4.185991E-2,-8.5917255E-3,2.0989649E-2,-2.500454E-2,-4.3161962E-2,-4.68371E-3,9.5241986E-2,4.7195E-2,-2.0128872E-2,1.9095032E-2],"categories":[],"categories_nodes":[],"categories_segments":[],"categories_sizes":[],"default_left":[0,0,0,0,0,0,0,0,0,0,0,0,0,0,0,0,0,0,0,0,0,0,0,0,0,0,0],"id":5,"left_children":[1,3,5,7,9,11,13,15,17,19,21,23,25,-1,-1,-1,-1,-1,-1,-1,-1,-1,-1,-1,-1,-1,-1],"loss_changes":[5.2829178E1,1.514114E1,1.8300385E1,3.098734E0,1.8039589E0,1.9797564E1,3.094677E0,3.9983618E0,2.0138597E-1,1.2472106E0,4.577446E-1,2.0001297E0,2.9847069E0,0E0,0E0,0E0,0E0,0E0,0E0,0E0,0E0,0E0,0E0,0E0,0E0,0E0,0E0],"parents":[2147483647,0,0,1,1,2,2,3,3,4,4,5,5,6,6,7,7,8,8,9,9,10,10,11,11,12,12],"right_children":[2,4,6,8,10,12,14,16,18,20,22,24,26,-1,-1,-1,-1,-1,-1,-1,-1,-1,-1,-1,-1,-1,-1],"split_conditions":[6.4335114E-1,1.8478365E1,1.1667476E1,5.984807E-1,9.9997914E-1,7.510659E0,2.4999994E-1,3.0490944E-1,1.2165525E1,1.007E2,4.9999988E-1,3.93E1,1.123E2,1.297143E-1,1.6847005E-2,-3.09537E-2,1.3035146E-2,-4.185991E-2,-8.5917255E-3,2.0989649E-2,-2.500454E-2,-4.3161962E-2,-4.68371E-3,9.5241986E-2,4.7195E-2,-2.0128872E-2,1.9095032E-2],"split_indices":[3,2,2,3,7,2,12,3,2,0,12,1,0,0,0,0,0,0,0,0,0,0,0,0,0,0,0],"split_type":[0,0,0,0,0,0,0,0,0,0,0,0,0,0,0,0,0,0,0,0,0,0,0,0,0,0,0],"sum_hessian":[1.30803E2,9.003343E1,4.0769554E1,4.10403E1,4.8993134E1,3.4024803E1,6.74475E0,3.700322E1,4.037081E0,4.051245E0,4.4941887E1,1.5507088E1,1.8517715E1,5.716967E0,1.0277829E0,5.157589E0,3.184563E1,2.814276E0,1.2228047E0,1.6370333E0,2.4142118E0,4.3891953E1,1.0499332E0,5.797169E0,9.709919E0,1.1580373E1,6.9373426E0],"tree_param":{"num_deleted":"0","num_feature":"13","num_nodes":"27","size_leaf_vector":"1"}},{"base_weights":[6.110623E-3,-4.0858743E-1,8.757513E-1,-7.6682067E-1,3.7832763E-2,5.643273E-1,2.1320808E0,-5.716173E-1,-5.0410148E-2,-3.0196918E-2,6.551363E-2,1.2835623E0,-9.957242E-2,1.17509924E-1,1.6339796E-2,-3.6381077E-2,3.2615222E-3,2.75579E-2,-7.0540346E-3,1.1620819E-2,7.009268E-2,-1.9487197E-2,1.8030396E-2],"categories":[],"categories_nodes":[],"categories_segments":[],"categories_sizes":[],"default_left":[0,0,0,0,0,0,0,0,0,0,0,0,0,0,0,0,0,0,0,0,0,0,0],"id":6,"left_children":[1,3,5,7,9,11,13,15,-1,17,-1,19,21,-1,-1,-1,-1,-1,-1,-1,-1,-1,-1],"loss_changes":[4.771772E1,1.4358361E1,1.5511295E1,1.768219E0,3.5751626E0,1.712413E1,2.4317818E0,3.010086E0,0E0,2.6400585E0,0E0,1.8075333E0,2.7360215E0,0E0,0E0,0E0,0E0,0E0,0E0,0E0,0E0,0E0,0E0],"parents":[2147483647,0,0,1,1,2,2,3,3,4,4,5,5,6,6,7,7,9,9,11,11,12,12],"right_children":[2,4,6,8,10,12,14,16,-1,18,-1,20,22,-1,-1,-1,-1,-1,-1,-1,-1,-1,-1],"split_conditions":[6.4335114E-1,3.5171434E-1,1.1667476E1,9.9998987E-1,5.05E1,7.510659E0,2.4999994E-1,1.074E2,-5.0410148E-2,3.19E1,6.551363E-2,3.68E1,1.123E2,1.17509924E-1,1.6339796E-2,-3.6381077E-2,3.2615222E-3,2.75579E-2,-7.0540346E-3,1.1620819E-2,7.009268E-2,-1.9487197E-2,1.8030396E-2],"split_indices":[3,3,2,7,1,2,12,0,0,1,0,1,0,0,0,0,0,0,0,0,0,0,0],"split_type":[0,0,0,0,0,0,0,0,0,0,0,0,0,0,0,0,0,0,0,0,0,0,0],"sum_hessian":[1.3032242E2,8.860181E1,4.1720615E1,4.875793E1,3.984388E1,3.4594406E1,7.126212E0,2.881977E1,1.993816E1,3.8748497E1,1.09538E0,1.6157179E1,1.8437227E1,6.0887184E0,1.0374937E0,2.3034603E1,5.7851667E0,5.5707746E0,3.3177723E1,1.9342301E0,1.4222948E1,1.1401166E1,7.0360613E0],"tree_param":{"num_deleted":"0","num_feature":"13","num_nodes":"23","size_leaf_vector":"1"}},{"base_weights":[6.8792948E-3,-7.5275815E-1,4.466031E-1,-5.5678725E-1,-4.9956985E-2,4.1508887E-2,8.2653177E-1,-7.1312463E-1,6.23135E-2,-2.3635037E-2,6.2146492E-2,5.2953684E-1,1.0435053E-1,-4.483318E-2,-1.6928086E-2,-1.8219886E-2,4.895921E-2,2.57574E-3,-4.085531E-2,5.7999987E-2,-5.7273298E-3],"categories":[],"categories_nodes":[],"categories_segments":[],"categories_sizes":[],"default_left":[0,0,0,0,0,0,0,0,0,0,0,0,0,0,0,0,0,0,0,0,0],"id":7,"left_children":[1,3,5,7,-1,9,11,13,15,17,-1,19,-1,-1,-1,-1,-1,-1,-1,-1,-1],"loss_changes":[4.4008568E1,1.7761345E0,1.2807152E1,2.867257E0,0E0,3.2722023E0,1.4993179E1,1.3027086E0,3.0170834E0,2.444198E0,0E0,1.48093E1,0E0,0E0,0E0,0E0,0E0,0E0,0E0,0E0,0E0],"parents":[2147483647,0,0,1,1,2,2,3,3,5,5,6,6,7,7,8,8,9,9,11,11],"right_children":[2,4,6,8,-1,10,12,14,16,18,-1,20,-1,-1,-1,-1,-1,-1,-1,-1,-1],"split_conditions":[3.5171434E-1,9.9998987E-1,6.435011E-1,1.074E2,-4.9956985E-2,5.05E1,1.1667476E1,4.6E1,1.733032E1,4.81E1,6.2146492E-2,7.602631E0,1.0435053E-1,-4.483318E-2,-1.6928086E-2,-1.8219886E-2,4.895921E-2,2.57574E-3,-4.085531E-2,5.7999987E-2,-5.7273298E-3],"split_indices":[3,7,3,0,0,1,2,1,2,1,0,2,0,0,0,0,0,0,0,0,0],"split_type":[0,0,0,0,0,0,0,0,0,0,0,0,0,0,0,0,0,0,0,0,0],"sum_hessian":[1.2974364E2,4.7307125E1,8.2436516E1,2.8164804E1,1.9142319E1,4.0433773E1,4.2002743E1,2.2365198E1,5.799606E0,3.9284027E1,1.1497467E0,3.514254E1,6.8602037E0,1.407462E1,8.290578E0,4.3688903E0,1.4307157E0,3.6739494E1,2.5445294E0,1.7354263E1,1.7788277E1],"tree_param":{"num_deleted":"0","num_feature":"13","num_nodes":"21","size_leaf_vector":"1"}},{"base_weights":[6.7852447E-3,-7.3877025E-1,4.2158523E-1,-5.4214364E-1,-4.951169E-2,3.9884955E-2,7.732036E-1,-6.9920224E-1,6.349963E-2,-2.3449589E-2,5.8993097E-2,4.9678078E-1,9.60275E-2,-4.426605E-2,-1.6378097E-2,3.257686E-2,-2.8451577E-2,2.4456498E-3,-4.0297713E-2,-1.8673485E-2,4.4655554E-2],"categories":[],"categories_nodes":[],"categories_segments":[],"categories_sizes":[],"default_left":[0,0,0,0,0,0,0,0,0,0,0,0,0,0,0,0,0,0,0,0,0],"id":8,"left_children":[1,3,5,7,-1,9,11,13,15,17,-1,19,-1,-1,-1,-1,-1,-1,-1,-1,-1],"loss_changes":[4.058425E1,1.7828636E0,1.1284517E1,2.759018E0,0E0,3.0224957E0,1.2946514E1,1.2832518E0,2.897599E0,2.3200662E0,0E0,1.2980886E1,0E0,0E0,0E0,0E0,0E0,0E0,0E0,0E0,0E0],"parents":[2147483647,0,0,1,1,2,2,3,3,5,5,6,6,7,7,8,8,9,9,11,11],"right_children":[2,4,6,8,-1,10,12,14,16,18,-1,20,-1,-1,-1,-1,-1,-1,-1,-1,-1],"split_conditions":[3.5171434E-1,9.9998987E-1,6.435011E-1,1.074E2,-4.951169E-2,5.05E1,1.1667476E1,4.6E1,1.1E2,4.81E1,5.8993097E-2,1.123E2,9.60275E-2,-4.426605E-2,-1.6378097E-2,3.257686E-2,-2.8451577E-2,2.4456498E-3,-4.0297713E-2,-1.8673485E-2,4.4655554E-2],"split_indices":[3,7,3,0,0,1,2,1,0,1,0,0,0,0,0,0,0,0,0,0,0],"split_type":[0,0,0,0,0,0,0,0,0,0,0,0,0,0,0,0,0,0,0,0,0],"sum_hessian":[1.2922462E2,4.5915585E1,8.330904E1,2.7538437E1,1.837715E1,4.0479664E1,4.2829376E1,2.1744944E1,5.793493E0,3.9276955E1,1.2027091E0,3.566888E1,7.1604924E0,1.3567895E1,8.177049E0,2.9867706E0,2.8067222E0,3.6810387E1,2.4665704E0,1.1179325E1,2.4489557E1],"tree_param":{"num_deleted":"0","num_feature":"13","num_nodes":"21","size_leaf_vector":"1"}},{"base_weights":[6.259311E-3,3.919386E-1,-7.3830426E-1,3.445247E-2,7.237822E-1,-1.10634044E-1,-7.976209E-1,1.5647213E-1,-4.3983254E-1,4.6556848E-1,1.7785276E0,2.022286E-2,-4.8617667E-1,-5.045293E-2,-6.727592E-1,1.8221618E-3,6.29928E-2,1.0300844E-2,-3.319572E-2,5.10403E-2,-4.8792753E-3,1.0189909E-1,4.4286832E-2,-3.1715896E-2,-3.991463E-3,-4.073377E-2,-1.936832E-2],"categories":[],"categories_nodes":[],"categories_segments":[],"categories_sizes":[],"default_left":[0,0,0,0,0,0,0,0,0,0,0,0,0,0,0,0,0,0,0,0,0,0,0,0,0,0,0],"id":9,"left_children":[1,3,5,7,9,11,13,15,17,19,21,-1,23,-1,25,-1,-1,-1,-1,-1,-1,-1,-1,-1,-1,-1,-1],"loss_changes":[3.754301E1,1.0190812E1,1.5728416E0,2.5287127E0,1.1321247E1,1.1663984E0,3.9305687E-1,4.5292177E0,1.4335232E0,1.1728536E1,1.4492607E-1,0E0,1.5123343E-1,0E0,8.398495E-1,0E0,0E0,0E0,0E0,0E0,0E0,0E0,0E0,0E0,0E0,0E0,0E0],"parents":[2147483647,0,0,1,1,2,2,3,3,4,4,5,5,6,6,7,7,8,8,9,9,10,10,12,12,14,14],"right_children":[2,4,6,8,10,12,14,16,18,20,22,-1,24,-1,26,-1,-1,-1,-1,-1,-1,-1,-1,-1,-1,-1,-1],"split_conditions":[1.8478365E1,6.435011E-1,9.9997914E-1,1.12E2,1.1667476E1,1.007E2,2.4190961E-1,1.111E2,9.999594E-1,7.510659E0,1.9999996E-1,2.022286E-2,4.0308905E-1,-5.045293E-2,4.6E1,1.8221618E-3,6.29928E-2,1.0300844E-2,-3.319572E-2,5.10403E-2,-4.8792753E-3,1.0189909E-1,4.4286832E-2,-3.1715896E-2,-3.991463E-3,-4.073377E-2,-1.936832E-2],"split_indices":[2,3,7,0,2,0,3,0,7,2,12,0,3,0,1,0,0,0,0,0,0,0,0,0,0,0,0],"split_type":[0,0,0,0,0,0,0,0,0,0,0,0,0,0,0,0,0,0,0,0,0,0,0,0,0,0,0],"sum_hessian":[1.2873006E2,8.5114746E1,4.3615307E1,4.1505653E1,4.3609093E1,4.0132713E0,3.9602036E1,3.3545475E1,7.9601803E0,3.619062E1,7.4184732E0,1.6597615E0,2.3535097E0,1.2074302E1,2.7527735E1,3.1186008E1,2.3594644E0,2.0711946E0,5.8889856E0,1.7814192E1,1.8376429E1,4.754158E0,2.6643155E0,1.3135926E0,1.039917E0,1.7146688E1,1.0381047E1],"tree_param":{"num_deleted":"0","num_feature":"13","num_nodes":"27","size_leaf_vector":"1"}},{"base_weights":[6.392072E-3,3.7196332E-1,-7.2499937E-1,3.3566315E-2,6.817567E-1,-1.08593486E-1,-7.848946E-1,1.2477027E-1,-5.954322E-1,4.379498E-1,1.6685929E0,1.9408928E-2,-4.7778738E-1,-6.1195034E-1,-4.652315E-2,6.915479E-2,2.6079863E-3,-4.0298067E-2,-8.331064E-3,-1.7903125E-2,3.8953494E-2,9.531396E-2,4.20991E-2,-3.4916704E-3,-3.1459533E-2,-3.6063936E-2,1.5723867E-2],"categories":[],"categories_nodes":[],"categories_segments":[],"categories_sizes":[],"default_left":[0,0,0,0,0,0,0,0,0,0,0,0,0,0,0,0,0,0,0,0,0,0,0,0,0,0,0],"id":10,"left_children":[1,3,5,7,9,11,13,15,17,19,21,-1,23,25,-1,-1,-1,-1,-1,-1,-1,-1,-1,-1,-1,-1,-1],"loss_changes":[3.479613E1,9.072226E0,1.5160866E0,2.5133433E0,1.0154215E1,1.102824E0,4.2177963E-1,3.3960953E0,3.6741507E-1,1.0498035E1,8.600998E-2,0E0,1.609754E-1,2.3451858E0,0E0,0E0,0E0,0E0,0E0,0E0,0E0,0E0,0E0,0E0,0E0,0E0,0E0],"parents":[2147483647,0,0,1,1,2,2,3,3,4,4,5,5,6,6,7,7,8,8,9,9,10,10,12,12,13,13],"right_children":[2,4,6,8,10,12,14,16,18,20,22,-1,24,26,-1,-1,-1,-1,-1,-1,-1,-1,-1,-1,-1,-1,-1],"split_conditions":[1.8478365E1,6.435011E-1,9.9997914E-1,5.984807E-1,1.1667476E1,1.007E2,9.999887E-1,9.9994695E-1,6.287963E-1,1.123E2,1.9999996E-1,1.9408928E-2,3.71E1,9.9998826E-1,-4.652315E-2,6.915479E-2,2.6079863E-3,-4.0298067E-2,-8.331064E-3,-1.7903125E-2,3.8953494E-2,9.531396E-2,4.20991E-2,-3.4916704E-3,-3.1459533E-2,-3.6063936E-2,1.5723867E-2],"split_indices":[2,3,7,3,2,0,7,7,3,0,12,0,1,7,0,0,0,0,0,0,0,0,0,0,0,0,0],"split_type":[0,0,0,0,0,0,0,0,0,0,0,0,0,0,0,0,0,0,0,0,0,0,0,0,0,0,0],"sum_hessian":[1.2813089E2,8.575795E1,4.2372948E1,4.1516514E1,4.4241432E1,4.001806E0,3.8371143E1,3.6959126E1,4.557388E0,3.663437E1,7.607064E0,1.6841973E0,2.3176084E0,1.991489E1,1.8456251E1,1.0317076E0,3.5927418E1,2.466774E0,2.0906138E0,1.097478E1,2.565959E1,4.8937597E0,2.713304E0,1.0228349E0,1.2947733E0,1.8010859E1,1.904032E0],"tree_param":{"num_deleted":"0","num_feature":"13","num_nodes":"27","size_leaf_vector":"1"}},{"base_weights":[6.482477E-3,-6.997157E-1,3.6062026E-1,-4.9901828E-1,-4.836933E-2,4.033198E-2,6.4220405E-1,-6.577994E-1,6.819209E-2,-3.8727604E-2,9.0881366E-1,4.114147E-1,1.5715929E0,-4.2747095E-2,-1.4109558E-2,-1.7230688E-2,4.52258E-2,1.5283398E-3,-3.9382886E-2,-9.8368935E-3,8.3647214E-2,4.4539124E-2,-4.895871E-3,8.487361E-2,1.5065369E-2],"categories":[],"categories_nodes":[],"categories_segments":[],"categories_sizes":[],"default_left":[0,0,0,0,0,0,0,0,0,0,0,0,0,0,0,0,0,0,0,0,0,0,0,0,0],"id":11,"left_children":[1,3,5,7,-1,9,11,13,15,17,19,21,23,-1,-1,-1,-1,-1,-1,-1,-1,-1,-1,-1,-1],"loss_changes":[3.240004E1,1.8418655E0,7.7547817E0,2.458097E0,0E0,2.8797853E0,9.18639E0,1.3158903E0,2.6477501E0,2.0444875E0,3.2838242E0,9.384279E0,8.9004326E-1,0E0,0E0,0E0,0E0,0E0,0E0,0E0,0E0,0E0,0E0,0E0,0E0],"parents":[2147483647,0,0,1,1,2,2,3,3,5,5,6,6,7,7,8,8,9,9,10,10,11,11,12,12],"right_children":[2,4,6,8,-1,10,12,14,16,18,20,22,24,-1,-1,-1,-1,-1,-1,-1,-1,-1,-1,-1,-1],"split_conditions":[3.5171434E-1,9.9998987E-1,6.435011E-1,1.074E2,-4.836933E-2,9.9998015E-1,1.1667476E1,4.6E1,1.733032E1,9.9997914E-1,1.046E2,7.510659E0,2.4999994E-1,-4.2747095E-2,-1.4109558E-2,-1.7230688E-2,4.52258E-2,1.5283398E-3,-3.9382886E-2,-9.8368935E-3,8.3647214E-2,4.4539124E-2,-4.895871E-3,8.487361E-2,1.5065369E-2],"split_indices":[3,7,3,0,0,7,2,1,2,7,0,2,12,0,0,0,0,0,0,0,0,0,0,0,0],"split_type":[0,0,0,0,0,0,0,0,0,0,0,0,0,0,0,0,0,0,0,0,0,0,0,0,0],"sum_hessian":[1.2754382E2,4.2271988E1,8.5271835E1,2.5795238E1,1.6476751E1,4.0428993E1,4.484284E1,2.0028797E1,5.7664394E0,3.7931427E1,2.4975646E0,3.707813E1,7.764709E0,1.229793E1,7.730869E0,4.254419E0,1.5120206E0,3.559702E1,2.334411E0,1.3242135E0,1.1733509E0,1.8715117E1,1.8363014E1,6.758665E0,1.0060443E0],"tree_param":{"num_deleted":"0","num_feature":"13","num_nodes":"25","size_leaf_vector":"1"}},{"base_weights":[6.5823514E-3,-6.859924E-1,3.4222373E-1,-4.8516208E-1,-4.7942992E-2,3.9046142E-2,6.0598844E-1,-6.4417046E-1,6.871895E-2,-2.1969998E-2,5.5140253E-2,3.8781127E-1,1.4800154E0,-4.2186316E-2,-1.3628674E-2,3.0108074E-2,-2.717534E-2,2.5168294E-2,-6.2011364E-3,-1.7147684E-2,3.4242686E-2,7.9763226E-2,1.4637661E-2],"categories":[],"categories_nodes":[],"categories_segments":[],"categories_sizes":[],"default_left":[0,0,0,0,0,0,0,0,0,0,0,0,0,0,0,0,0,0,0,0,0,0,0],"id":12,"left_children":[1,3,5,7,-1,9,11,13,15,17,-1,19,21,-1,-1,-1,-1,-1,-1,-1,-1,-1,-1],"loss_changes":[2.9966223E1,1.8409843E0,6.91891E0,2.357554E0,0E0,2.715241E0,8.266073E0,1.2904682E0,2.5357165E0,2.2171597E0,0E0,8.581636E0,7.5149345E-1,0E0,0E0,0E0,0E0,0E0,0E0,0E0,0E0,0E0,0E0],"parents":[2147483647,0,0,1,1,2,2,3,3,5,5,6,6,7,7,8,8,9,9,11,11,12,12],"right_children":[2,4,6,8,-1,10,12,14,16,18,-1,20,22,-1,-1,-1,-1,-1,-1,-1,-1,-1,-1],"split_conditions":[3.5171434E-1,9.9998987E-1,6.435011E-1,1.074E2,-4.7942992E-2,5.05E1,1.1667476E1,4.6E1,1.1E2,3.19E1,5.5140253E-2,1.123E2,2.4999994E-1,-4.2186316E-2,-1.3628674E-2,3.0108074E-2,-2.717534E-2,2.5168294E-2,-6.2011364E-3,-1.7147684E-2,3.4242686E-2,7.9763226E-2,1.4637661E-2],"split_indices":[3,7,3,0,0,1,2,1,0,1,0,0,12,0,0,0,0,0,0,0,0,0,0],"split_type":[0,0,0,0,0,0,0,0,0,0,0,0,0,0,0,0,0,0,0,0,0,0,0],"sum_hessian":[1.2690103E2,4.1083664E1,8.581737E1,2.5265951E1,1.5817713E1,4.0459858E1,4.5357513E1,1.9503784E1,5.762167E0,3.9191235E1,1.2686231E0,3.7452274E1,7.9052386E0,1.1862706E1,7.6410785E0,3.0879893E0,2.674178E0,5.735296E0,3.3455936E1,1.0779259E1,2.6673016E1,6.892523E0,1.0127159E0],"tree_param":{"num_deleted":"0","num_feature":"13","num_nodes":"23","size_leaf_vector":"1"}},{"base_weights":[6.602373E-3,3.1968397E-1,-6.8557626E-1,7.938177E-2,2.5858575E-1,-7.6090133E-1,-1.7901999E-1,3.0445464E-2,4.6707705E-1,-4.903635E-2,-6.273282E-1,2.0887109E-2,-4.7465673E-1,6.078783E-3,-3.4427807E-2,1.1173127E-2,6.649535E-2,-4.0216055E-2,-1.5905961E-2,-4.127071E-2,1.8922826E-2],"categories":[],"categories_nodes":[],"categories_segments":[],"categories_sizes":[],"default_left":[0,0,0,0,0,0,0,0,0,0,0,0,0,0,0,0,0,0,0,0,0],"id":13,"left_children":[1,3,5,-1,7,9,11,13,15,-1,17,-1,19,-1,-1,-1,-1,-1,-1,-1,-1],"loss_changes":[2.779959E1,6.431143E0,1.3883343E0,0E0,4.0501866E0,3.9705658E-1,1.3415012E0,2.827254E0,9.072903E0,0E0,1.0696335E0,0E0,1.7491156E0,0E0,0E0,0E0,0E0,0E0,0E0,0E0,0E0],"parents":[2147483647,0,0,1,1,2,2,4,4,5,5,6,6,7,7,8,8,10,10,12,12],"right_children":[2,4,6,-1,8,10,12,14,16,-1,18,-1,20,-1,-1,-1,-1,-1,-1,-1,-1],"split_conditions":[1.8478365E1,4.060788E0,3.607933E-1,7.938177E-2,6.4335114E-1,2.4190961E-1,3.7E1,5.984807E-1,1.1667476E1,-4.903635E-2,4.6E1,2.0887109E-2,4.42E1,6.078783E-3,-3.4427807E-2,1.1173127E-2,6.649535E-2,-4.0216055E-2,-1.5905961E-2,-4.127071E-2,1.8922826E-2],"split_indices":[2,2,3,0,3,3,1,3,2,0,1,0,1,0,0,0,0,0,0,0,0],"split_type":[0,0,0,0,0,0,0,0,0,0,0,0,0,0,0,0,0,0,0,0,0],"sum_hessian":[1.2626975E2,8.731442E1,3.8955326E1,2.8653703E0,8.444905E1,3.3475414E1,5.4799113E0,4.0871597E1,4.3577457E1,1.0255446E1,2.3219967E1,1.678574E0,3.8013372E0,3.701147E1,3.860126E0,3.4964455E1,8.613001E0,1.3748841E1,9.471127E0,2.7167952E0,1.0845418E0],"tree_param":{"num_deleted":"0","num_feature":"13","num_nodes":"21","size_leaf_vector":"1"}},{"base_weights":[6.194837E-3,-6.6110873E-1,3.1052166E-1,-4.5942298E-1,-4.720116E-2,7.429665E-2,2.5175157E-1,-6.1708766E-1,6.0854528E-2,-8.2480706E-2,3.9041167E-1,-1.4730888E-2,-4.4028584E-2,-1.6768442E-2,4.1552622E-2,-1.2853433E-2,2.5985558E-2,6.439083E-2,9.309728E-3],"categories":[],"categories_nodes":[],"categories_segments":[],"categories_sizes":[],"default_left":[0,0,0,0,0,0,0,0,0,0,0,0,0,0,0,0,0,0,0],"id":14,"left_children":[1,3,5,7,-1,-1,9,11,13,15,17,-1,-1,-1,-1,-1,-1,-1,-1],"loss_changes":[2.5947357E1,1.8499527E0,5.6867065E0,2.113996E0,0E0,0E0,3.9605227E0,1.3987732E0,2.353017E0,2.8334355E0,1.077146E1,0E0,0E0,0E0,0E0,0E0,0E0,0E0,0E0],"parents":[2147483647,0,0,1,1,2,2,3,3,6,6,7,7,8,8,9,9,10,10],"right_children":[2,4,6,8,-1,-1,10,12,14,16,18,-1,-1,-1,-1,-1,-1,-1,-1],"split_conditions":[3.5171434E-1,9.9998987E-1,4.060788E0,1.074E2,-4.720116E-2,7.429665E-2,1.08E2,9.8E1,1.733032E1,4.49E1,1.083E2,-1.4730888E-2,-4.4028584E-2,-1.6768442E-2,4.1552622E-2,-1.2853433E-2,2.5985558E-2,6.439083E-2,9.309728E-3],"split_indices":[3,7,2,0,0,0,0,0,2,1,0,0,0,0,0,0,0,0,0],"split_type":[0,0,0,0,0,0,0,0,0,0,0,0,0,0,0,0,0,0,0],"sum_hessian":[1.25759285E2,3.9022186E1,8.67371E1,2.4313398E1,1.4708787E1,2.9739413E0,8.376316E1,1.8516186E1,5.797212E0,2.4679583E1,5.9083572E1,9.278581E0,9.237605E0,4.2007375E0,1.5964746E0,1.9576933E1,5.102649E0,9.969188E0,4.9114388E1],"tree_param":{"num_deleted":"0","num_feature":"13","num_nodes":"19","size_leaf_vector":"1"}},{"base_weights":[6.2491316E-3,-6.4758974E-1,2.9502177E-1,-4.4627756E-1,-4.6781324E-2,1.8035468E-1,8.3236146E-1,-6.0372204E-1,6.1286654E-2,-7.821658E-2,3.1064877E-1,9.816265E-1,-1.786097E-2,-1.4230291E-2,-4.3517787E-2,2.7669568E-2,-2.643539E-2,-1.2359045E-2,2.4486156E-2,5.9410166E-2,2.003484E-3,-7.301967E-3,5.412372E-2],"categories":[],"categories_nodes":[],"categories_segments":[],"categories_sizes":[],"default_left":[0,0,0,0,0,0,0,0,0,0,0,0,0,0,0,0,0,0,0,0,0,0,0],"id":15,"left_children":[1,3,5,7,-1,9,11,13,15,17,19,21,-1,-1,-1,-1,-1,-1,-1,-1,-1,-1,-1],"loss_changes":[2.4020176E1,1.8425331E0,5.2861605E0,2.0231771E0,0E0,2.5170245E0,3.056738E0,1.3742218E0,2.2646253E0,2.576699E0,1.1682203E1,1.7283506E0,0E0,0E0,0E0,0E0,0E0,0E0,0E0,0E0,0E0,0E0,0E0],"parents":[2147483647,0,0,1,1,2,2,3,3,5,5,6,6,7,7,8,8,9,9,10,10,11,11],"right_children":[2,4,6,8,-1,10,12,14,16,18,20,22,-1,-1,-1,-1,-1,-1,-1,-1,-1,-1,-1],"split_conditions":[3.5171434E-1,9.9998987E-1,1.0249575E0,1.074E2,-4.6781324E-2,1.08E2,4.28E1,9.8E1,1.1E2,4.49E1,1.084E2,3.68E1,-1.786097E-2,-1.4230291E-2,-4.3517787E-2,2.7669568E-2,-2.643539E-2,-1.2359045E-2,2.4486156E-2,5.9410166E-2,2.003484E-3,-7.301967E-3,5.412372E-2],"split_indices":[3,7,3,0,0,0,1,0,0,1,0,1,0,0,0,0,0,0,0,0,0,0,0],"split_type":[0,0,0,0,0,0,0,0,0,0,0,0,0,0,0,0,0,0,0,0,0,0,0],"sum_hessian":[1.25206375E2,3.7976788E1,8.722959E1,2.3854193E1,1.4122595E1,7.298945E1,1.4240139E1,1.8061987E1,5.7922072E0,2.4589926E1,4.8399525E1,1.280786E1,1.4322788E0,9.16291E0,8.8990755E0,3.1919196E0,2.6002877E0,1.9386993E1,5.202932E0,1.06070175E1,3.7792507E1,1.0146031E0,1.1793258E1],"tree_param":{"num_deleted":"0","num_feature":"13","num_nodes":"23","size_leaf_vector":"1"}},{"base_weights":[5.654089E-3,2.7492982E-1,-6.469615E-1,6.677603E-2,2.2104228E-1,-7.2429913E-1,-1.629895E-1,4.6704686E-1,6.7024425E-2,-4.8009735E-2,-5.8693E-1,2.1067215E-2,-4.597072E-1,1.9830798E-3,5.0264783E-2,-7.322319E-4,5.772201E-2,-3.8834833E-2,-1.3163787E-2,-4.0392537E-2,1.6971178E-2],"categories":[],"categories_nodes":[],"categories_segments":[],"categories_sizes":[],"default_left":[0,0,0,0,0,0,0,0,0,0,0,0,0,0,0,0,0,0,0,0,0],"id":16,"left_children":[1,3,5,-1,7,9,11,13,15,-1,17,-1,19,-1,-1,-1,-1,-1,-1,-1,-1],"loss_changes":[2.2255116E1,4.8277154E0,1.2665796E0,0E0,3.2461052E0,4.6061707E-1,1.3011447E0,7.5829425E0,4.844796E0,0E0,1.1803074E0,0E0,1.585823E0,0E0,0E0,0E0,0E0,0E0,0E0,0E0,0E0],"parents":[2147483647,0,0,1,1,2,2,4,4,5,5,6,6,7,7,8,8,10,10,12,12],"right_children":[2,4,6,-1,8,10,12,14,16,-1,18,-1,20,-1,-1,-1,-1,-1,-1,-1,-1],"split_conditions":[1.8478365E1,4.060788E0,3.607933E-1,6.677603E-2,1.088E2,2.4190961E-1,3.7E1,1.08E2,4.9999988E-1,-4.8009735E-2,4.6E1,2.1067215E-2,4.42E1,1.9830798E-3,5.0264783E-2,-7.322319E-4,5.772201E-2,-3.8834833E-2,-1.3163787E-2,-4.0392537E-2,1.6971178E-2],"split_indices":[2,2,3,0,0,3,1,0,12,0,1,0,1,0,0,0,0,0,0,0,0],"split_type":[0,0,0,0,0,0,0,0,0,0,0,0,0,0,0,0,0,0,0,0,0],"sum_hessian":[1.24629105E2,8.863581E1,3.5993294E1,3.1357567E0,8.550005E1,3.0605959E1,5.387334E0,3.2136963E1,5.336309E1,9.059227E0,2.1546734E1,1.672877E0,3.7144568E0,1.8511765E1,1.3625196E1,5.055291E1,2.810183E0,1.2700397E1,8.846336E0,2.579694E0,1.1347626E0],"tree_param":{"num_deleted":"0","num_feature":"13","num_nodes":"21","size_leaf_vector":"1"}},{"base_weights":[5.7326476E-3,-6.2302697E-1,2.6827663E-1,-4.218816E-1,-4.6041634E-2,7.0582116E-1,1.4780545E-1,-5.7711965E-1,5.4183625E-2,1.2367692E0,3.3797675E-1,2.2049966E-1,-6.559044E-1,-1.2636791E-2,-4.2720843E-2,2.576161E-2,-2.5863348E-2,-7.398861E-3,7.406836E-2,3.289905E-3,5.106277E-2,1.4103391E-3,2.6513461E-2,-4.5438893E-2,6.1740885E-3],"categories":[],"categories_nodes":[],"categories_segments":[],"categories_sizes":[],"default_left":[0,0,0,0,0,0,0,0,0,0,0,0,0,0,0,0,0,0,0,0,0,0,0,0,0],"id":17,"left_children":[1,3,5,7,-1,9,11,13,15,17,19,21,23,-1,-1,-1,-1,-1,-1,-1,-1,-1,-1,-1,-1],"loss_changes":[2.0819656E1,1.8370724E0,4.584637E0,1.8064957E0,0E0,3.2810717E0,4.293703E0,1.4211574E0,2.0635989E0,2.7172956E0,2.269465E0,3.9088848E0,1.3227267E0,0E0,0E0,0E0,0E0,0E0,0E0,0E0,0E0,0E0,0E0,0E0,0E0],"parents":[2147483647,0,0,1,1,2,2,3,3,5,5,6,6,7,7,8,8,9,9,10,10,11,11,12,12],"right_children":[2,4,6,8,-1,10,12,14,16,18,20,22,24,-1,-1,-1,-1,-1,-1,-1,-1,-1,-1,-1,-1],"split_conditions":[3.5171434E-1,9.9998987E-1,9.998603E-1,1.074E2,-4.6041634E-2,3.93E1,8.553784E-1,9.8E1,1.1E2,3.68E1,2.4999994E-1,6.435011E-1,4.24E1,-1.2636791E-2,-4.2720843E-2,2.576161E-2,-2.5863348E-2,-7.398861E-3,7.406836E-2,3.289905E-3,5.106277E-2,1.4103391E-3,2.6513461E-2,-4.5438893E-2,6.1740885E-3],"split_indices":[3,7,7,0,0,1,3,0,0,1,12,3,1,0,0,0,0,0,0,0,0,0,0,0,0],"split_type":[0,0,0,0,0,0,0,0,0,0,0,0,0,0,0,0,0,0,0,0,0,0,0,0,0],"sum_hessian":[1.2410833E2,3.6153126E1,8.79552E1,2.3020884E1,1.3132242E1,1.7939846E1,7.001536E1,1.7199955E1,5.8209295E0,6.3753843E0,1.1564462E1,6.487332E1,5.1420355E0,8.807877E0,8.392078E0,3.2761207E0,2.5448089E0,1.0163759E0,5.3590083E0,9.054121E0,2.5103405E0,4.069963E1,2.417369E1,3.757039E0,1.3849964E0],"tree_param":{"num_deleted":"0","num_feature":"13","num_nodes":"25","size_leaf_vector":"1"}},{"base_weights":[5.2456413E-3,-6.1008805E-1,2.5454503E-1,-4.1009843E-1,-4.5622863E-2,6.68378E-1,1.396558E-1,-5.640555E-1,5.1172674E-2,1.1585165E0,3.2337892E-1,2.0865132E-1,-6.425036E-1,-3.9509613E-2,-8.570059E-3,-1.608637E-2,3.6809005E-2,-7.228039E-3,6.9148265E-2,3.1372942E-3,4.83897E-2,1.3401093E-3,2.4905179E-2,-4.4855323E-2,5.980919E-3],"categories":[],"categories_nodes":[],"categories_segments":[],"categories_sizes":[],"default_left":[0,0,0,0,0,0,0,0,0,0,0,0,0,0,0,0,0,0,0,0,0,0,0,0,0],"id":18,"left_children":[1,3,5,7,-1,9,11,13,15,17,19,21,23,-1,-1,-1,-1,-1,-1,-1,-1,-1,-1,-1,-1],"loss_changes":[1.9281946E1,1.8175154E0,4.1590176E0,1.7070909E0,0E0,2.8670492E0,3.9800832E0,1.44519E0,1.9816294E0,2.4029016E0,2.0619555E0,3.4736164E0,1.275851E0,0E0,0E0,0E0,0E0,0E0,0E0,0E0,0E0,0E0,0E0,0E0,0E0],"parents":[2147483647,0,0,1,1,2,2,3,3,5,5,6,6,7,7,8,8,9,9,10,10,11,11,12,12],"right_children":[2,4,6,8,-1,10,12,14,16,18,20,22,24,-1,-1,-1,-1,-1,-1,-1,-1,-1,-1,-1,-1],"split_conditions":[3.5171434E-1,9.9998987E-1,9.998603E-1,1.074E2,-4.5622863E-2,3.93E1,8.553784E-1,4.6E1,1.733032E1,3.68E1,2.4999994E-1,6.435011E-1,4.24E1,-3.9509613E-2,-8.570059E-3,-1.608637E-2,3.6809005E-2,-7.228039E-3,6.9148265E-2,3.1372942E-3,4.83897E-2,1.3401093E-3,2.4905179E-2,-4.4855323E-2,5.980919E-3],"split_indices":[3,7,7,0,0,1,3,1,2,1,12,3,1,0,0,0,0,0,0,0,0,0,0,0,0],"split_type":[0,0,0,0,0,0,0,0,0,0,0,0,0,0,0,0,0,0,0,0,0,0,0,0,0],"sum_hessian":[1.23682945E2,3.5244194E1,8.843875E1,2.2631685E1,1.2612508E1,1.8170547E1,7.02682E1,1.6801178E1,5.8305078E0,6.532223E0,1.1638324E1,6.524599E1,5.022215E0,1.0018757E1,6.7824206E0,4.1187162E0,1.7117913E0,1.0121183E0,5.520105E0,9.068107E0,2.5702176E0,4.0742195E1,2.4503794E1,3.631815E0,1.3903999E0],"tree_param":{"num_deleted":"0","num_feature":"13","num_nodes":"25","size_leaf_vector":"1"}},{"base_weights":[4.962891E-3,2.3818141E-1,-6.1001754E-1,5.867684E-2,1.8945819E-1,-4.2232168E-1,-4.2327162E-2,4.237096E-1,4.3196604E-2,-5.208687E-1,2.3695728E-2,1.7193521E-3,4.5300495E-2,-1.1142305E-2,1.6778354E-2,-1.5419135E-2,-4.071435E-2],"categories":[],"categories_nodes":[],"categories_segments":[],"categories_sizes":[],"default_left":[0,0,0,0,0,0,0,0,0,0,0,0,0,0,0,0,0],"id":19,"left_children":[1,3,5,-1,7,9,-1,11,13,15,-1,-1,-1,-1,-1,-1,-1],"loss_changes":[1.796341E1,3.9154458E0,1.1714296E0,0E0,2.9793024E0,2.1190326E0,0E0,6.262187E0,4.350867E0,9.692688E-1,0E0,0E0,0E0,0E0,0E0,0E0,0E0],"parents":[2147483647,0,0,1,1,2,2,4,4,5,5,7,7,8,8,9,9],"right_children":[2,4,6,-1,8,10,-1,12,14,16,-1,-1,-1,-1,-1,-1,-1],"split_conditions":[1.8478365E1,4.060788E0,9.999887E-1,5.867684E-2,1.088E2,9.9998826E-1,-4.2327162E-2,1.08E2,7.799513E-1,1.007E2,2.3695728E-2,1.7193521E-3,4.5300495E-2,-1.1142305E-2,1.6778354E-2,-1.5419135E-2,-4.071435E-2],"split_indices":[2,2,7,0,0,7,0,0,3,0,0,0,0,0,0,0,0],"split_type":[0,0,0,0,0,0,0,0,0,0,0,0,0,0,0,0,0],"sum_hessian":[1.2323314E2,8.979352E1,3.343962E1,3.3028014E0,8.6490715E1,2.019741E1,1.324221E1,3.2516155E1,5.3974556E1,1.8573914E1,1.6234963E0,1.8585146E1,1.3931009E1,2.8384163E1,2.5590395E1,1.1962198E1,6.611716E0],"tree_param":{"num_deleted":"0","num_feature":"13","num_nodes":"17","size_leaf_vector":"1"}},{"base_weights":[4.819731E-3,-5.8557785E-1,2.3173976E-1,-3.8702497E-1,-4.4860225E-2,5.558467E-2,1.8475157E-1,-6.16349E-1,-7.400867E-2,1.5450142E-1,6.9231994E-2,1.9062879E-2,-3.6901213E-2,-2.0104239E-2,4.3770634E-2,9.886897E-3,-4.1737445E-2],"categories":[],"categories_nodes":[],"categories_segments":[],"categories_sizes":[],"default_left":[0,0,0,0,0,0,0,0,0,0,0,0,0,0,0,0,0],"id":20,"left_children":[1,3,5,7,-1,-1,9,11,13,15,-1,-1,-1,-1,-1,-1,-1],"loss_changes":[1.670651E1,1.7951078E0,3.518506E0,1.5987465E0,0E0,0E0,2.9329066E0,1.8696733E0,3.7230933E0,3.8302124E0,0E0,0E0,0E0,0E0,0E0,0E0,0E0],"parents":[2147483647,0,0,1,1,2,2,3,3,6,6,7,7,8,8,9,9],"right_children":[2,4,6,8,-1,-1,10,12,14,16,-1,-1,-1,-1,-1,-1,-1],"split_conditions":[3.5171434E-1,9.9998987E-1,4.060788E0,4.6E1,-4.4860225E-2,5.558467E-2,5.07E1,1.603278E1,9.9998826E-1,4.81E1,6.9231994E-2,1.9062879E-2,-3.6901213E-2,-2.0104239E-2,4.3770634E-2,9.886897E-3,-4.1737445E-2],"split_indices":[3,7,2,1,0,0,1,2,7,1,0,0,0,0,0,0,0],"split_type":[0,0,0,0,0,0,0,0,0,0,0,0,0,0,0,0,0],"sum_hessian":[1.22687645E2,3.3624172E1,8.906348E1,2.1907663E1,1.1716509E1,3.3661509E0,8.569733E1,1.208489E1,9.822772E0,8.469096E1,1.006364E0,1.0818098E0,1.1003081E1,7.728615E0,2.094157E0,8.191104E1,2.7799187E0],"tree_param":{"num_deleted":"0","num_feature":"13","num_nodes":"17","size_leaf_vector":"1"}},{"base_weights":[4.807022E-3,2.1757819E-1,-5.85985E-1,5.838988E-1,1.154907E-1,-4.004507E-1,-4.141071E-2,1.0254434E0,2.7175504E-1,3.9113626E-1,-1.21643014E-1,-4.9913862E-1,2.2739267E-2,6.8528846E-2,7.5205527E-3,-1.7147675E-2,2.5367513E-2,1.2526212E-3,4.206961E-2,-1.2945007E-2,1.2718262E-2,-1.4261899E-2,-3.998859E-2],"categories":[],"categories_nodes":[],"categories_segments":[],"categories_sizes":[],"default_left":[0,0,0,0,0,0,0,0,0,0,0,0,0,0,0,0,0,0,0,0,0,0,0],"id":21,"left_children":[1,3,5,7,9,11,-1,13,15,17,19,21,-1,-1,-1,-1,-1,-1,-1,-1,-1,-1,-1],"loss_changes":[1.563448E1,3.3516216E0,1.1485014E0,2.43366E0,4.8026824E0,1.9645085E0,0E0,2.1463861E0,2.040712E0,5.5632405E0,2.1234422E0,9.89388E-1,0E0,0E0,0E0,0E0,0E0,0E0,0E0,0E0,0E0,0E0,0E0],"parents":[2147483647,0,0,1,1,2,2,3,3,4,4,5,5,7,7,8,8,9,9,10,10,11,11],"right_children":[2,4,6,8,10,12,-1,14,16,18,20,22,-1,-1,-1,-1,-1,-1,-1,-1,-1,-1,-1],"split_conditions":[1.8478365E1,9.998603E-1,9.999887E-1,3.93E1,1.088E2,9.9998826E-1,-4.141071E-2,1.164E2,4.01E1,1.08E2,1.135E2,1.007E2,2.2739267E-2,6.8528846E-2,7.5205527E-3,-1.7147675E-2,2.5367513E-2,1.2526212E-3,4.206961E-2,-1.2945007E-2,1.2718262E-2,-1.4261899E-2,-3.998859E-2],"split_indices":[2,7,7,1,0,7,0,0,1,0,0,0,0,0,0,0,0,0,0,0,0,0,0],"split_type":[0,0,0,0,0,0,0,0,0,0,0,0,0,0,0,0,0,0,0,0,0,0,0],"sum_hessian":[1.2236158E2,9.042657E1,3.1935015E1,1.8679459E1,7.174711E1,1.9586227E1,1.2348788E1,6.7897773E0,1.1889681E1,3.2878975E1,3.8868137E1,1.7933237E1,1.6529895E0,4.463107E0,2.3266702E0,3.168037E0,8.721643E0,1.8716791E1,1.4162182E1,2.8702204E1,1.0165932E1,1.1616723E1,6.316514E0],"tree_param":{"num_deleted":"0","num_feature":"13","num_nodes":"23","size_leaf_vector":"1"}},{"base_weights":[4.8172567E-3,-5.612179E-1,2.1179159E-1,-4.717376E-2,-3.9027795E-1,1.0377827E0,1.6732645E-1,-5.214537E-1,3.8376718E-3,6.009015E-2,1.9115722E-2,1.3806763E-1,6.554116E-2,-1.4202182E-2,-4.5180276E-2,4.532325E-2,-1.4577605E-2,8.9337155E-3,-4.1079532E-2],"categories":[],"categories_nodes":[],"categories_segments":[],"categories_sizes":[],"default_left":[0,0,0,0,0,0,0,0,0,0,0,0,0,0,0,0,0,0,0],"id":22,"left_children":[1,3,5,-1,7,9,11,13,15,-1,-1,17,-1,-1,-1,-1,-1,-1,-1],"loss_changes":[1.4503729E1,1.7978964E0,3.1551886E0,0E0,1.2743995E0,1.7625332E-2,2.7364197E0,1.4193449E0,2.1676745E0,0E0,0E0,3.5035427E0,0E0,0E0,0E0,0E0,0E0,0E0,0E0],"parents":[2147483647,0,0,1,1,2,2,4,4,5,5,6,6,7,7,8,8,11,11],"right_children":[2,4,6,-1,8,10,12,14,16,-1,-1,18,-1,-1,-1,-1,-1,-1,-1],"split_conditions":[3.5171434E-1,2.4190961E-1,4.060788E0,-4.717376E-2,1.074E2,1.179E2,5.07E1,1.004E2,1.081E2,6.009015E-2,1.9115722E-2,4.81E1,6.554116E-2,-1.4202182E-2,-4.5180276E-2,4.532325E-2,-1.4577605E-2,8.9337155E-3,-4.1079532E-2],"split_indices":[3,3,2,0,0,0,1,0,0,0,0,1,0,0,0,0,0,0,0],"split_type":[0,0,0,0,0,0,0,0,0,0,0,0,0,0,0,0,0,0,0],"sum_hessian":[1.2178519E2,3.2149883E1,8.963531E1,8.537939E0,2.3611944E1,3.4376562E0,8.619765E1,1.7473156E1,6.1387877E0,2.0829332E0,1.3547229E0,8.513991E1,1.0577447E0,1.1852881E1,5.620274E0,1.0035415E0,5.1352463E0,8.246435E1,2.6755552E0],"tree_param":{"num_deleted":"0","num_feature":"13","num_nodes":"19","size_leaf_vector":"1"}},{"base_weights":[4.710251E-3,1.9915196E-1,-5.620694E-1,9.9468076E-1,1.5663707E-1,-3.8007617E-1,-4.0443134E-2,5.7451256E-2,1.8505003E-2,3.8100597E-1,3.2963395E-2,-6.102839E-1,3.051281E-2,7.593261E-4,4.6617426E-2,-1.843409E-3,4.9169857E-2,-1.3203721E-2,-4.596811E-2,2.3914661E-2,-2.7946332E-2],"categories":[],"categories_nodes":[],"categories_segments":[],"categories_sizes":[],"default_left":[0,0,0,0,0,0,0,0,0,0,0,0,0,0,0,0,0,0,0,0,0],"id":23,"left_children":[1,3,5,7,9,11,-1,-1,-1,13,15,17,19,-1,-1,-1,-1,-1,-1,-1,-1],"loss_changes":[1.3610172E1,2.9535887E0,1.1095266E0,6.333828E-3,2.442006E0,1.913203E0,0E0,0E0,0E0,6.306426E0,3.8936749E0,1.1366129E0,2.4192994E0,0E0,0E0,0E0,0E0,0E0,0E0,0E0,0E0],"parents":[2147483647,0,0,1,1,2,2,3,3,4,4,5,5,9,9,10,10,11,11,12,12],"right_children":[2,4,6,8,10,12,-1,-1,-1,14,16,18,20,-1,-1,-1,-1,-1,-1,-1,-1],"split_conditions":[1.8478365E1,4.060788E0,9.999887E-1,1.179E2,1.084E2,4.48E1,-4.0443134E-2,5.7451256E-2,1.8505003E-2,1.08E2,4.9999988E-1,3.7E1,1.002E2,7.593261E-4,4.6617426E-2,-1.843409E-3,4.9169857E-2,-1.3203721E-2,-4.596811E-2,2.3914661E-2,-2.7946332E-2],"split_indices":[2,2,7,0,0,1,0,0,0,0,12,1,0,0,0,0,0,0,0,0,0],"split_type":[0,0,0,0,0,0,0,0,0,0,0,0,0,0,0,0,0,0,0,0,0],"sum_hessian":[1.2148228E2,9.093453E1,3.054774E1,3.4770327E0,8.7457504E1,1.9044083E1,1.1503658E1,2.1147647E0,1.3622682E0,3.0337837E1,5.7119663E1,1.1890816E1,7.153268E0,1.8854979E1,1.148286E1,5.4105553E1,3.0141087E0,6.483175E0,5.4076405E0,4.172273E0,2.9809947E0],"tree_param":{"num_deleted":"0","num_feature":"13","num_nodes":"21","size_leaf_vector":"1"}},{"base_weights":[4.873899E-3,-6.303079E-1,1.6838282E-1,-4.662283E-2,-4.3722108E-1,-1.2906924E-1,2.966075E-1,-6.562484E-1,-1.4599688E-1,-2.826739E-1,3.8733283E-1,9.0466094E-1,1.638392E-1,-8.918264E-3,-3.9632134E-2,3.0391783E-2,-2.313958E-2,-6.8536075E-3,-4.4270977E-2,6.073899E-2,-1.39750345E-2,-5.8683017E-3,5.046611E-2,2.6210396E-2,-1.3857686E-3],"categories":[],"categories_nodes":[],"categories_segments":[],"categories_sizes":[],"default_left":[0,0,0,0,0,0,0,0,0,0,0,0,0,0,0,0,0,0,0,0,0,0,0,0,0],"id":24,"left_children":[1,3,5,-1,7,9,11,13,15,17,19,21,23,-1,-1,-1,-1,-1,-1,-1,-1,-1,-1,-1,-1],"loss_changes":[1.2772581E1,1.0612478E0,3.7677147E0,0E0,1.0041506E0,2.5011108E0,5.392297E0,4.8149347E-1,2.356181E0,1.9688027E0,4.3863416E0,1.4104624E0,3.9873228E0,0E0,0E0,0E0,0E0,0E0,0E0,0E0,0E0,0E0,0E0,0E0,0E0],"parents":[2147483647,0,0,1,1,2,2,4,4,5,5,6,6,7,7,8,8,9,9,10,10,11,11,12,12],"right_children":[2,4,6,-1,8,10,12,14,16,18,20,22,24,-1,-1,-1,-1,-1,-1,-1,-1,-1,-1,-1,-1],"split_conditions":[3.19569E-1,2.4190961E-1,1.08E2,-4.662283E-2,9.999881E-1,4.52E1,1.083E2,3.14E1,9.999887E-1,1.07E2,4.71E1,3.49E1,9.998603E-1,-8.918264E-3,-3.9632134E-2,3.0391783E-2,-2.313958E-2,-6.8536075E-3,-4.4270977E-2,6.073899E-2,-1.39750345E-2,-5.8683017E-3,5.046611E-2,2.6210396E-2,-1.3857686E-3],"split_indices":[3,3,0,0,7,1,0,1,7,0,1,1,7,0,0,0,0,0,0,0,0,0,0,0,0],"split_type":[0,0,0,0,0,0,0,0,0,0,0,0,0,0,0,0,0,0,0,0,0,0,0,0,0],"sum_hessian":[1.2095942E2,2.4178501E1,9.678092E1,7.9339633E0,1.6244537E1,2.9150892E1,6.763003E1,8.55613E0,7.688408E0,2.281665E1,6.334242E0,1.1078548E1,5.655148E1,2.4122114E0,6.143919E0,2.0031302E0,5.6852775E0,1.9365946E1,3.4507053E0,2.4600058E0,3.874236E0,1.0178405E0,1.0060707E1,1.902446E1,3.752702E1],"tree_param":{"num_deleted":"0","num_feature":"13","num_nodes":"25","size_leaf_vector":"1"}},{"base_weights":[4.2601763E-3,1.8369775E-1,-5.400211E-1,9.2947406E-1,1.4343327E-1,-4.507466E-2,-4.0758756E-1,5.3908307E-2,1.7085167E-2,1.9335161E-1,-3.40285E-1,-5.9524655E-1,-9.849217E-2,3.0519364E-2,5.4057264E-3,-2.276852E-2,1.2667653E-2,-1.4978367E-2,-4.588592E-2,1.4974645E-2,-3.1733673E-2],"categories":[],"categories_nodes":[],"categories_segments":[],"categories_sizes":[],"default_left":[0,0,0,0,0,0,0,0,0,0,0,0,0,0,0,0,0,0,0,0,0],"id":25,"left_children":[1,3,5,7,9,-1,11,-1,-1,13,15,17,19,-1,-1,-1,-1,-1,-1,-1,-1],"loss_changes":[1.1956847E1,2.6309526E0,1.0857601E0,2.7758121E-2,2.2032962E0,0E0,1.335923E0,0E0,0E0,2.8090227E0,7.0585465E-1,1.1325579E0,2.3838913E0,0E0,0E0,0E0,0E0,0E0,0E0,0E0,0E0],"parents":[2147483647,0,0,1,1,2,2,3,3,4,4,6,6,9,9,10,10,11,11,12,12],"right_children":[2,4,6,8,10,-1,12,-1,-1,14,16,18,20,-1,-1,-1,-1,-1,-1,-1,-1],"split_conditions":[1.8478365E1,4.060788E0,2.4190961E-1,1.179E2,1.157E2,-4.507466E-2,4.48E1,5.3908307E-2,1.7085167E-2,7.510659E0,2.4999994E-1,3.7E1,1.002E2,3.0519364E-2,5.4057264E-3,-2.276852E-2,1.2667653E-2,-1.4978367E-2,-4.588592E-2,1.4974645E-2,-3.1733673E-2],"split_indices":[2,2,3,0,0,0,1,0,0,2,12,1,0,0,0,0,0,0,0,0,0],"split_type":[0,0,0,0,0,0,0,0,0,0,0,0,0,0,0,0,0,0,0,0,0],"sum_hessian":[1.2041203E2,9.105553E1,2.9356506E1,3.533014E0,8.752251E1,6.314421E0,2.3042086E1,2.1538184E0,1.3791958E0,7.9879456E1,7.6430516E0,1.376143E1,9.280655E0,1.2510221E1,6.736924E1,6.597036E0,1.0460156E0,8.185237E0,5.5761933E0,5.580165E0,3.7004902E0],"tree_param":{"num_deleted":"0","num_feature":"13","num_nodes":"21","size_leaf_vector":"1"}},{"base_weights":[3.691075E-3,-6.1028147E-1,1.5523069E-1,-4.604257E-2,-4.2008865E-1,-1.1886632E-1,2.7144974E-1,-6.408449E-1,-1.320853E-1,-2.6834765E-1,3.7113062E-1,8.5377467E-1,1.4480546E-1,-8.410024E-3,-3.8966227E-2,2.9388854E-2,-2.2333821E-2,-6.184588E-3,-4.3768503E-2,5.6365956E-2,-1.3420529E-2,-5.857521E-3,4.765725E-2,2.3499558E-2,-1.520234E-3],"categories":[],"categories_nodes":[],"categories_segments":[],"categories_sizes":[],"default_left":[0,0,0,0,0,0,0,0,0,0,0,0,0,0,0,0,0,0,0,0,0,0,0,0,0],"id":26,"left_children":[1,3,5,-1,7,9,11,13,15,17,19,21,23,-1,-1,-1,-1,-1,-1,-1,-1,-1,-1,-1,-1],"loss_changes":[1.136618E1,1.0416899E0,3.1528218E0,0E0,9.85883E-1,2.2869751E0,4.9721103E0,4.7579408E-1,2.2023706E0,1.952023E0,3.8815393E0,1.2828064E0,3.316494E0,0E0,0E0,0E0,0E0,0E0,0E0,0E0,0E0,0E0,0E0,0E0,0E0],"parents":[2147483647,0,0,1,1,2,2,4,4,5,5,6,6,7,7,8,8,9,9,10,10,11,11,12,12],"right_children":[2,4,6,-1,8,10,12,14,16,18,20,22,24,-1,-1,-1,-1,-1,-1,-1,-1,-1,-1,-1,-1],"split_conditions":[3.19569E-1,2.4190961E-1,1.08E2,-4.604257E-2,9.999881E-1,4.52E1,1.083E2,3.14E1,9.999887E-1,1.07E2,4.71E1,3.49E1,9.998603E-1,-8.410024E-3,-3.8966227E-2,2.9388854E-2,-2.2333821E-2,-6.184588E-3,-4.3768503E-2,5.6365956E-2,-1.3420529E-2,-5.857521E-3,4.765725E-2,2.3499558E-2,-1.520234E-3],"split_indices":[3,3,0,0,7,1,0,1,7,0,1,1,7,0,0,0,0,0,0,0,0,0,0,0,0],"split_type":[0,0,0,0,0,0,0,0,0,0,0,0,0,0,0,0,0,0,0,0,0,0,0,0,0],"sum_hessian":[1.2014474E2,2.3184404E1,9.6960335E1,7.346493E0,1.5837912E1,2.8863766E1,6.8096565E1,8.27214E0,7.5657725E0,2.2463322E1,6.400443E0,1.113858E1,5.6957985E1,2.3762822E0,5.895857E0,2.0367653E0,5.5290074E0,1.9112503E1,3.3508182E0,2.5832863E0,3.817157E0,1.0175364E0,1.0121043E1,1.9354351E1,3.7603638E1],"tree_param":{"num_deleted":"0","num_feature":"13","num_nodes":"25","size_leaf_vector":"1"}},{"base_weights":[3.0950604E-3,-5.979254E-1,1.4790675E-1,-4.5716044E-2,-4.0827063E-1,-1.1386468E-1,2.581415E-1,-6.2856585E-1,-1.2570389E-1,-2.5941244E-1,3.545572E-1,8.118869E-1,1.3761E-1,-8.156196E-3,-3.840285E-2,1.2534338E-2,-3.7564978E-2,-5.9185578E-3,-4.3205872E-2,5.267143E-2,-1.2999329E-2,-5.7210033E-3,4.531259E-2,-1.1621905E-2,1.36693185E-2],"categories":[],"categories_nodes":[],"categories_segments":[],"categories_sizes":[],"default_left":[0,0,0,0,0,0,0,0,0,0,0,0,0,0,0,0,0,0,0,0,0,0,0,0,0],"id":27,"left_children":[1,3,5,-1,7,9,11,13,15,17,19,21,23,-1,-1,-1,-1,-1,-1,-1,-1,-1,-1,-1,-1],"loss_changes":[1.0585575E1,1.0437975E0,2.8571012E0,0E0,9.525614E-1,2.1190107E0,4.5110235E0,4.6306944E-1,2.192148E0,1.8815991E0,3.4824452E0,1.1680765E0,2.9819202E0,0E0,0E0,0E0,0E0,0E0,0E0,0E0,0E0,0E0,0E0,0E0,0E0],"parents":[2147483647,0,0,1,1,2,2,4,4,5,5,6,6,7,7,8,8,9,9,10,10,11,11,12,12],"right_children":[2,4,6,-1,8,10,12,14,16,18,20,22,24,-1,-1,-1,-1,-1,-1,-1,-1,-1,-1,-1,-1],"split_conditions":[3.19569E-1,2.4190961E-1,1.08E2,-4.5716044E-2,9.999881E-1,4.52E1,1.083E2,3.14E1,2.8188828E1,1.07E2,4.71E1,3.49E1,1.111E2,-8.156196E-3,-3.840285E-2,1.2534338E-2,-3.7564978E-2,-5.9185578E-3,-4.3205872E-2,5.267143E-2,-1.2999329E-2,-5.7210033E-3,4.531259E-2,-1.1621905E-2,1.36693185E-2],"split_indices":[3,3,0,0,7,1,0,1,2,0,1,1,0,0,0,0,0,0,0,0,0,0,0,0,0],"split_type":[0,0,0,0,0,0,0,0,0,0,0,0,0,0,0,0,0,0,0,0,0,0,0,0,0],"sum_hessian":[1.1960852E2,2.2615808E1,9.6992714E1,7.043827E0,1.5571982E1,2.8731613E1,6.82611E1,8.062104E0,7.5098786E0,2.2260916E1,6.470698E0,1.1176798E1,5.7084305E1,2.3592823E0,5.7028217E0,5.0629997E0,2.4468787E0,1.902036E1,3.2405548E0,2.6934688E0,3.7772293E0,1.0136873E0,1.0163111E1,1.5131804E1,4.19525E1],"tree_param":{"num_deleted":"0","num_feature":"13","num_nodes":"25","size_leaf_vector":"1"}},{"base_weights":[2.0646383E-3,1.6178818E-1,-5.097466E-1,1.2788844E-1,4.74587E-2,-3.3679822E-1,-7.7573484E-1,3.2836992E-1,2.0212594E-2,-5.2156425E-1,6.514476E-1,-1.5821868E-1,-4.649588E-2,1.6888626E-3,3.7815105E-2,-2.1565163E-3,4.374186E-2,-1.3869469E-2,-4.404272E-2,4.7872912E-2,-2.4239696E-3,-2.7368719E-2,1.2557596E-2],"categories":[],"categories_nodes":[],"categories_segments":[],"categories_sizes":[],"default_left":[0,0,0,0,0,0,0,0,0,0,0,0,0,0,0,0,0,0,0,0,0,0,0],"id":28,"left_children":[1,3,5,7,-1,9,11,13,15,17,19,21,-1,-1,-1,-1,-1,-1,-1,-1,-1,-1,-1],"loss_changes":[9.906795E0,2.3437054E0,1.0647478E0,1.9296407E0,0E0,3.8519304E0,8.611698E-1,3.9172833E0,3.254422E0,1.2260437E0,7.9057884E-1,6.665258E-1,0E0,0E0,0E0,0E0,0E0,0E0,0E0,0E0,0E0,0E0,0E0],"parents":[2147483647,0,0,1,1,2,2,3,3,5,5,6,6,7,7,8,8,9,9,10,10,11,11],"right_children":[2,4,6,8,-1,10,12,14,16,18,20,22,-1,-1,-1,-1,-1,-1,-1,-1,-1,-1,-1],"split_conditions":[1.8478365E1,1.6207547E0,1.007E2,1.084E2,4.74587E-2,9.99E1,1.9277449E1,1.08E2,4.9999988E-1,2.8188828E1,1.004E2,1.886054E1,-4.649588E-2,1.6888626E-3,3.7815105E-2,-2.1565163E-3,4.374186E-2,-1.3869469E-2,-4.404272E-2,4.7872912E-2,-2.4239696E-3,-2.7368719E-2,1.2557596E-2],"split_indices":[2,3,0,0,0,0,2,0,12,2,0,2,0,0,0,0,0,0,0,0,0,0,0],"split_type":[0,0,0,0,0,0,0,0,0,0,0,0,0,0,0,0,0,0,0,0,0,0,0],"sum_hessian":[1.191777E2,9.1352684E1,2.7825006E1,8.869642E1,2.656272E0,1.8234776E1,9.590232E0,3.027599E1,5.8420425E1,1.5760388E1,2.4743872E0,2.3209174E0,7.2693143E0,1.8570683E1,1.1705307E1,5.5273228E1,3.1471987E0,1.0438438E1,5.3219504E0,1.4656565E0,1.0087306E0,1.017013E0,1.3039044E0],"tree_param":{"num_deleted":"0","num_feature":"13","num_nodes":"23","size_leaf_vector":"1"}},{"base_weights":[2.283766E-3,-6.153E-1,1.2697862E-1,-4.5151543E-2,-4.1234645E-1,1.9125675E-1,-3.160932E-1,-7.5011146E-1,-1.01358555E-1,1.439644E-1,8.832752E-1,-3.0379541E-2,-7.059336E-1,-1.4393806E-2,-4.246009E-2,1.2897541E-2,-3.6599807E-2,8.996666E-3,-3.0893836E-2,6.868255E-2,1.8600846E-2,-2.1456938E-2,3.5990857E-2,-4.1711375E-2,-4.646757E-3],"categories":[],"categories_nodes":[],"categories_segments":[],"categories_sizes":[],"default_left":[0,0,0,0,0,0,0,0,0,0,0,0,0,0,0,0,0,0,0,0,0,0,0,0,0],"id":29,"left_children":[1,3,5,-1,7,9,11,13,15,17,19,21,23,-1,-1,-1,-1,-1,-1,-1,-1,-1,-1,-1,-1],"loss_changes":[9.294236E0,8.1162643E-1,2.9198222E0,0E0,1.3661218E0,2.762739E0,1.4373335E0,4.9826384E-2,2.0705223E0,2.4088554E0,8.563018E-1,2.882418E0,3.545549E-1,0E0,0E0,0E0,0E0,0E0,0E0,0E0,0E0,0E0,0E0,0E0,0E0],"parents":[2147483647,0,0,1,1,2,2,4,4,5,5,6,6,7,7,8,8,9,9,10,10,11,11,12,12],"right_children":[2,4,6,-1,8,10,12,14,16,18,20,22,24,-1,-1,-1,-1,-1,-1,-1,-1,-1,-1,-1,-1],"split_conditions":[3.0490944E-1,2.4190961E-1,1.8280045E1,-4.5151543E-2,9.999881E-1,1.7298555E1,1.007E2,3.14E1,2.8188828E1,1.6648123E1,3.8272515E-1,4.48E1,4.0308905E-1,-1.4393806E-2,-4.246009E-2,1.2897541E-2,-3.6599807E-2,8.996666E-3,-3.0893836E-2,6.868255E-2,1.8600846E-2,-2.1456938E-2,3.5990857E-2,-4.1711375E-2,-4.646757E-3],"split_indices":[3,3,2,0,7,2,0,1,2,2,3,1,3,0,0,0,0,0,0,0,0,0,0,0,0],"split_type":[0,0,0,0,0,0,0,0,0,0,0,0,0,0,0,0,0,0,0,0,0,0,0,0,0],"sum_hessian":[1.18674904E2,1.927517E1,9.9399734E1,6.545728E0,1.2729441E1,8.7302734E1,1.2097001E1,5.4251447E0,7.304296E0,8.28489E1,4.4538345E0,7.602825E0,4.494176E0,1.6470755E0,3.778069E0,5.029613E0,2.2746828E0,7.984307E1,3.0058267E0,1.4123594E0,3.0414753E0,5.243606E0,2.359219E0,3.417941E0,1.0762346E0],"tree_param":{"num_deleted":"0","num_feature":"13","num_nodes":"25","size_leaf_vector":"1"}},{"base_weights":[1.224606E-3,-6.044624E-1,1.20520435E-1,-4.4820555E-2,-4.030909E-1,1.8148513E-1,-3.0654332E-1,-7.4000967E-1,-9.957077E-2,1.3594754E-1,8.3795655E-1,-2.7513148E-2,-6.9526005E-1,-1.405784E-2,-4.201151E-2,2.8771345E-2,-2.0740597E-2,4.1109208E-2,4.749608E-3,6.483834E-2,1.7711898E-2,-2.0880995E-2,3.3986043E-2,-4.1249033E-2,-4.5353426E-3],"categories":[],"categories_nodes":[],"categories_segments":[],"categories_sizes":[],"default_left":[0,0,0,0,0,0,0,0,0,0,0,0,0,0,0,0,0,0,0,0,0,0,0,0,0],"id":30,"left_children":[1,3,5,-1,7,9,11,13,15,17,19,21,23,-1,-1,-1,-1,-1,-1,-1,-1,-1,-1,-1,-1],"loss_changes":[8.708623E0,8.046293E-1,2.6770177E0,0E0,1.3123841E0,2.538722E0,1.3854036E0,5.2014828E-2,2.0018392E0,2.2875633E0,7.751126E-1,2.6509001E0,3.4629297E-1,0E0,0E0,0E0,0E0,0E0,0E0,0E0,0E0,0E0,0E0,0E0,0E0],"parents":[2147483647,0,0,1,1,2,2,4,4,5,5,6,6,7,7,8,8,9,9,10,10,11,11,12,12],"right_children":[2,4,6,-1,8,10,12,14,16,18,20,22,24,-1,-1,-1,-1,-1,-1,-1,-1,-1,-1,-1,-1],"split_conditions":[3.0490944E-1,2.4190961E-1,1.8280045E1,-4.4820555E-2,9.999881E-1,1.7298555E1,1.007E2,3.14E1,9.999887E-1,9.9963164E-1,3.8272515E-1,4.48E1,4.0308905E-1,-1.405784E-2,-4.201151E-2,2.8771345E-2,-2.0740597E-2,4.1109208E-2,4.749608E-3,6.483834E-2,1.7711898E-2,-2.0880995E-2,3.3986043E-2,-4.1249033E-2,-4.5353426E-3],"split_indices":[3,3,2,0,7,2,0,1,7,7,3,1,3,0,0,0,0,0,0,0,0,0,0,0,0],"split_type":[0,0,0,0,0,0,0,0,0,0,0,0,0,0,0,0,0,0,0,0,0,0,0,0,0],"sum_hessian":[1.1851645E2,1.8832655E1,9.96838E1,6.27852E0,1.2554135E1,8.773447E1,1.1949333E1,5.2681737E0,7.2859616E0,8.3172134E1,4.562332E0,7.5794225E0,4.369911E0,1.6265421E0,3.6416314E0,2.0567253E0,5.229236E0,3.6099367E0,7.9562195E1,1.4788266E0,3.0835054E0,5.148847E0,2.4305754E0,3.2977023E0,1.072209E0],"tree_param":{"num_deleted":"0","num_feature":"13","num_nodes":"25","size_leaf_vector":"1"}},{"base_weights":[1.0364469E-3,-5.5414706E-1,1.2339061E-1,-4.4487637E-2,-3.6868504E-1,-1.06994286E-1,2.1859895E-1,-4.745122E-1,1.7291713E-1,6.578346E-3,-6.918257E-1,7.169006E-1,1.1068639E-1,-1.5673056E-2,-3.971037E-2,-7.1020047E-3,2.1919437E-2,-3.2705334E-3,4.337688E-2,-4.1627534E-2,-4.0851007E-3,-7.23388E-3,4.0536605E-2,1.990491E-2,-2.2572482E-3],"categories":[],"categories_nodes":[],"categories_segments":[],"categories_sizes":[],"default_left":[0,0,0,0,0,0,0,0,0,0,0,0,0,0,0,0,0,0,0,0,0,0,0,0,0],"id":31,"left_children":[1,3,5,-1,7,9,11,13,15,17,19,21,23,-1,-1,-1,-1,-1,-1,-1,-1,-1,-1,-1,-1],"loss_changes":[8.170027E0,1.0238614E0,2.184961E0,0E0,9.817345E-1,1.9631575E0,3.6879084E0,4.4088125E-1,3.380788E-1,1.6485796E0,3.445046E-1,1.1107426E0,2.6501489E0,0E0,0E0,0E0,0E0,0E0,0E0,0E0,0E0,0E0,0E0,0E0,0E0],"parents":[2147483647,0,0,1,1,2,2,4,4,5,5,6,6,7,7,8,8,9,9,10,10,11,11,12,12],"right_children":[2,4,6,-1,8,10,12,14,16,18,20,22,24,-1,-1,-1,-1,-1,-1,-1,-1,-1,-1,-1,-1],"split_conditions":[3.19569E-1,2.4190961E-1,1.08E2,-4.4487637E-2,9.999898E-1,1.072E2,1.083E2,9.999887E-1,9.8E1,1.067E2,1.5839823E1,3.49E1,9.998603E-1,-1.5673056E-2,-3.971037E-2,-7.1020047E-3,2.1919437E-2,-3.2705334E-3,4.337688E-2,-4.1627534E-2,-4.0851007E-3,-7.23388E-3,4.0536605E-2,1.990491E-2,-2.2572482E-3],"split_indices":[3,3,0,0,7,0,0,7,0,0,2,1,7,0,0,0,0,0,0,0,0,0,0,0,0],"split_type":[0,0,0,0,0,0,0,0,0,0,0,0,0,0,0,0,0,0,0,0,0,0,0,0,0],"sum_hessian":[1.1826642E2,2.0720022E1,9.7546394E1,6.023185E0,1.4696836E1,2.848783E1,6.905856E1,1.2398154E1,2.2986825E0,2.4683176E1,3.8046525E0,1.1288582E1,5.7769985E1,9.561773E0,2.836381E0,1.2640076E0,1.0346749E0,2.3631277E1,1.0519006E0,2.7953458E0,1.0093066E0,1.0554413E0,1.0233141E1,1.9763662E1,3.800632E1],"tree_param":{"num_deleted":"0","num_feature":"13","num_nodes":"25","size_leaf_vector":"1"}},{"base_weights":[5.4479E-4,-5.813189E-1,1.099514E-1,-4.4152573E-2,-3.81984E-1,1.6658786E-1,-2.93997E-1,-7.2520983E-1,-7.96878E-2,1.22232854E-1,7.98896E-1,-2.0542223E-2,-6.8320864E-1,-1.3361377E-2,-4.1398242E-2,1.3311039E-2,-3.577504E-2,7.8024766E-3,-3.0339295E-2,6.1354198E-2,1.7026735E-2,-2.0193448E-2,3.2463256E-2,-4.0737353E-2,-4.3481644E-3],"categories":[],"categories_nodes":[],"categories_segments":[],"categories_sizes":[],"default_left":[0,0,0,0,0,0,0,0,0,0,0,0,0,0,0,0,0,0,0,0,0,0,0,0,0],"id":32,"left_children":[1,3,5,-1,7,9,11,13,15,17,19,21,23,-1,-1,-1,-1,-1,-1,-1,-1,-1,-1,-1,-1],"loss_changes":[7.625E0,8.028846E-1,2.3554704E0,0E0,1.3095021E0,2.4000587E0,1.3438956E0,6.335235E-2,1.9785846E0,2.1754127E0,6.9241357E-1,2.450981E0,3.3964396E-1,0E0,0E0,0E0,0E0,0E0,0E0,0E0,0E0,0E0,0E0,0E0,0E0],"parents":[2147483647,0,0,1,1,2,2,4,4,5,5,6,6,7,7,8,8,9,9,10,10,11,11,12,12],"right_children":[2,4,6,-1,8,10,12,14,16,18,20,22,24,-1,-1,-1,-1,-1,-1,-1,-1,-1,-1,-1,-1],"split_conditions":[3.0490944E-1,2.4190961E-1,1.8280045E1,-4.4152573E-2,9.999881E-1,1.7298555E1,1.007E2,3.14E1,2.8188828E1,1.6648123E1,3.8272515E-1,4.48E1,4.0308905E-1,-1.3361377E-2,-4.1398242E-2,1.3311039E-2,-3.577504E-2,7.8024766E-3,-3.0339295E-2,6.1354198E-2,1.7026735E-2,-2.0193448E-2,3.2463256E-2,-4.0737353E-2,-4.3481644E-3],"split_indices":[3,3,2,0,7,2,0,1,2,2,3,1,3,0,0,0,0,0,0,0,0,0,0,0,0],"split_type":[0,0,0,0,0,0,0,0,0,0,0,0,0,0,0,0,0,0,0,0,0,0,0,0,0],"sum_hessian":[1.1777341E2,1.7957195E1,9.981621E1,5.779221E0,1.2177975E1,8.805752E1,1.1758692E1,5.0477624E0,7.130213E0,8.3400475E1,4.657044E0,7.524711E0,4.2339807E0,1.584816E0,3.4629464E0,4.9943633E0,2.1358495E0,8.0454414E1,2.9460583E0,1.5406773E0,3.1163666E0,5.0383377E0,2.4863737E0,3.1685092E0,1.0654714E0],"tree_param":{"num_deleted":"0","num_feature":"13","num_nodes":"25","size_leaf_vector":"1"}},{"base_weights":[-4.6431442E-4,-5.325701E-1,1.12091914E-1,-4.3815184E-2,-3.5115924E-1,8.261047E-2,4.23001E-2,-4.5685235E-1,1.7396203E-1,5.61923E-2,4.4790965E-2,-1.4673387E-2,-3.9258793E-2,2.0909147E-2,-6.4939754E-3,6.1543453E-3,-1.2348628E-2],"categories":[],"categories_nodes":[],"categories_segments":[],"categories_sizes":[],"default_left":[0,0,0,0,0,0,0,0,0,0,0,0,0,0,0,0,0],"id":33,"left_children":[1,3,5,-1,7,9,-1,11,13,15,-1,-1,-1,-1,-1,-1,-1],"loss_changes":[7.164324E0,9.946265E-1,2.0664992E0,0E0,9.308274E-1,2.0128071E0,0E0,4.6934366E-1,2.987663E-1,1.9383354E0,0E0,0E0,0E0,0E0,0E0,0E0,0E0],"parents":[2147483647,0,0,1,1,2,2,4,4,5,5,7,7,8,8,9,9],"right_children":[2,4,6,-1,8,10,-1,12,14,16,-1,-1,-1,-1,-1,-1,-1],"split_conditions":[3.19569E-1,2.4190961E-1,1.6207547E0,-4.3815184E-2,9.999898E-1,5.11E1,4.23001E-2,9.999887E-1,9.999903E-1,9.99974E-1,4.4790965E-2,-1.4673387E-2,-3.9258793E-2,2.0909147E-2,-6.4939754E-3,6.1543453E-3,-1.2348628E-2],"split_indices":[3,3,3,0,7,1,0,7,7,7,0,0,0,0,0,0,0],"split_type":[0,0,0,0,0,0,0,0,0,0,0,0,0,0,0,0,0],"sum_hessian":[1.1762433E2,1.988536E1,9.773897E1,5.5461464E0,1.4339213E1,9.503398E1,2.7049873E0,1.2044898E1,2.294315E0,9.307928E1,1.9547052E0,9.307177E0,2.7377212E0,1.063322E0,1.2309932E0,7.674022E1,1.633906E1],"tree_param":{"num_deleted":"0","num_feature":"13","num_nodes":"17","size_leaf_vector":"1"}},{"base_weights":[-5.569209E-4,-5.593338E-1,9.983534E-2,-4.347531E-2,-3.632713E-1,1.513346E-1,-2.7720973E-1,-7.1071225E-1,-6.462751E-2,1.08569145E-1,7.548645E-1,-7.2818086E-3,-6.696486E-1,-1.270163E-2,-4.079732E-2,1.3523347E-2,-3.514245E-2,7.0316093E-3,-2.9787311E-2,5.761652E-2,1.6189877E-2,-1.929115E-2,3.139895E-2,-4.0167924E-2,-4.096662E-3],"categories":[],"categories_nodes":[],"categories_segments":[],"categories_sizes":[],"default_left":[0,0,0,0,0,0,0,0,0,0,0,0,0,0,0,0,0,0,0,0,0,0,0,0,0],"id":34,"left_children":[1,3,5,-1,7,9,11,13,15,17,19,21,23,-1,-1,-1,-1,-1,-1,-1,-1,-1,-1,-1,-1],"loss_changes":[6.696319E0,7.897258E-1,2.0069103E0,0E0,1.288088E0,2.2327332E0,1.3207345E0,7.3517084E-2,1.9039792E0,2.001369E0,6.1483E-1,2.2683368E0,3.3406615E-1,0E0,0E0,0E0,0E0,0E0,0E0,0E0,0E0,0E0,0E0,0E0,0E0],"parents":[2147483647,0,0,1,1,2,2,4,4,5,5,6,6,7,7,8,8,9,9,10,10,11,11,12,12],"right_children":[2,4,6,-1,8,10,12,14,16,18,20,22,24,-1,-1,-1,-1,-1,-1,-1,-1,-1,-1,-1,-1],"split_conditions":[3.0490944E-1,2.4190961E-1,1.8280045E1,-4.347531E-2,9.999881E-1,1.7298555E1,1.007E2,3.14E1,2.8188828E1,1.6648123E1,3.8272515E-1,4.48E1,4.0308905E-1,-1.270163E-2,-4.079732E-2,1.3523347E-2,-3.514245E-2,7.0316093E-3,-2.9787311E-2,5.761652E-2,1.6189877E-2,-1.929115E-2,3.139895E-2,-4.0167924E-2,-4.096662E-3],"split_indices":[3,3,2,0,7,2,0,1,2,2,3,1,3,0,0,0,0,0,0,0,0,0,0,0,0],"split_type":[0,0,0,0,0,0,0,0,0,0,0,0,0,0,0,0,0,0,0,0,0,0,0,0,0],"sum_hessian":[1.1737518E2,1.7180141E1,1.0019504E2,5.3234925E0,1.1856649E1,8.868104E1,1.1514E1,4.8427796E0,7.0138693E0,8.391482E1,4.76622E0,7.4252844E0,4.0887156E0,1.546309E0,3.2964706E0,4.9769626E0,2.036907E0,8.102652E1,2.888298E0,1.6092261E0,3.1569939E0,4.8988166E0,2.526468E0,3.0319953E0,1.0567204E0],"tree_param":{"num_deleted":"0","num_feature":"13","num_nodes":"25","size_leaf_vector":"1"}},{"base_weights":[-1.5131672E-3,-5.1151806E-1,1.0203931E-1,-4.3132827E-2,-3.3448756E-1,7.3788226E-2,4.034515E-2,-5.6299174E-1,-6.433646E-2,4.858936E-2,4.172715E-2,-5.42977E-3,-3.5675805E-2,2.8368218E-2,-1.900579E-2,4.004776E-3,-2.5725959E-2],"categories":[],"categories_nodes":[],"categories_segments":[],"categories_sizes":[],"default_left":[0,0,0,0,0,0,0,0,0,0,0,0,0,0,0,0,0],"id":35,"left_children":[1,3,5,-1,7,9,-1,11,13,15,-1,-1,-1,-1,-1,-1,-1],"loss_changes":[6.2963543E0,9.622159E-1,1.9140965E0,0E0,8.9036644E-1,1.8073275E0,0E0,4.698937E-1,1.8129429E0,1.7153723E0,0E0,0E0,0E0,0E0,0E0,0E0,0E0],"parents":[2147483647,0,0,1,1,2,2,4,4,5,5,7,7,8,8,9,9],"right_children":[2,4,6,-1,8,10,-1,12,14,16,-1,-1,-1,-1,-1,-1,-1],"split_conditions":[3.19569E-1,2.4190961E-1,1.6207547E0,-4.3132827E-2,9.999881E-1,5.11E1,4.034515E-2,3.14E1,9.999887E-1,4.81E1,4.172715E-2,-5.42977E-3,-3.5675805E-2,2.8368218E-2,-1.900579E-2,4.004776E-3,-2.5725959E-2],"split_indices":[3,3,3,0,7,1,0,1,7,1,0,0,0,0,0,0,0],"split_type":[0,0,0,0,0,0,0,0,0,0,0,0,0,0,0,0,0],"sum_hessian":[1.17233116E2,1.9120972E1,9.811214E1,5.110807E0,1.4010165E1,9.539343E1,2.7187045E0,7.0028753E0,7.0072904E0,9.336474E1,2.028698E0,2.1709008E0,4.8319745E0,2.0698826E0,4.9374075E0,8.923004E1,4.1346974E0],"tree_param":{"num_deleted":"0","num_feature":"13","num_nodes":"17","size_leaf_vector":"1"}},{"base_weights":[-1.6597204E-3,-5.386393E-1,9.0820864E-2,-4.2787634E-2,-3.468594E-1,7.020397E-1,6.0706105E-2,-6.927327E-1,-6.0381047E-2,4.3609694E-2,9.5040295E-3,1.0687883E-1,-2.6722944E-1,-1.22734355E-2,-3.9969143E-2,1.2968728E-2,-3.4594838E-2,3.104728E-3,3.5527427E-2,-1.4743129E-4,-3.295289E-2],"categories":[],"categories_nodes":[],"categories_segments":[],"categories_sizes":[],"default_left":[0,0,0,0,0,0,0,0,0,0,0,0,0,0,0,0,0,0,0,0,0],"id":36,"left_children":[1,3,5,-1,7,9,11,13,15,-1,-1,17,19,-1,-1,-1,-1,-1,-1,-1,-1],"loss_changes":[5.910127E0,7.665272E-1,1.8264272E0,0E0,1.2043772E0,2.4132013E-1,1.5104494E0,7.101512E-2,1.7897979E0,0E0,0E0,2.294493E0,1.2784499E0,0E0,0E0,0E0,0E0,0E0,0E0,0E0,0E0],"parents":[2147483647,0,0,1,1,2,2,4,4,5,5,6,6,7,7,8,8,11,11,12,12],"right_children":[2,4,6,-1,8,10,12,14,16,-1,-1,18,20,-1,-1,-1,-1,-1,-1,-1,-1],"split_conditions":[3.0490944E-1,2.4190961E-1,4.060788E0,-4.2787634E-2,9.999881E-1,1.179E2,1.8280045E1,3.14E1,2.8188828E1,4.3609694E-2,9.5040295E-3,1.7298555E1,1.007E2,-1.22734355E-2,-3.9969143E-2,1.2968728E-2,-3.4594838E-2,3.104728E-3,3.5527427E-2,-1.4743129E-4,-3.295289E-2],"split_indices":[3,3,2,0,7,0,2,1,2,0,0,2,0,0,0,0,0,0,0,0,0],"split_type":[0,0,0,0,0,0,0,0,0,0,0,0,0,0,0,0,0,0,0,0,0],"sum_hessian":[1.1702628E2,1.6484762E1,1.0054153E2,4.9076567E0,1.1577105E1,3.6733754E0,9.686815E1,4.6024003E0,6.9747043E0,2.228931E0,1.4444444E0,8.55035E1,1.1364651E1,1.5218339E0,3.0805664E0,5.021466E0,1.9532384E0,8.062505E1,4.8784466E0,7.388663E0,3.975988E0],"tree_param":{"num_deleted":"0","num_feature":"13","num_nodes":"21","size_leaf_vector":"1"}},{"base_weights":[-2.174412E-3,-4.1254178E-1,1.11997254E-1,-2.4871041E-1,-7.6925534E-1,8.578181E-2,5.901959E-2,-5.0693053E-1,6.90655E-2,-7.927394E-3,-4.3645944E-2,1.2017445E-1,-4.0273596E-2,1.9342909E-2,-3.23321E-2,5.063839E-2,-1.5113616E-2,4.826149E-3,4.538493E-2],"categories":[],"categories_nodes":[],"categories_segments":[],"categories_sizes":[],"default_left":[0,0,0,0,0,0,0,0,0,0,0,0,0,0,0,0,0,0,0],"id":37,"left_children":[1,3,5,7,9,11,-1,13,15,-1,-1,17,-1,-1,-1,-1,-1,-1,-1],"loss_changes":[5.5680256E0,1.3203177E0,2.503241E0,1.6107407E0,3.46735E-1,2.9119606E0,0E0,1.5880675E0,3.6313367E0,0E0,0E0,1.5756754E0,0E0,0E0,0E0,0E0,0E0,0E0,0E0],"parents":[2147483647,0,0,1,1,2,2,3,3,4,4,5,5,7,7,8,8,11,11],"right_children":[2,4,6,8,10,12,-1,14,16,-1,-1,18,-1,-1,-1,-1,-1,-1,-1],"split_conditions":[3.5171434E-1,9.9998987E-1,5.07E1,4.6E1,2.38E1,4.81E1,5.901959E-2,1.603278E1,9.77E1,-7.927394E-3,-4.3645944E-2,1.9204035E0,-4.0273596E-2,1.9342909E-2,-3.23321E-2,5.063839E-2,-1.5113616E-2,4.826149E-3,4.538493E-2],"split_indices":[3,7,1,1,1,1,0,2,0,0,0,3,0,0,0,0,0,0,0],"split_type":[0,0,0,0,0,0,0,0,0,0,0,0,0,0,0,0,0,0,0],"sum_hessian":[1.1685588E2,2.4866138E1,9.198974E1,1.8203064E1,6.6630745E0,9.084104E1,1.1486971E0,9.7142E0,8.488865E0,1.3339416E0,5.329133E0,8.8298836E1,2.5422063E0,1.0740567E0,8.640143E0,1.9093004E0,6.5795646E0,8.681414E1,1.4846971E0],"tree_param":{"num_deleted":"0","num_feature":"13","num_nodes":"19","size_leaf_vector":"1"}},{"base_weights":[-1.8577025E-3,-5.184073E-1,8.370403E-2,-4.215966E-2,-3.2907587E-1,5.8342833E-2,7.3352253E-1,-6.7969835E-1,-4.4346903E-2,3.0615473E-2,6.108775E-1,1.2297931E-2,4.3938905E-2,-1.139479E-2,-3.9501216E-2,1.3218269E-2,-3.390108E-2,3.499401E-3,-1.9130373E-2,-1.17129E-2,5.0977796E-2],"categories":[],"categories_nodes":[],"categories_segments":[],"categories_sizes":[],"default_left":[0,0,0,0,0,0,0,0,0,0,0,0,0,0,0,0,0,0,0,0,0],"id":38,"left_children":[1,3,5,-1,7,9,11,13,15,17,19,-1,-1,-1,-1,-1,-1,-1,-1,-1,-1],"loss_changes":[5.241377E0,7.587733E-1,1.6341952E0,0E0,1.1963867E0,1.4983505E0,4.8434258E-2,9.0919495E-2,1.7148557E0,1.5779786E0,1.8548906E0,0E0,0E0,0E0,0E0,0E0,0E0,0E0,0E0,0E0,0E0],"parents":[2147483647,0,0,1,1,2,2,4,4,5,5,6,6,7,7,8,8,9,9,10,10],"right_children":[2,4,6,-1,8,10,12,14,16,18,20,-1,-1,-1,-1,-1,-1,-1,-1,-1,-1],"split_conditions":[3.0490944E-1,2.4190961E-1,1.6207547E0,-4.215966E-2,9.999881E-1,4.9999988E-1,1.9204035E0,3.14E1,2.8188828E1,1.157E2,1.126E2,1.2297931E-2,4.3938905E-2,-1.139479E-2,-3.9501216E-2,1.3218269E-2,-3.390108E-2,3.499401E-3,-1.9130373E-2,-1.17129E-2,5.0977796E-2],"split_indices":[3,3,3,0,7,12,3,1,2,0,0,0,0,0,0,0,0,0,0,0,0],"split_type":[0,0,0,0,0,0,0,0,0,0,0,0,0,0,0,0,0,0,0,0,0],"sum_hessian":[1.1660976E2,1.5851699E1,1.0075806E2,4.565811E0,1.1285888E1,9.802222E1,2.7358408E0,4.436049E0,6.849839E0,9.434328E1,3.6789358E0,1.2461852E0,1.4896557E0,1.47232E0,2.963729E0,4.9978185E0,1.8520206E0,8.689446E1,7.448816E0,1.3382545E0,2.3406813E0],"tree_param":{"num_deleted":"0","num_feature":"13","num_nodes":"21","size_leaf_vector":"1"}},{"base_weights":[-2.1348342E-3,9.3721494E-2,-4.4277602E-1,1.7187831E-1,-1.2123354E-1,-2.2783582E-1,-4.4354986E-2,1.2790395E-1,8.7320834E-1,-4.6816206E-1,1.1579121E-1,-4.1642565E-1,4.6844717E-2,4.6605202E-3,5.4405045E-2,1.6087306E-3,6.6863164E-2,-5.628655E-3,-4.6868008E-2,-2.4594963E-3,6.502284E-2,-3.1324077E-2,5.3727283E-4],"categories":[],"categories_nodes":[],"categories_segments":[],"categories_sizes":[],"default_left":[0,0,0,0,0,0,0,0,0,0,0,0,0,0,0,0,0,0,0,0,0,0,0],"id":39,"left_children":[1,3,5,7,9,11,-1,13,15,17,19,21,-1,-1,-1,-1,-1,-1,-1,-1,-1,-1,-1],"loss_changes":[5.0026627E0,1.6554294E0,1.8188028E0,2.1016183E0,2.2357779E0,3.8183858E0,0E0,2.1872683E0,1.5425963E0,1.7241774E0,3.301204E0,1.2741342E0,0E0,0E0,0E0,0E0,0E0,0E0,0E0,0E0,0E0,0E0,0E0],"parents":[2147483647,0,0,1,1,2,2,3,3,4,4,5,5,7,7,8,8,9,9,10,10,11,11],"right_children":[2,4,6,8,10,12,-1,14,16,18,20,22,-1,-1,-1,-1,-1,-1,-1,-1,-1,-1,-1],"split_conditions":[1.9743353E1,4.35E1,1.004E2,4.9999988E-1,4.58E1,9.99E1,-4.4354986E-2,4.31E1,1.128E2,1.9999996E-1,6.3839155E-1,4.6E1,4.6844717E-2,4.6605202E-3,5.4405045E-2,1.6087306E-3,6.6863164E-2,-5.628655E-3,-4.6868008E-2,-2.4594963E-3,6.502284E-2,-3.1324077E-2,5.3727283E-4],"split_indices":[2,1,0,12,1,0,0,1,0,12,3,1,0,0,0,0,0,0,0,0,0,0,0],"split_type":[0,0,0,0,0,0,0,0,0,0,0,0,0,0,0,0,0,0,0,0,0,0,0],"sum_hessian":[1.1645671E2,9.629596E1,2.0160751E1,7.076608E1,2.5529877E1,1.460729E1,5.553461E0,6.770336E1,3.062721E0,9.96668E0,1.5563196E1,1.3124654E1,1.4826365E0,6.6401245E1,1.3021158E0,1.4692489E0,1.593472E0,6.375122E0,3.5915577E0,1.4502061E1,1.0611355E0,8.485457E0,4.6391964E0],"tree_param":{"num_deleted":"0","num_feature":"13","num_nodes":"23","size_leaf_vector":"1"}},{"base_weights":[-1.2431993E-3,-4.9944884E-1,7.843876E-2,-4.1623857E-2,-3.107929E-1,6.426377E-1,5.0703E-2,-6.6500133E-1,-3.0252637E-2,1.4045211E-2,4.2420954E-2,8.523933E-2,-3.3623996E-1,-3.909763E-2,-1.0774531E-2,1.344609E-2,-3.3270963E-2,2.5804935E-3,5.0635185E-2,-2.664349E-2,9.616855E-3],"categories":[],"categories_nodes":[],"categories_segments":[],"categories_sizes":[],"default_left":[0,0,0,0,0,0,0,0,0,0,0,0,0,0,0,0,0,0,0,0,0],"id":40,"left_children":[1,3,5,-1,7,9,11,13,15,-1,-1,17,19,-1,-1,-1,-1,-1,-1,-1,-1],"loss_changes":[4.690849E0,7.6489973E-1,1.5617452E0,0E0,1.1719692E0,1.1065769E-1,1.3409073E0,1.07726574E-1,1.6501334E0,0E0,0E0,2.7843895E0,9.5978683E-1,0E0,0E0,0E0,0E0,0E0,0E0,0E0,0E0],"parents":[2147483647,0,0,1,1,2,2,4,4,5,5,6,6,7,7,8,8,11,11,12,12],"right_children":[2,4,6,-1,8,10,12,14,16,-1,-1,18,20,-1,-1,-1,-1,-1,-1,-1,-1],"split_conditions":[3.0490944E-1,2.4190961E-1,9.9963164E-1,-4.1623857E-2,9.999881E-1,1.9204035E0,1.157E2,2.5390156E1,2.8188828E1,1.4045211E-2,4.2420954E-2,1.153E2,4.43E1,-3.909763E-2,-1.0774531E-2,1.344609E-2,-3.3270963E-2,2.5804935E-3,5.0635185E-2,-2.664349E-2,9.616855E-3],"split_indices":[3,3,7,0,7,3,0,2,2,0,0,0,1,0,0,0,0,0,0,0,0],"split_type":[0,0,0,0,0,0,0,0,0,0,0,0,0,0,0,0,0,0,0,0,0],"sum_hessian":[1.16176506E2,1.5292602E1,1.008839E2,4.296121E0,1.0996481E1,3.6882267E0,9.719568E1,4.254431E0,6.7420497E0,2.1949272E0,1.4932995E0,8.994721E1,7.2484646E0,2.7891908E0,1.4652399E0,4.975239E0,1.766811E0,8.7818596E1,2.128618E0,5.277224E0,1.9712405E0],"tree_param":{"num_deleted":"0","num_feature":"13","num_nodes":"21","size_leaf_vector":"1"}},{"base_weights":[-1.4209114E-3,8.788138E-2,-4.2470023E-1,1.6179122E-1,-1.16937034E-1,-2.108117E-1,-4.3916993E-2,1.1900265E-1,8.437225E-1,-4.555574E-1,1.1126014E-1,-3.983874E-1,4.449105E-2,4.2731105E-3,5.150965E-2,1.4818405E-3,6.4525E-2,-5.441893E-3,-4.6170603E-2,-2.3765522E-3,6.0927194E-2,-3.0529177E-2,1.0938444E-3],"categories":[],"categories_nodes":[],"categories_segments":[],"categories_sizes":[],"default_left":[0,0,0,0,0,0,0,0,0,0,0,0,0,0,0,0,0,0,0,0,0,0,0],"id":41,"left_children":[1,3,5,7,9,11,-1,13,15,17,19,21,-1,-1,-1,-1,-1,-1,-1,-1,-1,-1,-1],"loss_changes":[4.4617257E0,1.4946507E0,1.8100946E0,2.002059E0,2.0930107E0,3.511246E0,0E0,2.0196269E0,1.4493458E0,1.6574066E0,2.9754703E0,1.239989E0,0E0,0E0,0E0,0E0,0E0,0E0,0E0,0E0,0E0,0E0,0E0],"parents":[2147483647,0,0,1,1,2,2,3,3,4,4,5,5,7,7,8,8,9,9,10,10,11,11],"right_children":[2,4,6,8,10,12,-1,14,16,18,20,22,-1,-1,-1,-1,-1,-1,-1,-1,-1,-1,-1],"split_conditions":[1.9743353E1,4.35E1,1.004E2,4.9999988E-1,4.58E1,9.99E1,-4.3916993E-2,4.31E1,1.128E2,1.9999996E-1,6.3839155E-1,4.6E1,4.449105E-2,4.2731105E-3,5.150965E-2,1.4818405E-3,6.4525E-2,-5.441893E-3,-4.6170603E-2,-2.3765522E-3,6.0927194E-2,-3.0529177E-2,1.0938444E-3],"split_indices":[2,1,0,12,1,0,0,1,0,12,3,1,0,0,0,0,0,0,0,0,0,0,0],"split_type":[0,0,0,0,0,0,0,0,0,0,0,0,0,0,0,0,0,0,0,0,0,0,0],"sum_hessian":[1.1604827E2,9.6484604E1,1.9563673E1,7.105433E1,2.5430271E1,1.4290496E1,5.273176E0,6.796434E1,3.089994E0,9.836949E0,1.5593321E1,1.2754793E1,1.5357023E0,6.6606384E1,1.3579544E0,1.4727638E0,1.6172302E0,6.3578677E0,3.4790819E0,1.4474644E1,1.1186773E0,8.174527E0,4.5802665E0],"tree_param":{"num_deleted":"0","num_feature":"13","num_nodes":"23","size_leaf_vector":"1"}},{"base_weights":[-6.300579E-4,-4.8089626E-1,7.366216E-2,-4.108634E-2,-2.9326344E-1,6.2052095E-1,4.682346E-2,-6.504024E-1,-1.7262204E-2,4.0216316E-2,6.274549E-3,8.009275E-2,-3.2847518E-1,-9.334299E-3,-3.8488925E-2,1.3626947E-2,-3.2656267E-2,2.405286E-3,4.7138724E-2,-2.6147043E-2,9.400642E-3],"categories":[],"categories_nodes":[],"categories_segments":[],"categories_sizes":[],"default_left":[0,0,0,0,0,0,0,0,0,0,0,0,0,0,0,0,0,0,0,0,0],"id":42,"left_children":[1,3,5,-1,7,9,11,13,15,-1,-1,17,19,-1,-1,-1,-1,-1,-1,-1,-1],"loss_changes":[4.202098E0,7.6799035E-1,1.46802E0,0E0,1.1450508E0,3.258232E-1,1.253816E0,1.3785458E-1,1.5866127E0,0E0,0E0,2.4687912E0,9.220647E-1,0E0,0E0,0E0,0E0,0E0,0E0,0E0,0E0],"parents":[2147483647,0,0,1,1,2,2,4,4,5,5,6,6,7,7,8,8,11,11,12,12],"right_children":[2,4,6,-1,8,10,12,14,16,-1,-1,18,20,-1,-1,-1,-1,-1,-1,-1,-1],"split_conditions":[3.0490944E-1,2.4190961E-1,4.060788E0,-4.108634E-2,9.999881E-1,1.179E2,1.157E2,3.14E1,2.8188828E1,4.0216316E-2,6.274549E-3,1.153E2,4.43E1,-9.334299E-3,-3.8488925E-2,1.3626947E-2,-3.2656267E-2,2.405286E-3,4.7138724E-2,-2.6147043E-2,9.400642E-3],"split_indices":[3,3,2,0,7,0,0,1,2,0,0,0,1,0,0,0,0,0,0,0,0],"split_type":[0,0,0,0,0,0,0,0,0,0,0,0,0,0,0,0,0,0,0,0,0],"sum_hessian":[1.1577883E2,1.4777275E1,1.0100156E2,4.0468435E0,1.07304325E1,3.6902175E0,9.731134E1,4.086316E0,6.644116E0,2.235405E0,1.4548125E0,9.010991E1,7.20143E0,1.3614827E0,2.7248335E0,4.956519E0,1.6875968E0,8.7906235E1,2.2036772E0,5.222561E0,1.9788687E0],"tree_param":{"num_deleted":"0","num_feature":"13","num_nodes":"21","size_leaf_vector":"1"}},{"base_weights":[-9.180608E-4,8.2162865E-2,-4.0665725E-1,6.2441602E-2,4.0474933E-2,-1.9306415E-1,-4.3501027E-2,9.0519704E-2,-4.1270486E-1,-3.7935984E-1,4.2237446E-2,1.6937156E-3,2.0825371E-2,-3.208613E-2,8.474556E-3,-2.9706622E-2,1.7536294E-3],"categories":[],"categories_nodes":[],"categories_segments":[],"categories_sizes":[],"default_left":[0,0,0,0,0,0,0,0,0,0,0,0,0,0,0,0,0],"id":43,"left_children":[1,3,5,7,-1,9,-1,11,13,15,-1,-1,-1,-1,-1,-1,-1],"loss_changes":[3.965761E0,1.3502874E0,1.8109629E0,1.3203229E0,0E0,3.2150364E0,0E0,1.6777189E0,8.481748E-1,1.2120427E0,0E0,0E0,0E0,0E0,0E0,0E0,0E0],"parents":[2147483647,0,0,1,1,2,2,3,3,5,5,7,7,8,8,9,9],"right_children":[2,4,6,8,-1,10,-1,12,14,16,-1,-1,-1,-1,-1,-1,-1],"split_conditions":[1.9743353E1,1.9204035E0,1.004E2,1.164E2,4.0474933E-2,9.99E1,-4.3501027E-2,1.0249575E0,4.43E1,4.6E1,4.2237446E-2,1.6937156E-3,2.0825371E-2,-3.208613E-2,8.474556E-3,-2.9706622E-2,1.7536294E-3],"split_indices":[2,3,0,0,0,0,0,3,1,1,0,0,0,0,0,0,0],"split_type":[0,0,0,0,0,0,0,0,0,0,0,0,0,0,0,0,0],"sum_hessian":[1.15655106E2,9.6660065E1,1.8995037E1,9.5165565E1,1.4945054E0,1.3971402E1,5.023635E0,9.0619995E1,4.545568E0,1.2383015E1,1.5883875E0,7.8145004E1,1.2474987E1,3.1889064E0,1.3566618E0,7.8706036E0,4.5124116E0],"tree_param":{"num_deleted":"0","num_feature":"13","num_nodes":"17","size_leaf_vector":"1"}},{"base_weights":[-8.7336765E-4,5.168601E-2,-6.1091226E-1,2.1250293E-2,6.8689305E-1,-2.474622E-3,-6.7842394E-1,-3.775347E-2,4.7908746E-2,-6.7659565E-3,9.681027E-1,-2.4831039E-1,-4.2275224E-2,1.152007E-3,5.4523766E-2,6.343277E-2,1.4805252E-2,-3.3587065E-2,2.1741001E-2],"categories":[],"categories_nodes":[],"categories_segments":[],"categories_sizes":[],"default_left":[0,0,0,0,0,0,0,0,0,0,0,0,0,0,0,0,0,0,0],"id":44,"left_children":[1,3,5,7,9,-1,11,-1,13,-1,15,17,-1,-1,-1,-1,-1,-1,-1],"loss_changes":[3.7647023E0,2.075616E0,3.194306E-1,2.1927438E0,1.2666261E0,0E0,3.818605E-1,0E0,2.611297E0,0E0,3.882947E-1,1.3680683E0,0E0,0E0,0E0,0E0,0E0,0E0,0E0],"parents":[2147483647,0,0,1,1,2,2,3,3,4,4,6,6,8,8,10,10,11,11],"right_children":[2,4,6,8,10,-1,12,-1,14,-1,16,18,-1,-1,-1,-1,-1,-1,-1],"split_conditions":[9.999887E-1,4.9999988E-1,2.38E1,9.59E1,1.107E2,-2.474622E-3,9.9998987E-1,-3.775347E-2,2.4060133E1,-6.7659565E-3,3.98E1,4.68E1,-4.2275224E-2,1.152007E-3,5.4523766E-2,6.343277E-2,1.4805252E-2,-3.3587065E-2,2.1741001E-2],"split_indices":[7,12,1,0,0,0,7,0,2,0,1,1,0,0,0,0,0,0,0],"split_type":[0,0,0,0,0,0,0,0,0,0,0,0,0,0,0,0,0,0,0],"sum_hessian":[1.15430016E2,1.0711641E2,8.3136E0,1.0320484E2,3.911569E0,1.0784471E0,7.2351527E0,2.51921E0,1.0068563E2,1.1290889E0,2.7824802E0,2.7197928E0,4.51536E0,9.9338196E1,1.3474398E0,1.3090969E0,1.4733833E0,1.6893437E0,1.0304492E0],"tree_param":{"num_deleted":"0","num_feature":"13","num_nodes":"19","size_leaf_vector":"1"}},{"base_weights":[-6.258679E-4,-4.5397812E-1,6.626033E-2,-4.026779E-2,-2.6868844E-1,5.8658767E-1,4.0815864E-2,-6.3560957E-1,9.6105E-3,3.8306996E-2,5.5333963E-3,7.249383E-2,-3.195674E-1,-3.819527E-2,-8.243077E-3,2.8639713E-2,-1.5527925E-2,2.0965345E-3,4.4221666E-2,-2.54659E-2,8.779942E-3],"categories":[],"categories_nodes":[],"categories_segments":[],"categories_sizes":[],"default_left":[0,0,0,0,0,0,0,0,0,0,0,0,0,0,0,0,0,0,0,0,0],"id":45,"left_children":[1,3,5,-1,7,9,11,13,15,-1,-1,17,19,-1,-1,-1,-1,-1,-1,-1,-1],"loss_changes":[3.5564573E0,7.6535773E-1,1.3293245E0,0E0,1.1675019E0,3.1603384E-1,1.1479386E0,1.7123938E-1,1.5217583E0,0E0,0E0,2.2305136E0,8.5477185E-1,0E0,0E0,0E0,0E0,0E0,0E0,0E0,0E0],"parents":[2147483647,0,0,1,1,2,2,4,4,5,5,6,6,7,7,8,8,11,11,12,12],"right_children":[2,4,6,-1,8,10,12,14,16,-1,-1,18,20,-1,-1,-1,-1,-1,-1,-1,-1],"split_conditions":[3.0490944E-1,2.4190961E-1,4.060788E0,-4.026779E-2,9.999881E-1,1.179E2,1.157E2,2.5390156E1,9.999887E-1,3.8306996E-2,5.5333963E-3,1.153E2,4.43E1,-3.819527E-2,-8.243077E-3,2.8639713E-2,-1.5527925E-2,2.0965345E-3,4.4221666E-2,-2.54659E-2,8.779942E-3],"split_indices":[3,3,2,0,7,0,0,2,7,0,0,0,1,0,0,0,0,0,0,0,0],"split_type":[0,0,0,0,0,0,0,0,0,0,0,0,0,0,0,0,0,0,0,0,0],"sum_hessian":[1.1529375E2,1.4079061E1,1.0121468E2,3.7055333E0,1.0373528E1,3.6905735E0,9.752411E1,3.9205709E0,6.4529567E0,2.2368565E0,1.4537171E0,9.037861E1,7.1455064E0,2.5915358E0,1.3290352E0,2.0528734E0,4.400083E0,8.811347E1,2.2651365E0,5.1452403E0,2.0002658E0],"tree_param":{"num_deleted":"0","num_feature":"13","num_nodes":"21","size_leaf_vector":"1"}},{"base_weights":[-6.6246715E-4,7.508738E-2,-3.8425028E-1,1.4324565E-1,-1.1518819E-1,-1.7215364E-1,-4.2953674E-2,1.0297419E-1,7.826894E-1,-4.4453904E-1,1.0419341E-1,-3.576664E-1,4.0365394E-2,3.5279498E-3,4.8561435E-2,4.983623E-4,6.06295E-2,-5.3615505E-3,-4.549419E-2,-2.336964E-3,5.6118723E-2,-2.872464E-2,2.3835113E-3],"categories":[],"categories_nodes":[],"categories_segments":[],"categories_sizes":[],"default_left":[0,0,0,0,0,0,0,0,0,0,0,0,0,0,0,0,0,0,0,0,0,0,0],"id":46,"left_children":[1,3,5,7,9,11,-1,13,15,17,19,21,-1,-1,-1,-1,-1,-1,-1,-1,-1,-1,-1],"loss_changes":[3.4038656E0,1.2852986E0,1.7976234E0,1.7857975E0,1.9506816E0,2.9423523E0,0E0,1.8828785E0,1.3640676E0,1.5862231E0,2.6080246E0,1.1674222E0,0E0,0E0,0E0,0E0,0E0,0E0,0E0,0E0,0E0,0E0,0E0],"parents":[2147483647,0,0,1,1,2,2,3,3,4,4,5,5,7,7,8,8,9,9,10,10,11,11],"right_children":[2,4,6,8,10,12,-1,14,16,18,20,22,-1,-1,-1,-1,-1,-1,-1,-1,-1,-1,-1],"split_conditions":[1.9743353E1,4.35E1,1.004E2,4.9999988E-1,4.58E1,9.99E1,-4.2953674E-2,4.31E1,1.128E2,1.9999996E-1,6.3839155E-1,4.6E1,4.0365394E-2,3.5279498E-3,4.8561435E-2,4.983623E-4,6.06295E-2,-5.3615505E-3,-4.549419E-2,-2.336964E-3,5.6118723E-2,-2.872464E-2,2.3835113E-3],"split_indices":[2,1,0,12,1,0,0,1,0,12,3,1,0,0,0,0,0,0,0,0,0,0,0],"split_type":[0,0,0,0,0,0,0,0,0,0,0,0,0,0,0,0,0,0,0,0,0,0,0],"sum_hessian":[1.1515259E2,9.6834274E1,1.8318312E1,7.1477585E1,2.535669E1,1.3604115E1,4.714198E0,6.833496E1,3.142623E0,9.727206E0,1.5629482E1,1.197151E1,1.6326041E0,6.691793E1,1.417032E0,1.4891481E0,1.6534748E0,6.352784E0,3.3744216E0,1.44426365E1,1.1868463E0,7.527505E0,4.444005E0],"tree_param":{"num_deleted":"0","num_feature":"13","num_nodes":"23","size_leaf_vector":"1"}},{"base_weights":[7.072399E-6,4.733875E-2,-5.830349E-1,1.8402515E-2,6.472795E-1,-7.061773E-4,-6.5491796E-1,-3.71861E-2,4.371201E-2,-6.52589E-3,9.0920156E-1,-2.2245184E-1,-4.1536886E-2,9.6797076E-4,5.2360535E-2,5.9972256E-2,1.3494401E-2,2.2462642E-2,-3.2945298E-2],"categories":[],"categories_nodes":[],"categories_segments":[],"categories_sizes":[],"default_left":[0,0,0,0,0,0,0,0,0,0,0,0,0,0,0,0,0,0,0],"id":47,"left_children":[1,3,5,7,9,-1,11,-1,13,-1,15,17,-1,-1,-1,-1,-1,-1,-1],"loss_changes":[3.226139E0,1.8651693E0,3.4971905E-1,2.0420496E0,1.1262608E0,0E0,4.0608335E-1,0E0,2.4669232E0,0E0,3.8613033E-1,1.3548993E0,0E0,0E0,0E0,0E0,0E0,0E0,0E0],"parents":[2147483647,0,0,1,1,2,2,3,3,4,4,6,6,8,8,10,10,11,11],"right_children":[2,4,6,8,10,-1,12,-1,14,-1,16,18,-1,-1,-1,-1,-1,-1,-1],"split_conditions":[9.999887E-1,4.9999988E-1,2.38E1,9.59E1,1.107E2,-7.061773E-4,9.9998987E-1,-3.71861E-2,2.4060133E1,-6.52589E-3,3.98E1,2.626874E-1,-4.1536886E-2,9.6797076E-4,5.2360535E-2,5.9972256E-2,1.3494401E-2,2.2462642E-2,-3.2945298E-2],"split_indices":[7,12,1,0,0,0,7,0,2,0,1,3,0,0,0,0,0,0,0],"split_type":[0,0,0,0,0,0,0,0,0,0,0,0,0,0,0,0,0,0,0],"sum_hessian":[1.149044E2,1.0712661E2,7.777793E0,1.03180695E2,3.945919E0,1.006717E0,6.7710757E0,2.40406E0,1.00776634E2,1.1204249E0,2.825494E0,2.6118646E0,4.159211E0,9.93841E1,1.3925303E0,1.3406869E0,1.4848073E0,1.017147E0,1.5947177E0],"tree_param":{"num_deleted":"0","num_feature":"13","num_nodes":"19","size_leaf_vector":"1"}},{"base_weights":[1.9880274E-4,7.113318E-2,-3.681354E-1,5.226209E-2,3.8632113E-2,-1.5830553E-1,-4.2508084E-2,2.022596E-1,-3.3451993E-2,-3.4170794E-1,3.8457E-2,-1.4361098E-3,3.0216668E-2,-1.618561E-2,4.215982E-3,-2.7913457E-2,2.5778397E-3],"categories":[],"categories_nodes":[],"categories_segments":[],"categories_sizes":[],"default_left":[0,0,0,0,0,0,0,0,0,0,0,0,0,0,0,0,0],"id":48,"left_children":[1,3,5,7,-1,9,-1,11,13,15,-1,-1,-1,-1,-1,-1,-1],"loss_changes":[3.0512044E0,1.2559162E0,1.7728031E0,1.246531E0,0E0,2.706693E0,0E0,3.2870893E0,2.1542852E0,1.109359E0,0E0,0E0,0E0,0E0,0E0,0E0,0E0],"parents":[2147483647,0,0,1,1,2,2,3,3,5,5,7,7,8,8,9,9],"right_children":[2,4,6,8,-1,10,-1,12,14,16,-1,-1,-1,-1,-1,-1,-1],"split_conditions":[1.9743353E1,1.9204035E0,1.004E2,1.084E2,3.8632113E-2,9.99E1,-4.2508084E-2,1.08E2,1.111E2,4.6E1,3.8457E-2,-1.4361098E-3,3.0216668E-2,-1.618561E-2,4.215982E-3,-2.7913457E-2,2.5778397E-3],"split_indices":[2,3,0,0,0,0,0,0,0,1,0,0,0,0,0,0,0],"split_type":[0,0,0,0,0,0,0,0,0,0,0,0,0,0,0,0,0],"sum_hessian":[1.14778824E2,9.6920586E1,1.785824E1,9.542801E1,1.4925809E0,1.3367624E1,4.4906154E0,3.4206966E1,6.122104E1,1.16879015E1,1.6797235E0,2.2315695E1,1.1891271E1,1.7165724E1,4.4055317E1,7.266721E0,4.4211802E0],"tree_param":{"num_deleted":"0","num_feature":"13","num_nodes":"17","size_leaf_vector":"1"}},{"base_weights":[3.337733E-4,3.7128076E-2,-6.853855E-1,9.33956E-3,6.2616676E-1,-2.225066E-3,-4.086219E-2,6.117938E-2,-2.9694876E-1,-6.1448766E-3,8.731918E-1,1.5004966E-3,3.393096E-2,-4.762598E-3,-4.0179413E-2,5.7627358E-2,1.2920891E-2],"categories":[],"categories_nodes":[],"categories_segments":[],"categories_sizes":[],"default_left":[0,0,0,0,0,0,0,0,0,0,0,0,0,0,0,0,0],"id":49,"left_children":[1,3,5,7,9,-1,-1,11,13,-1,15,-1,-1,-1,-1,-1,-1],"loss_changes":[2.9363897E0,1.8020022E0,4.6448445E-1,1.7089489E0,1.0252051E0,0E0,0E0,1.7482992E0,1.5160445E0,0E0,3.6400604E-1,0E0,0E0,0E0,0E0,0E0,0E0],"parents":[2147483647,0,0,1,1,2,2,3,3,4,4,7,7,8,8,10,10],"right_children":[2,4,6,8,10,-1,-1,12,14,-1,16,-1,-1,-1,-1,-1,-1],"split_conditions":[9.9998987E-1,4.9999988E-1,2.42E1,1.9277449E1,1.107E2,-2.225066E-3,-4.086219E-2,5.11E1,1.007E2,-6.1448766E-3,3.98E1,1.5004966E-3,3.393096E-2,-4.762598E-3,-4.0179413E-2,5.7627358E-2,1.2920891E-2],"split_indices":[7,12,1,2,0,0,0,1,0,0,1,0,0,0,0,0,0],"split_type":[0,0,0,0,0,0,0,0,0,0,0,0,0,0,0,0,0],"sum_hessian":[1.14373665E2,1.0944683E2,4.9268394E0,1.0548626E2,3.9605691E0,1.0689257E0,3.8579135E0,9.090131E1,1.4584947E1,1.1068155E0,2.8537536E0,8.753119E1,3.3701246E0,1.1281649E1,3.3032978E0,1.3606983E0,1.4930553E0],"tree_param":{"num_deleted":"0","num_feature":"13","num_nodes":"17","size_leaf_vector":"1"}},{"base_weights":[3.5541249E-4,3.5727955E-2,-6.7581576E-1,8.747873E-3,6.056682E-1,-2.1700351E-3,-4.0488515E-2,5.6637887E-2,-3.01475E-1,-5.9985286E-3,8.428752E-1,3.8087838E-3,-3.682064E-2,-2.9173097E-2,4.743345E-3,5.557644E-2,1.2503413E-2],"categories":[],"categories_nodes":[],"categories_segments":[],"categories_sizes":[],"default_left":[0,0,0,0,0,0,0,0,0,0,0,0,0,0,0,0,0],"id":50,"left_children":[1,3,5,7,9,-1,-1,11,13,-1,15,-1,-1,-1,-1,-1,-1],"loss_changes":[2.7801373E0,1.6930761E0,4.543748E-1,1.5988734E0,9.578798E-1,0E0,0E0,1.4982405E0,1.6643432E0,0E0,3.3930707E-1,0E0,0E0,0E0,0E0,0E0,0E0],"parents":[2147483647,0,0,1,1,2,2,3,3,4,4,7,7,8,8,10,10],"right_children":[2,4,6,8,10,-1,-1,12,14,-1,16,-1,-1,-1,-1,-1,-1],"split_conditions":[9.9998987E-1,4.9999988E-1,2.42E1,1.9743353E1,1.107E2,-2.1700351E-3,-4.0488515E-2,4.9999976E-1,4.48E1,-5.9985286E-3,3.98E1,3.8087838E-3,-3.682064E-2,-2.9173097E-2,4.743345E-3,5.557644E-2,1.2503413E-2],"split_indices":[7,12,1,2,0,0,0,12,1,0,1,0,0,0,0,0,0],"split_type":[0,0,0,0,0,0,0,0,0,0,0,0,0,0,0,0,0],"sum_hessian":[1.1422719E2,1.0944875E2,4.778432E0,1.0547126E2,3.9774969E0,1.0666499E0,3.711782E0,9.207483E1,1.3396433E1,1.1016579E0,2.875839E0,9.07432E1,1.3316257E0,7.5515695E0,5.8448634E0,1.3768425E0,1.4989965E0],"tree_param":{"num_deleted":"0","num_feature":"13","num_nodes":"17","size_leaf_vector":"1"}},{"base_weights":[-5.3693457E-5,3.394363E-2,-6.6625553E-1,7.7361506E-3,5.860579E-1,-2.1163595E-3,-4.0112693E-2,-2.1948284E-2,4.965116E-1,-5.8556553E-3,8.1408095E-1,8.9404295E-4,-3.488303E-2,6.7385815E-2,-2.2292428E-3,5.3645708E-2,1.2100165E-2],"categories":[],"categories_nodes":[],"categories_segments":[],"categories_sizes":[],"default_left":[0,0,0,0,0,0,0,0,0,0,0,0,0,0,0,0,0],"id":51,"left_children":[1,3,5,7,9,-1,-1,11,13,-1,15,-1,-1,-1,-1,-1,-1],"loss_changes":[2.6293194E0,1.5936884E0,4.4432473E-1,1.555562E0,8.957561E-1,0E0,0E0,2.7394254E0,2.887076E0,0E0,3.1715107E-1,0E0,0E0,0E0,0E0,0E0,0E0],"parents":[2147483647,0,0,1,1,2,2,3,3,4,4,7,7,8,8,10,10],"right_children":[2,4,6,8,10,-1,-1,12,14,-1,16,-1,-1,-1,-1,-1,-1],"split_conditions":[9.9998987E-1,4.9999988E-1,2.42E1,5.11E1,1.107E2,-2.1163595E-3,-4.0112693E-2,9.999869E-1,5.17E1,-5.8556553E-3,3.98E1,8.9404295E-4,-3.488303E-2,6.7385815E-2,-2.2292428E-3,5.3645708E-2,1.2100165E-2],"split_indices":[7,12,1,1,0,0,0,7,1,0,1,0,0,0,0,0,0],"split_type":[0,0,0,0,0,0,0,0,0,0,0,0,0,0,0,0,0],"sum_hessian":[1.1409094E2,1.0945436E2,4.636579E0,1.0546234E2,3.9920213E0,1.0644348E0,3.572144E0,1.0032451E2,5.137838E0,1.0966378E0,2.8953834E0,9.565949E1,4.665009E0,1.4173989E0,3.7204387E0,1.3907E0,1.5046834E0],"tree_param":{"num_deleted":"0","num_feature":"13","num_nodes":"17","size_leaf_vector":"1"}},{"base_weights":[3.0699026E-4,-3.8428213E-2,2.828787E-2,3.3665877E-3,5.5575144E-1,-6.0206735E-1,3.0211676E-2,-6.5024146E-3,7.8669727E-1,-3.7771963E-2,-1.6770837E-3,1.3193933E-4,4.8185598E-2,5.18246E-2,1.17105935E-2],"categories":[],"categories_nodes":[],"categories_segments":[],"categories_sizes":[],"default_left":[0,0,0,0,0,0,0,0,0,0,0,0,0,0,0],"id":52,"left_children":[1,-1,3,5,7,9,11,-1,13,-1,-1,-1,-1,-1,-1],"loss_changes":[2.4942997E0,0E0,1.4685146E0,1.7705452E0,9.0063334E-1,3.7798345E-1,2.6792958E0,0E0,2.9720426E-1,0E0,0E0,0E0,0E0,0E0,0E0],"parents":[2147483647,0,0,2,2,3,3,4,4,5,5,6,6,8,8],"right_children":[2,-1,4,6,8,10,12,-1,14,-1,-1,-1,-1,-1,-1],"split_conditions":[2.4190961E-1,-3.8428213E-2,4.9999988E-1,9.59E1,1.107E2,9.9998957E-1,2.4060133E1,-6.5024146E-3,3.98E1,-3.7771963E-2,-1.6770837E-3,1.3193933E-4,4.8185598E-2,5.18246E-2,1.17105935E-2],"split_indices":[3,0,12,0,0,7,2,0,1,0,0,0,0,0,0],"split_type":[0,0,0,0,0,0,0,0,0,0,0,0,0,0,0],"sum_hessian":[1.13929504E2,3.0711653E0,1.10858345E2,1.06817856E2,4.040484E0,3.6254764E0,1.0319238E2,1.127936E0,2.9125478E0,2.5963004E0,1.029176E0,1.0120588E2,1.9865015E0,1.4024199E0,1.5101278E0],"tree_param":{"num_deleted":"0","num_feature":"13","num_nodes":"15","size_leaf_vector":"1"}},{"base_weights":[4.7735308E-4,3.2262642E-2,-6.496707E-1,7.5881463E-3,5.495361E-1,-1.3186665E-3,-3.9541733E-2,-2.0998018E-2,4.7192898E-1,-5.5612912E-3,7.6062256E-1,3.2425157E-3,-1.5802635E-2,6.351482E-2,-2.3486784E-3,5.0103683E-2,1.1334184E-2],"categories":[],"categories_nodes":[],"categories_segments":[],"categories_sizes":[],"default_left":[0,0,0,0,0,0,0,0,0,0,0,0,0,0,0,0,0],"id":53,"left_children":[1,3,5,7,9,-1,-1,11,13,-1,15,-1,-1,-1,-1,-1,-1],"loss_changes":[2.393947E0,1.4053094E0,4.5423985E-1,1.4224589E0,7.839192E-1,0E0,0E0,2.5839617E0,2.6339767E0,0E0,2.7917862E-1,0E0,0E0,0E0,0E0,0E0,0E0],"parents":[2147483647,0,0,1,1,2,2,3,3,4,4,7,7,8,8,10,10],"right_children":[2,4,6,8,10,-1,-1,12,14,-1,16,-1,-1,-1,-1,-1,-1],"split_conditions":[9.9998987E-1,4.9999988E-1,2.42E1,5.11E1,1.107E2,-1.3186665E-3,-3.9541733E-2,9.99974E-1,5.17E1,-5.5612912E-3,3.98E1,3.2425157E-3,-1.5802635E-2,6.351482E-2,-2.3486784E-3,5.0103683E-2,1.1334184E-2],"split_indices":[7,12,1,1,0,0,0,7,1,0,1,0,0,0,0,0,0],"split_type":[0,0,0,0,0,0,0,0,0,0,0,0,0,0,0,0,0],"sum_hessian":[1.13830414E2,1.0943079E2,4.3996196E0,1.0541696E2,4.0138316E0,1.0315824E0,3.3680372E0,1.0020296E2,5.214005E0,1.0863426E0,2.927489E0,7.822347E1,2.1979488E1,1.4834974E0,3.7305076E0,1.4121482E0,1.5153408E0],"tree_param":{"num_deleted":"0","num_feature":"13","num_nodes":"17","size_leaf_vector":"1"}},{"base_weights":[9.47835E-4,-3.7773E-2,2.7218023E-2,1.076859E-2,3.722877E-2,-1.3655687E-2,5.215159E-1,-2.9328635E-2,5.7351025E-4,-6.1895903E-3,3.6788207E-2],"categories":[],"categories_nodes":[],"categories_segments":[],"categories_sizes":[],"default_left":[0,0,0,0,0,0,0,0,0,0,0],"id":54,"left_children":[1,-1,3,5,-1,7,9,-1,-1,-1,-1],"loss_changes":[2.2980475E0,0E0,1.3104326E0,1.3823497E0,0E0,1.5352696E0,7.902099E-1,0E0,0E0,0E0,0E0],"parents":[2147483647,0,0,2,2,3,3,5,5,6,6],"right_children":[2,-1,4,6,-1,8,10,-1,-1,-1,-1],"split_conditions":[2.4190961E-1,-3.7773E-2,1.9204035E0,4.9999988E-1,3.722877E-2,9.59E1,1.107E2,-2.9328635E-2,5.7351025E-4,-6.1895903E-3,3.6788207E-2],"split_indices":[3,0,3,12,0,0,0,0,0,0,0],"split_type":[0,0,0,0,0,0,0,0,0,0,0],"sum_hessian":[1.1361367E2,2.8817248E0,1.1073194E2,1.09241974E2,1.4899722E0,1.0518521E2,4.0567636E0,3.4803948E0,1.0170481E2,1.1164032E0,2.9403603E0],"tree_param":{"num_deleted":"0","num_feature":"13","num_nodes":"11","size_leaf_vector":"1"}},{"base_weights":[8.8083453E-4,-3.7390828E-2,2.6202265E-2,6.5332963E-3,5.935711E-1,-1.7387854E-2,4.9989635E-1,9.26915E-3,3.6162164E-2,-2.880071E-2,3.4665744E-4,-6.041908E-3,3.5226148E-2],"categories":[],"categories_nodes":[],"categories_segments":[],"categories_sizes":[],"default_left":[0,0,0,0,0,0,0,0,0,0,0,0,0],"id":55,"left_children":[1,-1,3,5,7,9,11,-1,-1,-1,-1,-1,-1],"loss_changes":[2.1896193E0,0E0,1.2424868E0,1.2945573E0,6.34048E-2,1.4289681E0,7.293842E-1,0E0,0E0,0E0,0E0,0E0,0E0],"parents":[2147483647,0,0,2,2,3,3,4,4,5,5,6,6],"right_children":[2,-1,4,6,8,10,12,-1,-1,-1,-1,-1,-1],"split_conditions":[2.4190961E-1,-3.7390828E-2,1.6207547E0,4.9999988E-1,1.9204035E0,9.59E1,1.107E2,9.26915E-3,3.6162164E-2,-2.880071E-2,3.4665744E-4,-6.041908E-3,3.5226148E-2],"split_indices":[3,0,3,12,3,0,0,0,0,0,0,0,0],"split_type":[0,0,0,0,0,0,0,0,0,0,0,0,0],"sum_hessian":[1.1346431E2,2.7784638E0,1.10685844E2,1.0795489E2,2.7309556E0,1.0388279E2,4.072094E0,1.2441596E0,1.4867959E0,3.387683E0,1.0049511E2,1.1110859E0,2.9610083E0],"tree_param":{"num_deleted":"0","num_feature":"13","num_nodes":"13","size_leaf_vector":"1"}},{"base_weights":[8.847896E-4,-3.7007272E-2,2.5304904E-2,5.162436E-1,3.7799745E-3,3.5479948E-2,2.5813049E-3,-1.9541243E-2,4.7933307E-1,-2.3561794E-2,7.523875E-4,-5.8977376E-3,3.3748172E-2],"categories":[],"categories_nodes":[],"categories_segments":[],"categories_sizes":[],"default_left":[0,0,0,0,0,0,0,0,0,0,0,0,0],"id":56,"left_children":[1,-1,3,5,7,-1,-1,9,11,-1,-1,-1,-1],"loss_changes":[2.0872235E0,0E0,1.1776546E0,3.8391328E-1,1.2065327E0,0E0,0E0,1.6297652E0,6.7382836E-1,0E0,0E0,0E0,0E0],"parents":[2147483647,0,0,2,2,3,3,4,4,7,7,8,8],"right_children":[2,-1,4,6,8,-1,-1,10,12,-1,-1,-1,-1],"split_conditions":[2.4190961E-1,-3.7007272E-2,4.060788E0,1.179E2,4.9999988E-1,3.5479948E-2,2.5813049E-3,9.9980146E-1,1.107E2,-2.3561794E-2,7.523875E-4,-5.8977376E-3,3.3748172E-2],"split_indices":[3,0,2,0,12,0,0,7,0,0,0,0,0],"split_type":[0,0,0,0,0,0,0,0,0,0,0,0,0],"sum_hessian":[1.13306435E2,2.6797698E0,1.1062666E2,3.6812613E0,1.06945404E2,2.2271388E0,1.4541224E0,1.0286003E2,4.085368E0,6.4184318E0,9.6441605E1,1.1059119E0,2.9794562E0],"tree_param":{"num_deleted":"0","num_feature":"13","num_nodes":"13","size_leaf_vector":"1"}},{"base_weights":[8.715303E-4,-3.662254E-2,2.4418266E-2,-1.9486023E-2,2.6183325E-1,2.8224647E-2,-4.188681E-1,5.7204317E-2,6.268568E-2,-1.4923976E-3,3.4227654E-2,-1.7750066E-3,-4.571138E-2,8.325911E-3,-3.3953276E-2],"categories":[],"categories_nodes":[],"categories_segments":[],"categories_sizes":[],"default_left":[0,0,0,0,0,0,0,0,0,0,0,0,0,0,0],"id":57,"left_children":[1,-1,3,5,7,9,11,-1,13,-1,-1,-1,-1,-1,-1],"loss_changes":[1.9899951E0,0E0,1.1686287E0,1.8245966E0,3.0012658E0,3.2952313E0,1.9074746E0,0E0,1.2935402E0,0E0,0E0,0E0,0E0,0E0,0E0],"parents":[2147483647,0,0,2,2,3,3,4,4,5,5,6,6,8,8],"right_children":[2,-1,4,6,8,10,12,-1,14,-1,-1,-1,-1,-1,-1],"split_conditions":[2.4190961E-1,-3.662254E-2,1.0249575E0,8.553784E-1,1.0618259E0,7.799513E-1,9.99871E-1,5.7204317E-2,4.28E1,-1.4923976E-3,3.4227654E-2,-1.7750066E-3,-4.571138E-2,8.325911E-3,-3.3953276E-2],"split_indices":[3,0,3,3,3,3,7,0,1,0,0,0,0,0,0],"split_type":[0,0,0,0,0,0,0,0,0,0,0,0,0,0,0],"sum_hessian":[1.1321036E2,2.5854278E0,1.1062493E2,9.413484E1,1.649009E1,8.491958E1,9.215267E0,2.1629562E0,1.4327133E1,7.8893524E1,6.0260553E0,5.798988E0,3.4162793E0,1.3248127E1,1.0790055E0],"tree_param":{"num_deleted":"0","num_feature":"13","num_nodes":"15","size_leaf_vector":"1"}},{"base_weights":[5.841031E-4,-3.623685E-2,2.3292145E-2,8.053827E-3,3.4550134E-2,-1.351261E-2,4.556695E-1,-3.4317266E-2,2.8813203E-4,-5.721377E-3,3.206893E-2],"categories":[],"categories_nodes":[],"categories_segments":[],"categories_sizes":[],"default_left":[0,0,0,0,0,0,0,0,0,0,0],"id":58,"left_children":[1,-1,3,5,-1,7,9,-1,-1,-1,-1],"loss_changes":[1.8963652E0,0E0,1.1301048E0,1.0693666E0,0E0,1.3792689E0,6.124271E-1,0E0,0E0,0E0,0E0],"parents":[2147483647,0,0,2,2,3,3,5,5,6,6],"right_children":[2,-1,4,6,-1,8,10,-1,-1,-1,-1],"split_conditions":[2.4190961E-1,-3.623685E-2,1.9204035E0,4.9999988E-1,3.4550134E-2,9.43E1,1.107E2,-3.4317266E-2,2.8813203E-4,-5.721377E-3,3.206893E-2],"split_indices":[3,0,3,12,0,0,0,0,0,0,0],"split_type":[0,0,0,0,0,0,0,0,0,0,0],"sum_hessian":[1.13111336E2,2.495235E0,1.10616104E2,1.0913746E2,1.4786453E0,1.05046074E2,4.0913815E0,1.961716E0,1.0308436E2,1.0996051E0,2.9917765E0],"tree_param":{"num_deleted":"0","num_feature":"13","num_nodes":"11","size_leaf_vector":"1"}},{"base_weights":[4.487979E-4,-3.585041E-2,2.2365352E-2,7.571876E-3,3.3592593E-2,-1.3173446E-2,4.372286E-1,-3.390565E-2,2.7381448E-4,-5.584832E-3,3.0756405E-2],"categories":[],"categories_nodes":[],"categories_segments":[],"categories_sizes":[],"default_left":[0,0,0,0,0,0,0,0,0,0,0],"id":59,"left_children":[1,-1,3,5,-1,7,9,-1,-1,-1,-1],"loss_changes":[1.8083555E0,0E0,1.066952E0,9.8714375E-1,0E0,1.3182384E0,5.667917E-1,0E0,0E0,0E0,0E0],"parents":[2147483647,0,0,2,2,3,3,5,5,6,6],"right_children":[2,-1,4,6,-1,8,10,-1,-1,-1,-1],"split_conditions":[2.4190961E-1,-3.585041E-2,1.9204035E0,4.9999988E-1,3.3592593E-2,9.43E1,1.107E2,-3.390565E-2,2.7381448E-4,-5.584832E-3,3.0756405E-2],"split_indices":[3,0,3,12,0,0,0,0,0,0,0],"split_type":[0,0,0,0,0,0,0,0,0,0,0],"sum_hessian":[1.12984886E2,2.4089956E0,1.1057589E2,1.091025E2,1.4733899E0,1.05001976E2,4.1005216E0,1.8999653E0,1.0310201E2,1.0947393E0,3.0057824E0],"tree_param":{"num_deleted":"0","num_feature":"13","num_nodes":"11","size_leaf_vector":"1"}},{"base_weights":[3.0980594E-4,-3.5463456E-2,2.147014E-2,7.1076457E-3,3.267206E-2,-1.2846721E-2,4.196325E-1,1.9234001E-4,-3.6796976E-2,-5.451539E-3,2.9508842E-2],"categories":[],"categories_nodes":[],"categories_segments":[],"categories_sizes":[],"default_left":[0,0,0,0,0,0,0,0,0,0,0],"id":60,"left_children":[1,-1,3,5,-1,7,9,-1,-1,-1,-1],"loss_changes":[1.724853E0,0E0,1.0077246E0,9.1143197E-1,0E0,1.2818645E0,5.249029E-1,0E0,0E0,0E0,0E0],"parents":[2147483647,0,0,2,2,3,3,5,5,6,6],"right_children":[2,-1,4,6,-1,8,10,-1,-1,-1,-1],"split_conditions":[2.4190961E-1,-3.5463456E-2,1.9204035E0,4.9999988E-1,3.267206E-2,4.9999976E-1,1.107E2,1.9234001E-4,-3.6796976E-2,-5.451539E-3,2.9508842E-2],"split_indices":[3,0,3,12,0,12,0,0,0,0,0],"split_type":[0,0,0,0,0,0,0,0,0,0,0],"sum_hessian":[1.1286169E2,2.326524E0,1.10535164E2,1.0906769E2,1.467481E0,1.0495951E2,4.108171E0,1.035633E2,1.3962111E0,1.0900036E0,3.0181673E0],"tree_param":{"num_deleted":"0","num_feature":"13","num_nodes":"11","size_leaf_vector":"1"}},{"base_weights":[1.4171263E-4,-3.507622E-2,2.0574855E-2,6.6322424E-3,3.178623E-2,2.608903E-2,-3.840962E-1,-8.3439884E-4,1.5812311E-2,-3.1491887E-2,1.2354936E-2],"categories":[],"categories_nodes":[],"categories_segments":[],"categories_sizes":[],"default_left":[0,0,0,0,0,0,0,0,0,0,0],"id":61,"left_children":[1,-1,3,5,-1,7,9,-1,-1,-1,-1],"loss_changes":[1.6454886E0,0E0,9.5223224E-1,8.4669304E-1,0E0,1.3181118E0,9.752317E-1,0E0,0E0,0E0,0E0],"parents":[2147483647,0,0,2,2,3,3,5,5,6,6],"right_children":[2,-1,4,6,-1,8,10,-1,-1,-1,-1],"split_conditions":[2.4190961E-1,-3.507622E-2,1.9204035E0,1.164E2,3.178623E-2,1.0249575E0,4.43E1,-8.3439884E-4,1.5812311E-2,-3.1491887E-2,1.2354936E-2],"split_indices":[3,0,3,0,0,3,1,0,0,0,0],"split_type":[0,0,0,0,0,0,0,0,0,0,0],"sum_hessian":[1.12763504E2,2.2476432E0,1.1051586E2,1.0905487E2,1.4609904E0,1.0477091E2,4.2839622E0,9.213082E1,1.2640086E1,3.0850265E0,1.1989354E0],"tree_param":{"num_deleted":"0","num_feature":"13","num_nodes":"11","size_leaf_vector":"1"}},{"base_weights":[4.8667374E-5,2.0039571E-2,-3.5008408E-2,3.1492491E-3,5.1182765E-1,3.2681827E-2,-3.133364E-1,3.2591872E-2,6.4134E-3,3.7827963E-4,3.6271878E-2,-2.2300791E-2,3.820745E-3],"categories":[],"categories_nodes":[],"categories_segments":[],"categories_sizes":[],"default_left":[0,0,0,0,0,0,0,0,0,0,0,0,0],"id":62,"left_children":[1,3,-1,5,7,9,11,-1,-1,-1,-1,-1,-1],"loss_changes":[1.6049042E0,9.242914E-1,0E0,1.0269008E0,1.148206E-1,1.7413198E0,5.190469E-1,0E0,0E0,0E0,0E0,0E0,0E0],"parents":[2147483647,0,0,1,1,3,3,4,4,5,5,6,6],"right_children":[2,4,-1,6,8,10,12,-1,-1,-1,-1,-1,-1],"split_conditions":[2.8188828E1,1.6207547E0,-3.5008408E-2,1.157E2,1.179E2,1.153E2,4.43E1,3.2591872E-2,6.4134E-3,3.7827963E-4,3.6271878E-2,-2.2300791E-2,3.820745E-3],"split_indices":[2,3,0,0,0,0,1,0,0,0,0,0,0],"split_type":[0,0,0,0,0,0,0,0,0,0,0,0,0],"sum_hessian":[1.126503E2,1.10467865E2,2.1824315E0,1.0777284E2,2.695024E0,9.939465E1,8.378188E0,1.4619353E0,1.2330886E0,9.689268E1,2.5019753E0,6.1427193E0,2.2354686E0],"tree_param":{"num_deleted":"0","num_feature":"13","num_nodes":"13","size_leaf_vector":"1"}},{"base_weights":[2.1889366E-4,-3.451621E-2,1.9668005E-2,4.490115E-1,1.0071285E-3,3.268047E-2,-1.9920878E-4,3.0174311E-2,-3.5478413E-1,2.8618204E-4,3.5122074E-2,-2.6756296E-2,5.460472E-3],"categories":[],"categories_nodes":[],